,weights_out
0,0.008737348890232317
1,0.015731454768931237
2,0.005012337032245538
3,-0.015688178208691228
4,-0.013284846297405704
5,0.0002233533119339979
6,-0.0007186306985849425
7,0.007167292226864549
8,-0.0021767085129192937
9,0.01519534674880997
10,0.01376352908257911
11,-0.012311948355225907
12,-0.008027042873554357
13,0.005897683960596073
14,0.013891743532574321
15,0.021391543149118758
16,0.010425662558015643
17,-0.002658003734119224
18,0.007299275587146233
19,0.023533901061340942
20,0.005329924129872631
21,-0.0008333559549365759
22,-0.0035354215017222223
23,0.01743839505759253
24,-0.005957644927569199
25,-0.006971936583861026
26,-0.017645769629973915
27,0.01831502159836279
28,0.0033819944691260233
29,0.00019340478740374647
30,-0.01441144573172436
31,0.0033888598556652666
32,0.02997781326145759
33,0.020698690675363864
34,0.03356685346612213
35,0.01815151002428662
36,-0.02350386469659462
37,-0.01781473137959141
38,-0.022825818792082887
39,0.007235518373879958
40,0.0029665473438727267
41,0.015641361139464544
42,-0.015560267557477537
43,-0.020766363480549117
44,-0.01379364933510727
45,-0.03651757201645783
46,0.02259258483349737
47,0.0028440791289269145
48,-0.035037924804554116
49,0.0035129062870751667
50,-0.016354928067157444
51,-0.005539540948853212
52,0.020739409751122755
53,-0.009436084675757144
54,0.008289054340598767
55,-0.03024440756214348
56,0.015793324960722308
57,0.018630464580563205
58,-0.013446600714559847
59,-0.006609050854455611
60,-0.022852730915289828
61,0.015586623348577232
62,-0.01935699282825632
63,-0.0016677157349562124
64,0.009788573220645235
65,0.006419383045417832
66,-0.016589553977967332
67,0.00460607299583886
68,-0.008607924671763656
69,0.021555660986349173
70,0.027186478722097198
71,0.02024623738441444
72,-0.0142295257905109
73,-0.012515196578995585
74,-0.036536988589259134
75,-0.005013109769881269
76,-0.0026111824910824174
77,0.013167956392285261
78,0.043980376244812165
79,-0.02841528454284576
80,0.011370822027525294
81,0.011660447214027495
82,-0.006847399668272801
83,-0.007856869246630442
84,0.05802888766204976
85,-0.02059969040631381
86,-0.03735672594742701
87,0.043138200424212084
88,-0.03871563038248254
89,0.003180102797208008
90,0.016241154529299532
91,0.01154318569164927
92,-0.008662342130148982
93,-0.028013241040712077
94,-0.005915493731392605
95,0.02115204203001322
96,-0.00021967757465431403
97,-0.011264500687311826
98,0.03496991325976577
99,0.004133234203123507
100,0.006649538993222545
101,0.0046297118841371375
102,0.010782495476006312
103,0.0013834521995435235
104,-0.017457658302939643
105,0.017310373448429537
106,-0.0023388083648917955
107,0.004043819813315869
108,-0.03349833601737051
109,0.012610017081584539
110,-0.019130232798730492
111,0.028627385935593812
112,0.025494840883252132
113,0.0060226630200979
114,-0.022786841590150705
115,0.01955597790047309
116,-0.025258157406999583
117,-0.013942362426037275
118,0.010486180007467332
119,0.005762432359218963
120,0.006442559317460665
121,-0.019591170768378175
122,0.022851204842657135
123,-0.0028893949514457455
124,-0.009163000387765964
125,0.010223067195868475
126,-0.005697660496692873
127,-0.03712785428730072
128,0.02992880014284177
129,0.008324091200914499
130,-0.017329614979507583
131,0.024954626402625253
132,-0.01499132795560669
133,-0.032514660023609795
134,0.01833420731953627
135,-0.006985098212320273
136,0.018100880977585877
137,-0.008666738952711783
138,0.008157349390009647
139,0.01767111559940757
140,-0.024029029551549657
141,0.009268715148101788
142,-0.0033372126144040203
143,0.01730822209335068
144,-0.002618157157583411
145,-0.02159685902742491
146,0.004643323024636768
147,0.011760792555672524
148,0.029907656529610877
149,0.0241269267805529
150,-0.013128253196444761
151,0.01728956736948039
152,0.015430454957123111
153,0.023747272015747074
154,0.017076242923646602
155,0.012930806029394814
156,0.030678679635669077
157,0.018381448318691547
158,-0.026502026602807052
159,0.018527021206103812
160,0.021770732733118893
161,-0.03584571327579964
162,-0.008965984864065064
163,0.0032116222261686055
164,0.044710232512614516
165,0.02023792531825959
166,0.0029915050202938545
167,0.002634144669209788
168,0.014159028648101346
169,0.0021442132561008197
170,-0.019790507915808674
171,-0.0019376350809952106
172,0.011454304653756433
173,0.03579179215638202
174,-0.027485126437518874
175,0.02356751754438689
176,0.03015755224665191
177,-0.020306555239043806
178,-0.0037905448544315033
179,0.013863315843074368
180,0.00900849128813856
181,-0.036775738703760635
182,0.012224886412083295
183,-0.005451873085779215
184,0.013609126144693848
185,0.002966106337679546
186,0.011129215389987382
187,0.00011952101658909656
188,0.002997518995944603
189,-0.004615269261612698
190,-0.001105702128740123
191,-0.02352156994820252
192,0.007388552190666034
193,0.0010247168261043266
194,-0.006304562087742607
195,0.017255271423719812
196,-0.029119451089588695
197,0.004193152212459023
198,-0.0062480078363519355
199,0.0006276319005261201
200,0.009902471458447805
201,-0.023150764660801067
202,0.027248538312243924
203,-0.0022780330842714237
204,0.017496875515030413
205,0.01678524818880248
206,-0.009125198099146798
207,-0.02336616086211258
208,-0.022115950035290783
209,0.023154930824950834
210,0.006736743175429363
211,-0.012576609423332226
212,-0.014060508707865613
213,0.02137954717029249
214,0.01053345844514509
215,0.028560267848728258
216,0.006776891246388938
217,0.0010888365533956368
218,-0.04348860807126027
219,0.00484826467378424
220,-0.03657286578387832
221,-0.03124232864456931
222,-0.003693221484838179
223,0.020889772969799963
224,-0.016478567269716898
225,-0.00929871570739152
226,-0.007301312905854804
227,0.006310689496140542
228,-0.016927055682201233
229,0.021550100121647823
230,0.00778489272810954
231,-0.002538446545090911
232,-0.0042890613282577945
233,-0.05252781399818104
234,-0.011200070536834736
235,-0.011855683694992807
236,0.00999870105641538
237,0.014580796068588184
238,-0.027636167280219927
239,0.004513385745348276
240,0.0016855428722903178
241,0.010981382221247532
242,-0.014341834661988689
243,-0.00910585884886724
244,0.01960210322445081
245,0.007477370077250382
246,-0.00698726963174768
247,-0.00829449249541558
248,-0.012316772535487696
249,0.03288584122500988
250,-0.029631242368704513
251,0.010151150811299626
252,-0.006475171913103218
253,0.006120697068060385
254,-0.01125146224473171
255,0.008572160106444269
256,0.021570656843405554
257,-0.006341013653230325
258,0.0044142639952745024
259,-0.005139191149003146
260,-0.01652340735188255
261,0.0065226249873779766
262,-0.009128710761592983
263,-0.014720601850268189
264,0.015713755380318547
265,0.0011496832307588886
266,-0.013352547738855984
267,-0.0030282312197547068
268,-0.00419221292471375
269,-0.0049678668168317555
270,-0.013299926008277922
271,-0.014560589376674236
272,-0.005516500223787223
273,-0.007826538217122434
274,0.005212741483670412
275,-0.028472198399217507
276,-0.002534591502523691
277,-0.009046688797176506
278,-0.005230589927017759
279,0.02658636573013895
280,-0.03254417512818683
281,0.017164707028051507
282,-0.007741010292236696
283,0.0036325672770631742
284,0.02581421667430846
285,-0.004632924259786266
286,0.009540656970510035
287,0.0021256527755534873
288,-0.01262207217196349
289,-0.013496833521542668
290,0.025980711530555714
291,-0.005595894793264304
292,-0.02077522020274633
293,-0.004680427698968316
294,0.01700296485516939
295,0.02503779837249051
296,-0.015307721495122991
297,-0.004982845064315239
298,-0.015036196231533754
299,-0.007190639338491155
300,0.0204569210561013
301,-0.009259499221165805
302,-0.014923644859914958
303,0.01963218659198089
304,0.00525392082051803
305,-0.002965928035838241
306,-0.015132633381771104
307,0.01540418834951261
308,0.013253597973082457
309,0.021346753008949733
310,0.0011719593270608625
311,-0.005024286590501102
312,-0.00807839797644216
313,0.002500034540838302
314,-0.0031824934883170463
315,0.009106216785850363
316,0.009306879867144386
317,-0.0031451151949578255
318,-0.02289456884282107
319,-0.03502381932238725
320,0.00077270215993435
321,-0.0048488866420676935
322,-0.0028056033585460893
323,-0.0013992729199001042
324,-0.0008777595668887945
325,0.027192429240770477
326,-0.028647460801670972
327,0.010409398854648868
328,0.014848376181884573
329,-0.00246777643284959
330,-0.0058659635734419355
331,-0.001910959965922828
332,0.030940578414757305
333,0.022921595760793226
334,0.0421265144863803
335,0.012341316149678582
336,0.0041840706502881755
337,-0.0072214440505960235
338,-0.013890802566639654
339,0.008212537123472542
340,-0.004981998157439047
341,-0.004044486963538167
342,0.007272546999095062
343,0.0388597425113853
344,0.007743944008233962
345,0.009451599302639026
346,-0.003086417741398044
347,-0.009814974159343707
348,-0.005178045867816542
349,0.013175445435783684
350,0.004308735061707508
351,0.01174853104680001
352,0.003054309959117829
353,-0.020544736220720984
354,0.02512143834446712
355,-0.02036404191137368
356,-0.013368198442017426
357,0.0010189573349953897
358,-0.022153693400157125
359,-0.016007996500522807
360,-0.005166083711245692
361,-0.013340730390412102
362,-0.006979940408822292
363,-0.013930557318486253
364,-0.005419352680083836
365,-0.007152291493104654
366,0.003567190834902109
367,-0.005211607861300786
368,0.0381467793671088
369,-0.021943645852739654
370,-0.020438003134346596
371,0.002598760218924392
372,0.020841542570687415
373,-0.03098976341569791
374,-0.009368444966070791
375,0.01090198572352973
376,0.03272103569033604
377,0.0172005189319407
378,0.014032706641436275
379,-0.005391235375225549
380,0.010770850386496755
381,-0.0010171573136574061
382,0.0060175312702366885
383,-0.030144956767861286
384,-0.007912281502871776
385,-0.019243443713871638
386,-0.00340024258008231
387,0.02448094599104679
388,-0.010775956108141093
389,0.02378354096125536
390,0.008221047248688171
391,0.012904572486611013
392,0.02894827512926513
393,-0.01287915252626456
394,0.015682111104004894
395,0.013902340971001572
396,-0.00511827276714892
397,-0.00630577181403478
398,0.010100225221631218
399,0.004424650873374676
400,-0.018916510163569333
401,-0.012180964165844842
402,-0.01990449271338851
403,0.005136515266475499
404,-0.0024421896529656603
405,0.006622476028469751
406,-0.03263968076856405
407,0.014784152590481577
408,0.007960348087871003
409,-0.007934271886042865
410,0.006909295454067894
411,-0.03847020994594034
412,0.02604529890778107
413,-0.02534768047264588
414,-0.008653895847653111
415,-0.016591361701936803
416,-0.02555487685607328
417,0.02537334548207793
418,-0.02445773447510024
419,0.009953950933091005
420,-0.0023386624760185913
421,0.009992917642769071
422,-0.023533225210960542
423,-0.0009553749244348414
424,-0.010259149368462459
425,0.011179758753569387
426,0.006614748014815749
427,0.028627032225646554
428,-0.013164406124223883
429,0.01756773272800748
430,0.027889475897237503
431,-0.003330001333276076
432,-0.008111733721752685
433,-0.03520634038158603
434,0.026066280541722685
435,-0.012618167303580974
436,0.005551496297939948
437,0.04953740388388868
438,0.016249488747551544
439,-0.0260191538475787
440,-0.02331606911417148
441,0.001887248170261632
442,-0.007418500912409753
443,-0.002378228438440889
444,0.013320515002865775
445,-0.0038128554989356957
446,-0.03068100806606331
447,-0.015596768702387529
448,-0.012482249161427901
449,0.03345023133642657
450,-0.02033841829812401
451,-0.015402501498625733
452,0.013554431881361228
453,0.011821128591835126
454,-0.018036115981205365
455,0.02685905626164045
456,0.03439743802031095
457,0.04422735675853768
458,-0.0008107394206904739
459,-0.0038466758619529035
460,-0.0019068571721380407
461,0.0009085781778475726
462,0.0004885265958973747
463,-0.00860392653802418
464,-0.006176185154385127
465,-0.002268002321261799
466,-0.017392829522442765
467,0.0013802850077975822
468,0.01614676781241949
469,0.017207255054255327
470,0.006003971957599169
471,0.013815970165469845
472,-0.008209576354131803
473,0.004954924836729539
474,-0.018542851199633018
475,-0.002802472649178504
476,-0.007423163211798924
477,-0.01919983950870271
478,0.007643310701664325
479,0.005278391915713535
480,-0.007948908936026199
481,-0.015888512248215927
482,-0.01580606053741275
483,0.01897015945047896
484,-0.023927706270955452
485,-0.008018877929478554
486,-0.03461676494625859
487,-0.00602041575009684
488,0.015574465576518943
489,-0.012343064570371428
490,-0.003262194277766663
491,0.015487806348333105
492,0.007069180559578827
493,0.005568309370001248
494,0.018754541663730306
495,-0.006433750334738685
496,-0.005142310567611325
497,0.030863416914127875
498,0.010278658364233733
499,0.006153206684084604
500,-0.01651071874225682
501,0.01404051165552245
502,0.006814181758184709
503,0.0064372317473004115
504,-0.020802827296752414
505,-0.005209702691071642
506,0.005109690220009691
507,-0.008680622416234716
508,-0.006977493558148666
509,0.007498982438646692
510,-0.010285896884631178
511,0.004409597018736193
512,-0.011802257215505308
513,-0.027116173356775988
514,0.0075789491285109135
515,0.024406317395704823
516,0.010579949068249784
517,0.044536030161535636
518,0.011783000400837615
519,-0.031699217800535036
520,0.028428778730261936
521,-0.016273351771738564
522,0.021639040478211136
523,0.04351972667715215
524,0.008904484502250613
525,-0.005918420898500684
526,-0.027873204471682463
527,-0.020984261776549672
528,-0.012805715318501158
529,-0.013693708133086999
530,-0.020780838113019565
531,0.02858703529932311
532,-0.0161427605545614
533,-0.006172546077562479
534,-0.0024090193589158143
535,0.01515821295882633
536,0.006165573646699151
537,-0.0002235867916965143
538,0.01407968942275225
539,0.02506416763750328
540,0.007642092393243563
541,0.008732205075340473
542,0.017903305355798232
543,-0.0007199312569029956
544,-0.03822202714189038
545,0.01447552593799731
546,-0.006415952264558816
547,-0.006336150541427606
548,-0.010998776946156433
549,-0.03828645006981603
550,0.016769359427950926
551,-0.00853436052277977
552,0.005241336031928548
553,-0.01626219359290053
554,-0.006643202883892221
555,-0.006586073952078298
556,-0.016336880249923188
557,0.025960423037051455
558,-0.01902227842582511
559,0.01289615598338396
560,0.011384915924346482
561,-0.013637166891512556
562,0.021702685135188714
563,0.008932391221064841
564,-0.01711456603160716
565,0.008912266922542702
566,0.02429049756302704
567,0.00019781917095487277
568,0.01591011018746117
569,0.009476597231718672
570,0.012095803444284414
571,0.0043702599492438585
572,0.002715551959331679
573,-0.002053765543999115
574,0.014819608704940007
575,-0.014143005330144743
576,4.406801640976055e-05
577,0.0011215943997814621
578,0.03184364431220444
579,0.010476595481303957
580,0.005789007964515492
581,0.007887791861476373
582,-0.018072679640986664
583,0.007677256403584861
584,-0.009825301233664761
585,-0.042468876919352014
586,0.026619120542679682
587,0.005860009489287396
588,0.0027490191455723447
589,-0.0180703940894355
590,-0.020415011665209173
591,0.001689323225518824
592,0.0007485192724910064
593,-0.013460202933575334
594,0.0038777052070159295
595,-0.011686525430883731
596,-0.03994188332402641
597,0.01812086584571526
598,0.004772652508780622
599,0.012243813029267489
600,0.017931467501721955
601,-0.020694816236345573
602,-0.008158920500694044
603,0.011635704865422734
604,-0.00830741492611541
605,-0.0008162768098248692
606,-0.01855223696923676
607,0.03278434526891724
608,-0.029763950010274657
609,0.03639578719123442
610,-0.004735265142707112
611,-0.016191497211547754
612,-0.013804953832376616
613,0.011620942298061848
614,0.0005807844650408694
615,0.025911592026376704
616,0.005890877622036402
617,-0.015614023143753398
618,0.007555506971928101
619,-0.016329838017054725
620,0.007379050556536913
621,-0.0033406343655193256
622,0.002574981736387603
623,-0.020502526272066165
624,0.00247847297259035
625,-0.02159344671269703
626,-0.03475267269732261
627,0.01308628561841992
628,0.010277639025292705
629,0.0228619994777758
630,-0.003380210293868178
631,-0.0015930088990544595
632,-0.005838833604600272
633,0.012340071880284678
634,0.0015378409644466564
635,0.019308003370938145
636,-0.02208105020120101
637,-0.0034278149111882715
638,-0.008626751206797269
639,-0.015067813401034833
640,0.012984813300740292
641,-0.0021517477760729427
642,0.01957303387750903
643,-0.01000588757434869
644,-0.014001293518210027
645,0.01189787521016195
646,-0.0014088068196978962
647,-0.00645173796508556
648,0.01249014866657507
649,0.025474093547314086
650,0.007485597127246485
651,-0.0023371253575500605
652,0.0003226992267491923
653,0.007273638379989907
654,0.009673315598195795
655,0.01182001343759019
656,-0.005729436540353393
657,-0.01837061918926606
658,0.005765562929178101
659,-0.008276035688564623
660,-0.006650892554258956
661,-0.029640442215685243
662,-0.0015214939701257398
663,0.021803202826084448
664,0.009108592040543758
665,-0.002483804064210863
666,0.030379140173434075
667,-0.0021653315871916563
668,-0.02403735759209904
669,0.027249561563401123
670,0.004868758181302491
671,0.01841318419499156
672,-0.0015834676030079414
673,0.023122080960563084
674,0.004736936171362566
675,0.016030157916378938
676,-0.009451976125334258
677,0.008611212336114777
678,-0.036023589122224545
679,0.016118141945594345
680,0.015988353920114447
681,0.008999725809322928
682,0.005347588910002737
683,-0.018603556787030996
684,0.019101028018133324
685,0.02838558098407879
686,-0.01015721579486019
687,-0.0033418104450976707
688,0.022848728845198635
689,0.0072520974306940714
690,-0.04090036003035349
691,0.010714447425477622
692,0.032532991038958244
693,-0.02290686635013659
694,0.007700829105435902
695,0.004693940302122858
696,-0.005086874223408242
697,-0.004218862703355611
698,0.017769273621416722
699,0.02793002517978494
700,-0.021620605489376853
701,-0.004219934187612193
702,0.027732511272814554
703,-0.007127675497947123
704,-0.024284612560242638
705,-0.01914462128249805
706,0.0005476105815870821
707,-0.017426105050093777
708,0.013288601215241896
709,-0.008059357448041852
710,-0.005993815094831987
711,0.0017905636197292154
712,0.00896834256270815
713,-0.015506902239891842
714,-0.016891728038740166
715,0.02120473866788285
716,-0.020892043789243336
717,0.008217844595383644
718,-0.024698586007860332
719,0.015664808223997264
720,0.011678173874840601
721,-0.009448130669197731
722,0.012184472486824095
723,0.0358384129308672
724,0.042172640515246856
725,0.0025344543576449304
726,-0.006738521908434346
727,-0.0022192759759012905
728,-0.0029752023338318135
729,0.0216007529868556
730,0.007410515602455687
731,-0.03210079111101744
732,-0.021263901932631044
733,-0.014416929597163192
734,-0.04692095130689771
735,-0.013705844478971729
736,0.026158256910188186
737,0.0007844737767497054
738,-0.0009167707867705898
739,0.012119672218186571
740,0.013448497647994963
741,0.01595015412120982
742,0.002053106904768443
743,-0.05132300941443498
744,0.014392243569658743
745,0.03981828257276059
746,0.013576200367291034
747,0.010675334742354872
748,0.005657215632013928
749,0.00691490998230212
750,0.01609299603865525
751,0.005150618253818809
752,0.003707531445718707
753,0.03286335754276875
754,-0.009193553967309353
755,0.008290386112391848
756,0.01328415971685882
757,-0.021610248131153358
758,0.009175132939866486
759,-0.027684755942603813
760,0.006276870790987541
761,0.002403958844986152
762,-0.015355202434670865
763,0.026875606093806355
764,0.03540794787104846
765,-0.009847529195597133
766,-0.015657295909393944
767,-0.02942693976256414
768,-0.0043652747388340405
769,-0.007535062043101932
770,-0.028481937940528314
771,-0.020077085324130682
772,-0.027085866207497884
773,0.005624396884784578
774,0.009691513939619322
775,-0.010212176389693172
776,0.03879643681169257
777,0.03302046497125162
778,0.013033236518348512
779,-0.024714544154087536
780,0.011915946358669376
781,-0.003952420647609543
782,0.009342843245326377
783,0.014069590554928279
784,-0.025570692910442706
785,-0.013140407141277954
786,-0.0011429067320649592
787,-0.015406435213173728
788,0.00964224224626684
789,-0.0013711406401359018
790,-0.013585136406850279
791,0.00542810760367236
792,0.01800274941153335
793,0.006411951314042265
794,0.017167643445102927
795,-0.011572249241456252
796,-0.012295923423595001
797,0.011938226921413652
798,0.00874550731506842
799,-0.023318634702592357
800,0.0009929226469827456
801,-0.03886276993354477
802,0.018240607234972225
803,-0.018542493217911255
804,0.01259430997083432
805,-0.019826037565925176
806,-0.030878553832928896
807,-0.001401689329256163
808,-0.015558065291893491
809,-0.0393885228669638
810,0.017467501675629445
811,0.008014433176320074
812,0.019781958531634815
813,0.022540944436508312
814,-0.019349088676940684
815,-0.010813779697718406
816,0.01124331031410097
817,-0.00999950089624589
818,-0.012919599701943233
819,-0.0059474202013007115
820,-0.019211363858747346
821,0.01823664760650722
822,-0.01397343345745587
823,7.888438751522955e-05
824,-0.012408103388010173
825,0.002019922679293634
826,-0.025131066867316105
827,-0.0004095738390370761
828,-0.03238612500454177
829,-0.01785566341913781
830,0.007166854971375287
831,-0.025547240895651878
832,-0.0161857142955491
833,0.016830353349345427
834,0.016139070005017072
835,-0.011645395604203797
836,-0.002078978578085444
837,0.022901348479428905
838,0.02156276395816939
839,-0.028928191631178515
840,0.010536877427462744
841,-0.01905397394383649
842,-0.004221685602503869
843,0.027781684440306417
844,0.020902578690242386
845,-0.02700823830821393
846,-0.01898282577695909
847,0.013498099272308058
848,0.04800130324726519
849,0.02395570865075826
850,0.013752670072245027
851,-0.014610320912530275
852,-0.0030981202136499673
853,0.005409577593564062
854,0.016455257743433423
855,0.019328435056337093
856,-0.01193295075265408
857,-0.01646088173654926
858,-0.05524340582303049
859,0.018804409841525826
860,-0.0031362530849439775
861,-0.020278820653652344
862,-0.009351340148914674
863,0.02192127676512763
864,-0.011348893326312314
865,0.0062439706829632066
866,-0.008772654109330934
867,0.03515722652337016
868,0.01193077237769893
869,-0.0016869130328900433
870,-0.00906130956793235
871,0.014391631610084634
872,0.004809648983716369
873,0.00012026839990849874
874,0.030389780727980167
875,0.0003927191333861997
876,-0.004721502713143539
877,0.019296850663816745
878,-0.04040950122118474
879,-0.02623949048134686
880,0.00035491055279290303
881,-0.02181997295371804
882,-0.002581251171096763
883,-0.01684354102141144
884,0.009980196357639286
885,0.021563288899592734
886,0.0028387220865927483
887,-0.019584297226063644
888,0.033842232972354225
889,-0.005995751598517964
890,0.004225803649688423
891,-0.02476618461218066
892,-0.023052081975840372
893,-0.01968225947491278
894,0.01874350170550313
895,-0.004111855738107314
896,-0.006356937699211904
897,0.018316393315470702
898,0.016767291877107692
899,0.009534205278305034
900,-0.008283914129650549
901,0.0313923084196037
902,-0.003335784240544676
903,-0.008732410566128185
904,0.04201017795303253
905,-0.004051089418100007
906,-0.01211180015426149
907,-0.009266728705821103
908,-0.010591021745573744
909,-0.011009065960477238
910,0.005762101762514569
911,0.012521369280627085
912,-0.008444952537279735
913,-0.02181740258843492
914,0.010817304711400058
915,-0.028805442368883077
916,-0.02551513956598017
917,0.02358544887169588
918,-0.008896807296334389
919,-0.007341807757547381
920,0.0050393027018170436
921,0.040283578606405586
922,0.017212378318862433
923,-0.007101647236615675
924,-0.012864238911017354
925,0.01626899394624998
926,-0.004301362567199608
927,0.02855861428385805
928,-0.02146209428759034
929,0.010017212260486163
930,-0.010329055413554243
931,-0.013712845023987924
932,0.011247872499553793
933,0.0029856383964696575
934,0.020780394956790457
935,-0.004854125372138192
936,-0.02199758200294351
937,-0.007702427478491607
938,-0.008555512142321083
939,-0.01536573816494789
940,-0.017969092324057766
941,0.011101841848614206
942,0.00310995975431312
943,-0.01845466039544623
944,0.014938732391842248
945,0.01035896126832942
946,-0.022257039800332452
947,-0.008894747786035398
948,-0.014956927455307783
949,0.02101730060887392
950,-0.009155121439675885
951,-0.009690146024724006
952,0.013099997345252447
953,-0.034643528382388614
954,0.020137441742462688
955,0.005283426660085125
956,-0.00028556598662714966
957,0.03978701015288182
958,-0.012728839466607871
959,0.022937757311753633
960,0.019553016894714306
961,0.016052937622046803
962,-0.0018473309027531464
963,0.02572046020453635
964,0.03496627371959513
965,0.001983980095615576
966,-0.023502478177206024
967,-0.0070654140219742366
968,-0.023134674156060603
969,0.013359272565745569
970,0.007623580271775868
971,0.04881560369485903
972,0.010129172971909038
973,-0.0025250078142450474
974,-0.0023229350101295204
975,-0.02967781477107415
976,-0.0351065180272231
977,0.03383741721022949
978,0.02612696423005563
979,-0.011759453897698663
980,-0.002584916608254606
981,0.016659433540871866
982,0.022509959723121514
983,-0.018481980661163966
984,-0.02223917643652606
985,-0.009432788172860116
986,0.04515364521349122
987,-0.015894775656942344
988,-0.03815442983910445
989,0.0013558380267524157
990,0.016732801228610265
991,0.03321301313264009
992,-0.021073467365211842
993,0.02252064249257291
994,-0.018389630490161766
995,0.021789533403752163
996,0.03200845709450447
997,7.70210432133196e-05
998,0.00916726278084581
999,-0.03708177792510232
1000,-0.010431054478856104
1001,0.01314138197502047
1002,-0.0016271959338813222
1003,0.005512247333001753
1004,0.0012596415799773957
1005,-0.02101844434726162
1006,-0.010679842595225192
1007,-0.016974654561655193
1008,0.01125226941888506
1009,0.012684559180107283
1010,-0.03377664449645005
1011,-0.014639159861446035
1012,-0.02158162759732902
1013,0.003932470441491448
1014,0.03474290200564155
1015,0.019073427756426672
1016,-0.0053165242180915825
1017,-0.025741034492652432
1018,-0.019838018100937053
1019,-0.0017938542726072923
1020,-0.03142025772888212
1021,-0.018751013271749748
1022,-0.015368121132168166
1023,0.01846503422106544
1024,-0.023211902636356
1025,0.013711763245211636
1026,0.008123382398204392
1027,0.036054395105703414
1028,0.021456052589099647
1029,0.024495330633916984
1030,-0.01924573604818252
1031,0.009095362246772827
1032,0.020760710931699882
1033,0.04781489779738309
1034,-0.007490225430789813
1035,0.015656812053191048
1036,0.010235219380922995
1037,-0.010056292138318296
1038,0.011181321244882513
1039,-0.011293034195100514
1040,-0.013420830634133532
1041,0.005732124499215022
1042,0.033806477372685696
1043,0.01910215590465705
1044,0.021015328290777333
1045,0.012556136120944283
1046,-0.00486212731629225
1047,-0.013274227659721522
1048,-0.012195694806395353
1049,-0.006335345475445506
1050,-0.019584980533512177
1051,-0.008206142365558599
1052,0.0032547106592750743
1053,-0.01791454563040829
1054,-0.02262937486929249
1055,-0.0031687433329001423
1056,0.03570140983528914
1057,-0.0011740919906013886
1058,0.03407874526891724
1059,0.004742899136614954
1060,0.0130667846886192
1061,-0.0035260601056371654
1062,0.0009029787921493601
1063,0.009973757324722915
1064,0.019443795062042843
1065,-0.005979109891155651
1066,-0.020408671213565092
1067,-0.010781049695303309
1068,0.0026330517301140295
1069,-0.026612479430981037
1070,-0.005669809779054981
1071,-0.0018255420961682059
1072,-0.04431262980145556
1073,-0.02388569287479729
1074,-0.005827556026860617
1075,-0.02983061280665275
1076,-0.004105778501084012
1077,-0.019776989337012614
1078,-0.020892091614820557
1079,0.007122889259404443
1080,-0.005537625773868277
1081,-0.019822002252526776
1082,0.00806941848542488
1083,0.013803786784195712
1084,0.012319824810891942
1085,0.059035225295363994
1086,0.012393753123652484
1087,-0.0010977151089544683
1088,0.00596770043865143
1089,-0.027599207009949195
1090,0.035127323357601686
1091,-0.034089924963913915
1092,0.010756015931243377
1093,-0.0021141264120925103
1094,0.00195765906971981
1095,-0.017938920696391195
1096,0.023753153096918028
1097,0.01173949021097856
1098,-0.03669751440551184
1099,0.029333026988821818
1100,0.007706501344633474
1101,-0.018406591374674625
1102,0.00435999902441969
1103,0.002967496432165011
1104,-0.0012937235844442724
1105,0.01528180737508037
1106,0.016238539825556956
1107,-0.023639592895026693
1108,0.035416497233924184
1109,-0.020634832649144102
1110,0.0005908373405025814
1111,0.013328739133384426
1112,0.021138307143193695
1113,0.028707496756435195
1114,-0.0003248970934480878
1115,-0.03098163795257679
1116,0.0016300274520181586
1117,0.0010991695730937915
1118,-0.049325327273748734
1119,-0.002012767764230393
1120,0.0018291494376844126
1121,-0.03065035547629216
1122,-0.02540148484583101
1123,-0.02952078854950709
1124,0.012459450907470544
1125,0.0043520845672289634
1126,0.020370778523506976
1127,0.01613761843834586
1128,0.020382395046815126
1129,-0.0161751481996413
1130,0.002517385112086107
1131,0.01894415919334442
1132,-0.014165579626960275
1133,0.001994131830286477
1134,-0.025060157178175706
1135,-0.017647791116268293
1136,0.0032070347398973783
1137,-0.0019197415181996392
1138,0.01702825039943308
1139,0.01955126301633806
1140,0.00431616491612368
1141,0.021299547210374754
1142,0.003632826169182577
1143,0.019272060336239266
1144,-0.006231366705546066
1145,-0.0008099348149143667
1146,0.002879639318729048
1147,0.013226767801712289
1148,0.0047161726213183364
1149,-0.0154635990371051
1150,-0.004125351452821485
1151,-0.016897278700481303
1152,-0.04041818206003551
1153,0.02559612047625131
1154,-0.008518735130839965
1155,-0.013778453414251891
1156,0.020246742956288335
1157,0.019742695826940573
1158,-0.009134558759653032
1159,0.00455198020568338
1160,-0.009377453938000983
1161,0.006122773355963793
1162,-0.03210715338385159
1163,0.022176794394903613
1164,0.02300713491667237
1165,-0.007222921309318408
1166,0.023479257937630664
1167,-0.033951268468233375
1168,-0.03891097805192598
1169,-0.01504428836243398
1170,-0.03999527938110292
1171,0.012724481862551757
1172,0.009422839363070512
1173,0.03962474543626683
1174,0.011966395791141074
1175,-0.0012313614520675878
1176,0.011856196063416122
1177,0.011166779063566022
1178,-0.00022767090956427955
1179,-0.007841709933184381
1180,-0.013104591258884893
1181,-0.005135260603415104
1182,-0.011829453888989124
1183,0.006018727433025155
1184,-0.028025527281305772
1185,-0.022571552643817803
1186,0.024377901597643005
1187,-0.004052039963881871
1188,0.016374036865891606
1189,0.0035970398817827885
1190,-0.006890149614779682
1191,0.022866144617535108
1192,-0.03038407014415986
1193,0.010056280660374927
1194,0.02624308685207577
1195,0.019414554402234042
1196,-0.018151457789575384
1197,-0.013630565595474393
1198,0.014278952896161528
1199,0.00934014647176634
1200,-0.0015530114211662067
1201,0.0007253506271152075
1202,0.01105656796977551
1203,0.002812901337296214
1204,-0.02827119406223795
1205,0.013591074395714418
1206,-0.006637563198026828
1207,0.002635848618377809
1208,0.015082981582948168
1209,-0.022307823305970108
1210,-0.0004120373638881531
1211,-0.003826527579891817
1212,-0.003652982254589808
1213,-0.009057486342319322
1214,0.0011600965156132704
1215,0.03283130825433906
1216,-0.02306934264827767
1217,-0.029653960490588348
1218,0.02836119933524192
1219,-0.01502169222852741
1220,-0.00841369334602007
1221,0.025195067031931837
1222,-0.02892001213838274
1223,0.03942806818763108
1224,0.011112274477332878
1225,0.010047785339921785
1226,-0.034126828561314874
1227,-0.0147491633353197
1228,0.016341167563016533
1229,0.018857431433120783
1230,-0.0029613323702294297
1231,-0.017484248636482336
1232,0.002194273316172289
1233,0.004293618315516388
1234,0.007931949225569371
1235,-0.0020589074274488858
1236,0.020250689524369165
1237,-0.005661426009570184
1238,-0.006398468965363367
1239,0.04992190395770177
1240,-0.0072469904692075175
1241,-1.4752698878721305e-05
1242,-0.01550004965054152
1243,0.015527186381810545
1244,-0.009811649785945677
1245,-0.009416079246166163
1246,-0.007278075899112802
1247,-0.0009752715250415833
1248,-0.0037291359921728245
1249,-0.03415378693969758
1250,0.002325247909292574
1251,-0.007660916737836993
1252,-0.016389166941496943
1253,-0.027654727757968886
1254,-0.03310973446000185
1255,-0.021990738783545637
1256,-0.0076049337908315915
1257,0.003536706929401623
1258,-0.013242283696791432
1259,0.03558991766027393
1260,0.0003734244142876793
1261,0.006724930462941012
1262,-0.005046321994572538
1263,-0.011874290196026696
1264,-0.02103910633456214
1265,-0.007810193543715099
1266,0.02060891040102871
1267,0.019808869009207912
1268,0.017247805156054147
1269,0.011411118393505617
1270,-0.006462337097908929
1271,0.030724163789758535
1272,0.007896842942398462
1273,0.030073942609689302
1274,-0.007024267346486133
1275,-0.0018732534076550478
1276,0.01734419252552415
1277,0.018221281202191266
1278,0.03355772723001923
1279,0.009719570954890188
1280,-0.025632797844438535
1281,-0.006034115615755137
1282,0.021018568312123516
1283,0.000892034551304312
1284,-0.020144362817129093
1285,-0.005772301719301442
1286,-0.011958937820716524
1287,0.012484354652690748
1288,-0.006124279131914537
1289,0.025456094976060287
1290,-0.006068188941711861
1291,-0.033957135522211905
1292,-0.03147871609735303
1293,0.005860834897478789
1294,-0.008235821962010205
1295,-0.02568150901763357
1296,-0.005192050895334797
1297,-0.024200035964434204
1298,-0.030232381674050474
1299,0.016187440753595853
1300,-0.005491838017337504
1301,0.006514505093787975
1302,-0.017596087522759478
1303,0.0089442265971158
1304,-0.0255632388727055
1305,-0.037198404660713606
1306,-0.029584359534940548
1307,-0.020671692222168053
1308,-0.007114890347778504
1309,0.023005939028956125
1310,-0.017014838890314087
1311,0.016848674043733653
1312,0.006810929354057627
1313,0.021606306128441794
1314,0.0064590799521020426
1315,0.02077344761194531
1316,-0.019687723855340473
1317,-0.01607776759849578
1318,0.0030015231290092853
1319,-0.024230179838417038
1320,-0.002732259603072802
1321,0.005786136644838741
1322,-0.03728724402155083
1323,-0.0272964781931306
1324,0.007279823754448762
1325,-0.005916221797098218
1326,-0.0013016870620812348
1327,-0.014403343254025433
1328,-0.016210283604089614
1329,0.017308110808233666
1330,-0.01512017446052431
1331,0.011790181790599204
1332,-0.0029930333257259696
1333,0.020561811966871693
1334,-0.0006026129546904302
1335,-0.026271337402791094
1336,0.0018549922097953586
1337,0.024065415073769924
1338,0.009754570199020174
1339,-0.003992233285902175
1340,0.009109309155171434
1341,0.02374733520102739
1342,-0.015641307898795215
1343,0.011630752046847116
1344,-0.008107466545829424
1345,-0.008765247727896063
1346,0.005757219593289646
1347,-0.007736296566857575
1348,0.007744466623283583
1349,-0.01239957751131068
1350,0.0016205464271548922
1351,0.019584961569956046
1352,0.022133399131511605
1353,-0.042744521594747904
1354,0.002565266978030723
1355,-0.010369313827676321
1356,-0.004935213823655656
1357,-0.013831492315249305
1358,0.0036089566444909766
1359,-0.005721161085131098
1360,-0.025900483861121388
1361,-0.024907741860494322
1362,-0.02684209024402163
1363,0.004884751904409125
1364,-0.019100785901654278
1365,0.0010676371194282984
1366,-0.00427137857343062
1367,-0.005099727104943291
1368,-0.0031549249529113014
1369,0.03600290642080715
1370,-0.02490902565882737
1371,0.014098082501751158
1372,-0.0006499190496453818
1373,-0.01321718694496567
1374,-0.025094933807692947
1375,0.005826910577607081
1376,-0.01262194459201126
1377,0.008069898320385417
1378,-0.015623330482024265
1379,-0.02700280435586014
1380,0.011973641834491205
1381,0.043431893737376076
1382,0.01903850077813554
1383,-0.005258853590100049
1384,-0.034134879575466764
1385,-0.03142290517795841
1386,-0.0006928660888020468
1387,-0.002017642264397188
1388,0.01330782130174318
1389,0.027641399637058375
1390,0.014715710631395294
1391,0.03785639316841375
1392,0.0032067138751705635
1393,0.017684703664304476
1394,-0.00630722759630769
1395,-0.020922767279810097
1396,0.023466754464566204
1397,-0.009625015468079347
1398,0.030077275391439135
1399,0.04151125548095279
1400,0.0402340648449392
1401,0.05011466314056806
1402,0.01099088338912224
1403,0.00393318089489514
1404,0.008344007399790083
1405,-0.01268145626344837
1406,0.0217968148943384
1407,0.03033955343462597
1408,0.03527902525827609
1409,-0.04081991492238245
1410,-0.014800515882568354
1411,-0.023722042611210255
1412,-0.019236086473448547
1413,-0.018302422090242052
1414,0.013207896198859873
1415,0.025262353296973027
1416,0.015253509479767518
1417,-0.01797851300485639
1418,-0.01627277270704961
1419,0.004519450447806398
1420,0.0031084140883869535
1421,0.01462199408477074
1422,-0.04323753719825074
1423,0.015374198907021746
1424,0.003448579860763975
1425,-0.02481333391660181
1426,-0.003024202550769799
1427,0.005151074832636695
1428,0.007782859102880115
1429,-0.02057549901165713
1430,-0.02756400483273365
1431,0.006937985426914631
1432,0.000887871231859718
1433,-0.0013128811994883491
1434,0.035135653629903396
1435,0.023278226846585967
1436,0.03887797876490367
1437,-0.03008492384302819
1438,-0.016835881870435356
1439,0.0015923506265802297
1440,0.006055374874127602
1441,-0.00815293621349295
1442,0.01052102358422655
1443,0.009362625334583648
1444,-0.008131355185690208
1445,0.03205985111348133
1446,-0.015024544279468957
1447,0.004600854236092049
1448,0.029092282643453718
1449,-0.004349349110269168
1450,0.0012832218370102263
1451,-0.015243828906104913
1452,0.0206369555247947
1453,0.002258842644151001
1454,0.01178261143599596
1455,-0.0017047473927557608
1456,0.018351814093010767
1457,-0.02006209077473089
1458,0.002192379003978253
1459,-0.0007101898328993527
1460,0.009787438326916984
1461,-0.009043353551036819
1462,-0.015602768645174538
1463,0.00857923250934003
1464,0.022578541582797186
1465,0.0003577660199860214
1466,-0.0036561488980311548
1467,-0.01776568559031668
1468,-0.03149426007856116
1469,0.02334789890427181
1470,-0.011307946294767814
1471,-0.006833132843744187
1472,-0.0026855699283518486
1473,-0.03027025321837366
1474,0.0018445877984623797
1475,-0.001326883406094113
1476,-0.01623351634336095
1477,-0.004575880808491045
1478,-0.014287837037042696
1479,-0.021513346142392798
1480,-0.006746376465682948
1481,0.007144157453972507
1482,0.012294256242007442
1483,0.00038182132745584625
1484,0.0018221057698012833
1485,-0.027232573526845563
1486,-0.011847479365292365
1487,-0.014287428413693952
1488,0.008762413454710901
1489,0.022083257733809
1490,-0.03280193484229236
1491,-0.008213697730789013
1492,0.008037523836734973
1493,0.005574768601282132
1494,0.001837645331306351
1495,0.007902969506949685
1496,-0.010236742871615792
1497,-0.0184480178363378
1498,-0.014854351376625084
1499,0.026189527906800077
1500,-0.02924666606167658
1501,0.006029820172851971
1502,0.04749761688218847
1503,-0.01180076007673649
1504,0.031238565544448142
1505,0.006624196064307903
1506,0.011303825049939193
1507,0.0212729327935002
1508,0.018613117556549007
1509,0.0074739327716544625
1510,-0.00692210225907267
1511,0.020985142939318507
1512,-0.0076788185150307
1513,0.002632931344859613
1514,-0.01790856185518036
1515,-0.011880627745816814
1516,0.008277722281025584
1517,-0.011147750628051555
1518,0.05495860845795455
1519,0.014547902618992246
1520,-0.0003079176596793724
1521,0.015550226206147566
1522,-0.023066363120324482
1523,-0.01870400407832194
1524,0.014505031782028771
1525,0.002258044242990853
1526,-0.019049638833086524
1527,-0.04245337386540319
1528,0.008031641203081218
1529,-0.009104912393253624
1530,-0.023220045265709255
1531,0.010981663909761628
1532,-0.0017289960957232189
1533,-0.01969601808970391
1534,-0.02822433068102492
1535,0.0032886747656844023
1536,0.01806357974132485
1537,-0.010985615152898627
1538,-0.015180604685493634
1539,-0.0018435697868543557
1540,-0.01024171664302205
1541,-0.0037650221071333107
1542,-0.02064614868306817
1543,-0.03379243524389164
1544,-0.012106105891570448
1545,-0.011936220347658434
1546,-0.00942054729728403
1547,0.02133630847195779
1548,-0.014957860018782757
1549,0.010502376760017177
1550,0.016663796160925774
1551,-0.004275980474193821
1552,0.00852929396524554
1553,-0.004087573004523099
1554,-0.013583128888960573
1555,0.015866331233508228
1556,0.004171628784364157
1557,-0.014651558431382288
1558,-0.00500421528854591
1559,0.019979893689608817
1560,0.00845479594232081
1561,-0.017020952321474107
1562,-0.007084991376237285
1563,0.012096584963154241
1564,0.004732383614458056
1565,-0.016900716441364726
1566,-0.045572853587005746
1567,0.009554651503302753
1568,0.001638412780019441
1569,0.0024125055430619423
1570,-0.024797658850495626
1571,-0.0030226745259226695
1572,-0.011856224790306027
1573,0.02419958984151364
1574,0.010711303802709116
1575,-0.018078943379996864
1576,-0.03267733545899572
1577,-0.004972802426602326
1578,-0.020755850995335473
1579,0.0036851503390614685
1580,-0.007601558904024385
1581,0.02000622721461652
1582,0.009494683340769597
1583,-0.023977943211117996
1584,-0.011675317069573173
1585,-0.016109224899244604
1586,-0.002851580186616051
1587,-0.012723266716302768
1588,0.01387554408920941
1589,0.0002387961282065445
1590,-0.010031024795433946
1591,-0.04910024041051475
1592,0.009473101624111826
1593,0.007703251798577629
1594,0.0031574503880889317
1595,0.01044118826419638
1596,-0.015373082419069787
1597,0.004360589467628415
1598,-0.00266980212155979
1599,0.04227099717686458
1600,-0.027541276600454183
1601,-0.009380755774356115
1602,-0.004944768899282174
1603,-0.01913505427705899
1604,-0.011582676920221358
1605,0.0046497016542548335
1606,0.010676077099770956
1607,-0.011650355115681446
1608,0.008728240359986745
1609,0.014761273922971127
1610,0.002012389159547161
1611,-0.010047997073441867
1612,0.005399754152179622
1613,0.011555750884835023
1614,0.00697134244918463
1615,-0.0005441434990794217
1616,0.03552598098421292
1617,0.014800130672773927
1618,0.028711156408085955
1619,-0.0032825451341123185
1620,-0.004370312339659692
1621,-0.03298173194110168
1622,0.006939423469682665
1623,0.014796338684922045
1624,-0.026396773701707107
1625,0.021296108171394955
1626,-0.004509206946956842
1627,-0.02374996202374449
1628,-0.01142707574475295
1629,-0.02006827189083604
1630,0.010219583425995183
1631,0.01499888356417195
1632,0.017610957002530753
1633,-0.04506785193700138
1634,-0.0004140255733222069
1635,-0.02626959025042203
1636,0.0012819630895019969
1637,0.0067707106011142045
1638,-0.005015543532572067
1639,-0.005884860277383062
1640,-0.022402619496718047
1641,-0.02152016920590722
1642,-0.0065319519212400645
1643,0.029780632132548293
1644,0.0005829246693040541
1645,-0.00892253228717367
1646,-0.013687826262783377
1647,0.014852777985737722
1648,0.027328893985681817
1649,0.01053696025054284
1650,0.0038081901079331064
1651,-0.017110502245439616
1652,-0.025296289390065577
1653,0.01576653113960565
1654,0.02325890518440658
1655,0.044429115378572796
1656,0.025036814446285617
1657,0.035801171041471014
1658,0.004991645482084906
1659,0.005429305275206757
1660,0.04061343008363107
1661,-0.0029229023715324188
1662,-0.011149835535224722
1663,-0.035365994773181274
1664,0.013200819886711054
1665,0.011025020131633718
1666,0.04172888502541211
1667,0.01585724916147581
1668,-0.026447128296963766
1669,-0.03215502946264038
1670,-0.02557721672800107
1671,0.019457616623076816
1672,0.015724523362053173
1673,-0.026624104057761024
1674,0.019745154693597056
1675,-0.03627537822289954
1676,-0.01764699611683092
1677,0.029093878965309048
1678,0.016115814616430767
1679,-0.015242401512109217
1680,-0.00332012868607923
1681,-0.025239849362289315
1682,0.019367047770128088
1683,-0.01185770846769076
1684,-0.005932646837562914
1685,-0.020014533178373806
1686,-0.034200230127655926
1687,0.003640775132687698
1688,0.009468567094709572
1689,0.014465227632006328
1690,-0.006933329235671507
1691,0.01300954369717039
1692,0.029017543977349597
1693,0.012179297317892355
1694,0.015385809006561328
1695,-0.011863821823106701
1696,-0.02491756997853223
1697,-0.017617994226906578
1698,-0.011667367391520805
1699,-0.0014728985604781808
1700,0.00448528477259514
1701,-0.008962403999057534
1702,-0.007291857582784964
1703,0.004411453866143719
1704,-0.008327591857641252
1705,0.0031037604291627493
1706,0.008424379689009472
1707,0.003920669601164385
1708,0.004271690142947545
1709,-0.0005007780138559314
1710,-0.00691938712663626
1711,-0.028166013490462567
1712,-0.017191090053216073
1713,0.012456948681341555
1714,0.021027747095503042
1715,-0.0016015904164671019
1716,0.0051994044792882275
1717,0.005149131931477178
1718,0.021197538286629913
1719,0.025890337869212757
1720,0.0008789986480003441
1721,-0.02277847859755589
1722,-0.02463261930232233
1723,-0.005798855968673711
1724,-0.004676379927603993
1725,0.01732921331390783
1726,-0.02012612447792232
1727,0.005333028253613908
1728,0.015409858783700138
1729,0.008496249814501367
1730,0.0037321081154869863
1731,0.037215941144787476
1732,0.011752773655834495
1733,-0.006273045589154773
1734,-0.00908714908656801
1735,0.01733835585480269
1736,-0.010429720373044784
1737,-0.0071548210552990574
1738,-0.009142244028956685
1739,-0.013892175663513497
1740,-0.031024990282055454
1741,0.007362686253037432
1742,0.001956222187047885
1743,0.00986619393793852
1744,-0.002388012511103565
1745,-0.020942319404833522
1746,0.003841445964328809
1747,-0.0006805822052186655
1748,0.000602466723505258
1749,0.018919013581762095
1750,-0.011775924568639528
1751,-0.022047752746647515
1752,0.00691692905920764
1753,-0.011961905322468727
1754,-0.00466768441652401
1755,-0.012027092196763796
1756,-0.02519197867603718
1757,0.00046184765354493636
1758,0.03846068517355469
1759,0.013917663296780606
1760,-0.0025351051584020746
1761,0.0004448687856235389
1762,0.01330610018238536
1763,0.005331614996912003
1764,0.010128745518610111
1765,0.01587764704086818
1766,0.012360676837806952
1767,0.01736248012003924
1768,-0.02312827558672283
1769,0.014516176987944367
1770,-0.03235194175743067
1771,-0.01660932136653627
1772,-0.014800000658356975
1773,-0.005324115633941595
1774,-0.0021969641988318443
1775,-0.025290260341885886
1776,-0.010101240016884195
1777,-0.005006902429919018
1778,-0.008173027230754946
1779,0.034404598112970065
1780,0.012503086360882095
1781,0.0024411261546924494
1782,-0.021120443839980504
1783,0.003422059838099498
1784,-0.016247335417134866
1785,0.00219633163282771
1786,-0.005419289533252061
1787,-0.03072423873758447
1788,0.016164893439255156
1789,-0.013853163924283974
1790,-0.004901161936065065
1791,0.018402192931947906
1792,0.01704319921542422
1793,-0.013483182538640691
1794,0.027262658989377457
1795,-0.021486327536896953
1796,-0.0047031289008918386
1797,-0.0479393249210965
1798,-0.012820489139050458
1799,-0.021453435342178025
1800,0.005940324122809676
1801,-0.014082894556871646
1802,-0.012705360701323377
1803,-0.0017288092290724119
1804,0.026140670957217404
1805,-0.019014717617949064
1806,-0.03038708348613365
1807,0.006717477661101258
1808,0.009590789369671138
1809,-0.023717065872942103
1810,-0.01014561194459954
1811,-0.008632411929187801
1812,0.001720488402684638
1813,0.014429687324225683
1814,-0.015662711062122595
1815,-0.009608787550455768
1816,-0.008737213286012756
1817,0.0200360400648239
1818,0.003906380657109344
1819,-0.018078032852028112
1820,-0.015176850359867652
1821,0.02403836054786939
1822,0.02072469361528471
1823,-0.008830180281824642
1824,0.002328337345802429
1825,0.0028066610304478133
1826,-0.006468871183057886
1827,0.004374058737680961
1828,0.018448277711404705
1829,-0.011686829019208101
1830,0.028052449110733596
1831,0.02105338233787159
1832,0.03429570237078509
1833,-0.013300726458006583
1834,0.03437652164338776
1835,-0.03772725452418579
1836,0.013136135912328307
1837,0.028433286357641294
1838,-0.03125829273193493
1839,-0.022080928866186903
1840,-0.00036959203285311825
1841,-0.00018498154494275091
1842,0.00167496683331265
1843,0.01639323339875036
1844,3.6677770282932695e-05
1845,-0.009020197430738768
1846,-0.005969090558696499
1847,-0.005056159977097688
1848,-0.006381740432332415
1849,-0.0005729575904636272
1850,0.02444071290757306
1851,0.0030022692487196444
1852,0.0015467757312182743
1853,-0.014300900511112609
1854,-0.027449772038693268
1855,-0.018748916679561863
1856,-0.020209312455094892
1857,0.046431827487549995
1858,0.024559256319069304
1859,0.0026501658518397393
1860,-0.02206518754518747
1861,0.03393192154769094
1862,-0.013947468165866124
1863,0.012185727906387282
1864,-0.03247101829031943
1865,0.014856777159397965
1866,-0.010504182776439356
1867,0.02658998899768855
1868,-0.005880958309305038
1869,0.013522460986250427
1870,-0.011019655215227455
1871,-0.0004637711200834277
1872,-0.023439733527284578
1873,0.0041709998869033415
1874,-0.0023425902435552314
1875,0.04043473848819604
1876,0.0437514854273492
1877,0.021575638213056324
1878,0.017436161286148093
1879,0.012931181470868499
1880,0.011991074351921309
1881,-0.031066857905636406
1882,0.03167241412977737
1883,-0.03668868505770259
1884,-0.021874114741622895
1885,-0.0015545744433588902
1886,0.007426972494440094
1887,-0.00108749312105547
1888,0.013604381815408509
1889,-0.011304914590795929
1890,0.023803024819742457
1891,0.0026906708553265353
1892,-0.0031854354666181924
1893,-0.011832795826442557
1894,0.005888247172632087
1895,0.0010119576973067685
1896,0.03482007811184563
1897,0.0066212329703414854
1898,-0.013915943065802032
1899,-0.024949170835669117
1900,0.014837902046193993
1901,0.014140207896598037
1902,0.0036666855879170916
1903,0.0013617887708087016
1904,0.004100622298048303
1905,0.02513402567314785
1906,0.0061887670097366156
1907,-0.010441381889768255
1908,0.01611472234921138
1909,0.014384599291838739
1910,0.0025833297273264856
1911,0.024893521245661864
1912,0.02106746763554925
1913,-0.01546453870384833
1914,-0.0391431603808601
1915,-0.0059747054058626944
1916,0.005750921061502207
1917,-0.036360994515075795
1918,-0.018475108967657295
1919,0.02264091754634144
1920,0.0011078333817642397
1921,0.0030572217087656297
1922,-0.0036344796734757647
1923,0.01843832065763183
1924,0.0071697060552551786
1925,-0.001404684619882699
1926,-0.0006382560139327042
1927,0.0011913885685397195
1928,0.0033962099026923656
1929,0.011579073281507722
1930,-0.0033375084241893407
1931,0.01616826380989387
1932,-0.0027533900485898224
1933,0.00962789346393105
1934,-0.025196075942104344
1935,-0.015935396513014406
1936,0.00010434651365630342
1937,-0.002982032769768617
1938,0.0008577799407187207
1939,-0.016593614919650817
1940,0.02253039436700895
1941,0.006130053029008311
1942,0.019947033178293463
1943,-0.01962539354712107
1944,0.033691790894858416
1945,0.005072556747678683
1946,-0.006222009751771312
1947,0.006598974633230783
1948,0.01820049692346086
1949,0.016338681576145243
1950,0.04247433211977914
1951,0.02129709952360977
1952,-0.0017953714876181087
1953,-0.0031827816933392024
1954,-0.010707194461884973
1955,0.0008702421267684179
1956,-0.0007426185688751934
1957,0.0010754874457504582
1958,0.033666044012600226
1959,0.047284761479434084
1960,-0.016801784979918428
1961,-0.01981283841913837
1962,0.008489766402021785
1963,0.0045439559953382785
1964,-0.02304236383311
1965,-0.006149635750909896
1966,0.019435009854919503
1967,-0.025282626169315387
1968,-0.0009465467827441253
1969,0.001959536649551023
1970,-0.01627134167611446
1971,0.015727898275854288
1972,-0.02423818143804085
1973,0.006144591957713585
1974,0.009847611200003055
1975,-0.0048630682988866185
1976,0.01571370031648534
1977,-0.011827300818643291
1978,-0.01337803465776023
1979,0.0046655248664806016
1980,-0.013818535082083845
1981,0.0005776210531853256
1982,0.0047888664475715425
1983,-0.007448351999973039
1984,0.01215918493949216
1985,0.005602468808328166
1986,-0.008047960621127608
1987,0.009759300096319909
1988,0.01608361767310089
1989,0.01077418614044224
1990,-0.0068741022999077635
1991,-0.013553471413107933
1992,-0.0020644408279335063
1993,0.008096721129836615
1994,0.003236030610436834
1995,-0.008348806763757809
1996,-0.004671524239134954
1997,-0.0015546185949285361
1998,-0.012009445151764364
1999,-0.03552739524821191
2000,0.032601007117747105
2001,0.008660199001163216
2002,-0.025103472195079562
2003,0.03454796626155092
2004,-0.013376116379437654
2005,0.005424447283125499
2006,0.012332696926898014
2007,0.018232901456029155
2008,-0.00453942856789891
2009,0.0118973928185641
2010,-0.017203695020603822
2011,0.004685344821228515
2012,0.002013979146563677
2013,0.03480605319765084
2014,0.016864134025829994
2015,-0.02964737213188919
2016,0.04119370190360484
2017,-0.02379480439895775
2018,0.008239062373309809
2019,-0.0032284863141187918
2020,0.011711442439116707
2021,0.0306088459870209
2022,-0.029025555623007605
2023,0.022582248274440782
2024,0.0030042123897273255
2025,-0.009526699692049976
2026,-0.005463846590622609
2027,-0.011041340820353712
2028,-0.0076331332953544296
2029,0.004343190115071538
2030,0.009518366155489849
2031,0.009732640888925495
2032,0.006240079181202225
2033,-0.007528636758004052
2034,0.0001498889547631902
2035,-0.03347162676327329
2036,0.014260764059657389
2037,-0.009461293592965894
2038,0.008401010022611817
2039,-0.007327691755959711
2040,0.05307281454130528
2041,-0.018274041315083166
2042,-0.01996391363720296
2043,0.012227951026174329
2044,-0.0037197786821612545
2045,-0.004046465632519169
2046,-0.02016553110996586
2047,-0.005782304747604144
2048,-0.00849585295741704
2049,0.01781966980279264
2050,0.0053262208705930625
2051,-0.005856601776658564
2052,-0.026525184697427685
2053,-0.01399782947488521
2054,-0.0071874340689899365
2055,-0.01618488373010436
2056,0.03206559891770479
2057,-0.033026881329309796
2058,-0.02256500081005651
2059,-0.008146153965648422
2060,0.004011289344744059
2061,0.010201230700520448
2062,0.02321442831424052
2063,-0.008477694857600877
2064,0.015070046487744857
2065,-0.021414367914496982
2066,-0.02376207324703839
2067,-0.014408956087583582
2068,-0.00531987708446631
2069,-0.010891611258011913
2070,0.005233210345462024
2071,-0.004754275608049691
2072,-0.00851271491421806
2073,0.009839613471958003
2074,0.011758907332085646
2075,0.005431725587418001
2076,0.012942074509154276
2077,-0.030690890771316922
2078,-0.0026351386688950006
2079,-0.008274673909663636
2080,0.007890908586189632
2081,-0.03031961753495828
2082,-0.0024752381717073773
2083,0.039558988055346335
2084,-0.030765886316918584
2085,-0.002431345737081506
2086,-0.0071170493069096
2087,-0.006711318193219093
2088,0.0166731954051021
2089,-0.006818175183195652
2090,-0.004234554026100183
2091,-0.00925150700746939
2092,-0.012819159619210253
2093,-0.011797490372639545
2094,-0.009887231950754827
2095,0.014638224972524391
2096,0.04034056233550033
2097,-0.032658388418576934
2098,0.009410618497407944
2099,0.0032043071245567802
2100,0.016675048745816188
2101,0.004052047902939449
2102,-0.009346935430622389
2103,-0.0013380748097097585
2104,0.0403344679184734
2105,0.0050046162337614875
2106,-0.014513419094520523
2107,0.008236854011468012
2108,0.027328379419586817
2109,0.0007737331683992544
2110,0.02260344467509895
2111,-0.0036049106288675715
2112,-0.010172965448640792
2113,-0.005813895547807686
2114,-0.004658554368710212
2115,0.011515467341175098
2116,0.012591904848308657
2117,0.0013508381338336955
2118,0.03225794740853071
2119,-0.005940355224872199
2120,0.0040081922957338825
2121,0.003430716538471653
2122,-0.005705492551133798
2123,-0.008648704842772801
2124,-0.017075270435811567
2125,-0.012290055223616222
2126,-0.01729588634053221
2127,-0.06614791677300863
2128,-0.018761953183539164
2129,-0.0029537134363754715
2130,-0.004602436701603799
2131,0.011712634901793254
2132,0.016828763445520294
2133,0.01915531405675668
2134,-0.01627314143565287
2135,0.021451304197183024
2136,-0.0007704489429921735
2137,0.006890739890865962
2138,0.01656961011248495
2139,-0.0010668894893979173
2140,-0.001107876308712515
2141,-0.006572071491299324
2142,-0.01439164470196888
2143,0.004828111298228872
2144,-0.004967759364517851
2145,-0.004661890022414941
2146,-0.0027759512365721412
2147,0.023922691643746198
2148,-0.023445383814461332
2149,0.017232727171454132
2150,0.007795961067960273
2151,-0.028623518555232715
2152,-0.03743835092799726
2153,-0.021364903221433404
2154,-0.02513382208583427
2155,0.04916100472965221
2156,-0.00976753228134138
2157,0.00838458149979208
2158,-0.008971308884032336
2159,-0.01098972811225717
2160,-0.007246119578062248
2161,0.013372436315539783
2162,0.015434810864637369
2163,-0.023891586744600637
2164,0.015266017303984468
2165,0.022215104544629157
2166,-0.03469894996512223
2167,-0.00909446093086937
2168,-0.010451535020094672
2169,0.012390530301409951
2170,0.00527533520815827
2171,0.014305807263025015
2172,0.020257750141257466
2173,0.0351113836712316
2174,0.011509208324313198
2175,0.03453528460064674
2176,0.005796860027442581
2177,0.0016872918571172978
2178,0.04354568360560351
2179,0.03379370515536339
2180,0.011905193018142907
2181,-0.01122904513948886
2182,-0.02757424865427826
2183,-0.0025132364499091996
2184,-0.0050035615881310665
2185,0.01501112139897621
2186,0.0009499236218299355
2187,-0.010581657698035204
2188,-0.015093442947334414
2189,-0.0011880342648905883
2190,-0.02201937135293183
2191,-0.0075723526137727775
2192,0.002616182801906972
2193,0.01758322637806234
2194,0.024189672851432906
2195,0.03760492020960971
2196,-0.01718058032158489
2197,0.006266448894663058
2198,-0.005244088575722417
2199,0.018431552064251386
2200,-0.0273382843797645
2201,0.01796830472694121
2202,0.00859761316506334
2203,-0.015448648331680758
2204,-0.011013537664438605
2205,-0.009303901028225918
2206,-0.01180122599966304
2207,0.00020163058284427234
2208,-0.021292580462530714
2209,-0.03734276346038192
2210,0.03603706971411118
2211,-0.008278866785906306
2212,0.002727191166348467
2213,-0.008254666384779808
2214,-0.006762058725257218
2215,-0.02629216622362021
2216,-0.0126715439472176
2217,-0.012789372252657515
2218,0.01819838777318329
2219,0.0004729876023348466
2220,-0.023143964253799162
2221,-0.006689495398398228
2222,0.009259804746022735
2223,-0.009890107052000921
2224,0.0007668233292328217
2225,0.009704143908577172
2226,-0.011581326626522517
2227,0.04748439851049318
2228,-0.029760172289610642
2229,-0.008253578171754337
2230,-0.008111483316314536
2231,-0.028026594707349983
2232,0.015996607051474016
2233,0.004081899465539191
2234,-0.03403679651019793
2235,0.015615543336119567
2236,0.029398251641595728
2237,0.0022986112498489786
2238,-0.003563492357376328
2239,-0.01246174479759439
2240,0.014974352805335083
2241,-0.010573395024446494
2242,0.014347019071965944
2243,0.016402166254740405
2244,0.011475415817276477
2245,-0.019595194984231415
2246,0.01828677589373161
2247,0.011763415087012653
2248,0.029377437180166673
2249,-0.000765702856355667
2250,-0.0075072675498750905
2251,0.0029590887938432584
2252,0.005656961270044823
2253,-0.017730988732771718
2254,0.0267974046217002
2255,0.002833271961211079
2256,0.0025322731175047614
2257,-0.01777528878745086
2258,-0.0010561891859755565
2259,-0.02577891786564029
2260,-0.017252638008522298
2261,-0.0036529779967856817
2262,0.019308968114961637
2263,0.008706410858046684
2264,-0.0039502134235543974
2265,-0.017231719347347085
2266,-0.01500826779826536
2267,-0.0032205239879288822
2268,0.00444475955884662
2269,0.002547388954351022
2270,-0.037245028482720106
2271,-0.004663118532647235
2272,-0.0021374526688260503
2273,0.03871622812942697
2274,-0.012398212117569711
2275,-0.01593841832383211
2276,-0.007763349629748691
2277,-0.0068448741536299715
2278,0.0067952781633592585
2279,-0.02631101613119672
2280,-0.01246550600703858
2281,0.008522965409827398
2282,0.014666202719170974
2283,-0.003125357283696029
2284,0.022190864688692108
2285,0.00805149955648299
2286,0.013520840194849811
2287,0.00277244683963732
2288,0.004337568723414995
2289,0.02551719467409076
2290,-0.010379682376822913
2291,-0.009167423891831972
2292,0.00014886275124614796
2293,-0.012547938055766062
2294,-0.005054505530295818
2295,0.010865891271663253
2296,0.007645566223299045
2297,-0.014733615438670647
2298,0.008316645517454537
2299,0.04152680103826365
2300,0.04008401802783861
2301,0.006802739615221828
2302,0.0037729403836598077
2303,0.005461404494676685
2304,-0.005134535750134538
2305,0.012077527875155418
2306,0.020637801385712133
2307,0.008966838709154091
2308,0.02951339915688765
2309,0.03218956983570075
2310,-0.003931902852937769
2311,-0.014687244487820618
2312,0.0009449151469215906
2313,0.0017471297994490717
2314,-0.006499264071522558
2315,0.017743776521948248
2316,0.010784347535483688
2317,0.0006842525970192487
2318,-0.013125131463411334
2319,-0.013738883812711739
2320,-0.03350277041659664
2321,0.009127856016693931
2322,-0.00031534168234674244
2323,0.020556168585994423
2324,-0.00113310173820559
2325,0.00813640032162528
2326,0.000286059374149164
2327,-0.02551101169918636
2328,0.00625454085303361
2329,0.035514885651272664
2330,-0.010193792388842247
2331,-0.009790680045118403
2332,-0.010588508074420416
2333,0.013682523336367677
2334,-0.014783109457967087
2335,-0.02652054663212443
2336,0.007784733597787387
2337,-0.005171687069309535
2338,0.03210556228236229
2339,0.015417967962261863
2340,-0.01518106481215722
2341,0.05126394999431657
2342,-0.005181685720036682
2343,-0.028805206005116903
2344,-0.022005220621023367
2345,0.02448049974579915
2346,0.020535221744199316
2347,0.004818622402041636
2348,0.0022593866987325414
2349,-0.012240559245025729
2350,0.020632805193015958
2351,-0.013238194126732676
2352,-0.036302327012578246
2353,0.00790911981821145
2354,0.019304642724300082
2355,-0.024163762751552596
2356,0.014385404993701006
2357,0.009310699519878961
2358,-0.024444419052011203
2359,0.004067743513036493
2360,-0.01103879988362209
2361,0.017464825197944955
2362,0.0002537075241459551
2363,0.0014385554605712762
2364,0.005837065574292522
2365,0.03898150746174145
2366,-0.030196679662019065
2367,0.02226713856244547
2368,-0.010681139668697721
2369,-0.018325450508105703
2370,-0.005558236383253645
2371,-0.00653077038198721
2372,0.04143774139900109
2373,-0.002767669724139555
2374,-0.0017744603224662636
2375,0.028055585473113556
2376,-0.0007785019241579731
2377,0.017810681089372737
2378,0.013964921781370642
2379,-0.004866728145743836
2380,-0.007085274815215522
2381,0.016085563618414598
2382,-0.024681960359684854
2383,0.022587198319478446
2384,0.007386816433047556
2385,-0.010470203618408707
2386,0.0007711893553995016
2387,0.013931496001642627
2388,-0.030228825433579885
2389,0.013841944236194772
2390,0.018702674288935343
2391,-0.0045896135014384595
2392,-0.005904718839561187
2393,0.007502614380445329
2394,-0.0037087795893030765
2395,0.0173921882621122
2396,0.007384239391675156
2397,-0.003656136400627589
2398,-0.020192587657209406
2399,0.01429544739788694
2400,-0.02562018481266614
2401,0.02864540824828875
2402,-0.01056587294893859
2403,-0.004288236974879134
2404,0.020744377278734356
2405,-0.0071752179670140194
2406,0.010466939321232507
2407,0.030734487815184394
2408,-0.02714440692465716
2409,0.0036584401482409267
2410,-0.031142811207442857
2411,-0.006673422301942709
2412,-0.01111632403756338
2413,-0.008863479304645459
2414,-0.015398640106743671
2415,-0.009377773431539277
2416,-0.001330976213153527
2417,-0.017399132931288766
2418,-0.036891206362646756
2419,0.01797840916358045
2420,-0.03307541269541259
2421,0.016047170807568647
2422,0.014672297991282179
2423,0.027686083353613004
2424,-0.018563283452106883
2425,-0.04031149336498353
2426,0.0016637595741320944
2427,0.0013917125210889856
2428,-0.023258027749767995
2429,-0.0025158994014703273
2430,0.01029016752519921
2431,0.007699914337212881
2432,-0.030973462661305302
2433,0.011277124822271702
2434,0.010844267135890144
2435,0.012619944617478169
2436,-0.017140047382991415
2437,-0.004052363798248413
2438,-0.01215411594596401
2439,-0.009898373457300378
2440,0.03730283165424259
2441,0.003199759992673459
2442,0.008485238798993098
2443,-0.014781113642246293
2444,-0.00995288035210483
2445,-0.025372099541035434
2446,-0.01105755011632139
2447,-0.0034110542880452185
2448,0.0016511889392527318
2449,-0.0014422076740115807
2450,0.034263054064786955
2451,-0.0036021863420362277
2452,0.01562269621915184
2453,-0.00809229525972387
2454,0.013663351178757442
2455,0.003843829289384561
2456,0.011964834570987147
2457,-0.015365038732629153
2458,-0.018752233979362303
2459,-0.03730561098396225
2460,-0.04268344026008571
2461,0.007085310547872198
2462,-0.02448983897700998
2463,0.011182634305733158
2464,-0.019370479239716434
2465,-0.013834492467810225
2466,-0.015076167708912696
2467,-0.04421888794603618
2468,-0.0008833270578188341
2469,-0.026324963880264996
2470,0.030793018523368586
2471,0.009914960939094521
2472,0.004807107525727771
2473,0.014655978465469949
2474,-0.022923622192357874
2475,0.02608232945007087
2476,-0.01713575435163173
2477,0.035804962420073305
2478,-0.011801832767384909
2479,-0.0007384521594198841
2480,0.01971662424650121
2481,0.021393201872121757
2482,-0.009689130457916077
2483,-0.01961026248813194
2484,0.0020096734364426143
2485,-0.036806375303655735
2486,-0.016075981904675022
2487,-0.017105826254141206
2488,0.014669535499686324
2489,-0.015534054719804081
2490,0.0017562943459424182
2491,0.0135207194623783
2492,-0.006162192155084355
2493,-0.026602074562225186
2494,-0.017801368917698342
2495,0.012659722966305981
2496,0.02157202333677046
2497,0.011405673632741484
2498,0.006370809212552037
2499,-0.012605983197828052
2500,-0.008178632767581928
2501,0.018934702506871355
2502,-0.031496973339212454
2503,-0.016272703156982593
2504,0.01918343599641116
2505,0.011752031408790683
2506,-0.023675502403915017
2507,0.0013104031278513373
2508,0.012857668016048877
2509,0.036556785311802224
2510,0.007905246309501865
2511,-0.02046187831201751
2512,0.015522704718486744
2513,0.005749351474315831
2514,-0.031293560704012416
2515,-0.024925354747024144
2516,-0.0027700863618105712
2517,0.034453867681652636
2518,-0.031424509795678256
2519,-0.006953949959322255
2520,0.003811201186339977
2521,-0.011490468662792476
2522,-0.026631439120075904
2523,-0.009637140711737631
2524,0.018982995383380316
2525,0.002217632287313578
2526,0.021069399072304425
2527,-0.005029453154632585
2528,0.019073264521318557
2529,-0.007390248548002976
2530,-0.011542272952915496
2531,-0.012033176401852601
2532,0.02306076288355606
2533,-0.003055912537738688
2534,-0.0019437153469413276
2535,-0.004727046936750092
2536,0.023492235005365795
2537,0.0021181761061269395
2538,-0.022952795718131414
2539,-0.013304408037535732
2540,0.006320298218673073
2541,0.00022042977652395233
2542,0.008237589119715992
2543,-0.009237999312399605
2544,-0.030836927885162416
2545,0.008686958916978401
2546,0.012413341176466258
2547,0.027875846002723966
2548,-0.003179942403634089
2549,-0.009197857489806104
2550,0.015336403853182821
2551,-0.018820569175875802
2552,0.015042308935380716
2553,-0.02312236009693302
2554,0.006781916973840262
2555,-0.012430308606856675
2556,-0.0002931605608190894
2557,0.047030854486866974
2558,-0.01874958364337152
2559,0.03624286097191474
2560,0.022817160550375883
2561,0.01379222130783788
2562,-0.04392651028762372
2563,0.007563759373900649
2564,0.02628321238132863
2565,0.001440109933107898
2566,-0.015574463723291902
2567,-0.004856042731216511
2568,-0.021805735553948578
2569,0.020426550304805745
2570,-0.004311594846256459
2571,-0.00401181116691329
2572,-0.00038205026065436413
2573,-0.020882252534902414
2574,-0.0007839613035953715
2575,-0.005201059819100502
2576,0.003777602630752432
2577,0.0076043547753294125
2578,-0.024995220443908856
2579,0.020563446532380777
2580,0.006666200487716013
2581,0.006255432608623254
2582,0.015921496932424093
2583,0.029858856534939634
2584,0.006628019048566109
2585,0.008121705717865546
2586,0.008033665832292688
2587,0.022792249137287297
2588,-0.010422410445404342
2589,-0.004191877796068115
2590,0.012450043538322571
2591,-0.02642816949927581
2592,0.00833498598668665
2593,0.012281291383912452
2594,0.011744114264699708
2595,0.03168456228968058
2596,-0.017449480657366515
2597,0.029437448154563416
2598,0.008388665545984898
2599,-0.0061591759368573385
2600,0.010186486005771784
2601,0.021333437598770773
2602,0.006963036098052135
2603,0.013511160268982634
2604,0.01672207544159246
2605,-0.005935145793238255
2606,0.01645533374491535
2607,-0.006517736288875527
2608,0.01846031319125895
2609,0.018540837337272912
2610,-0.014678009347658184
2611,0.013208925842115646
2612,-0.017219859859985365
2613,0.008273379231335368
2614,0.010448915412537903
2615,-0.009497661650018495
2616,-0.012696325352190268
2617,0.01880555144283348
2618,-0.012003804336614651
2619,0.01832427084031262
2620,0.007921216981309659
2621,0.040186137007707255
2622,0.012273877943876538
2623,-0.0038569362612860926
2624,-0.013901197963988155
2625,0.019796677949339564
2626,0.023896000279399865
2627,0.012334353506999919
2628,-0.001740738642965828
2629,0.020353135479499785
2630,-0.031816070966578854
2631,-0.03288735201883262
2632,0.014295756191738462
2633,0.001362861005451863
2634,0.002243608541564975
2635,0.0064106708861873364
2636,0.0011973016361727625
2637,0.010094257166832347
2638,0.031109078228279085
2639,-0.00907990421816334
2640,0.011530133309596331
2641,0.004907331086135163
2642,-0.006214012660212003
2643,0.0004570597681434822
2644,-0.003959559667137377
2645,0.024907743623350662
2646,-0.016000579491951886
2647,-0.007636778431607038
2648,-0.002915025776333026
2649,-0.009772035296351619
2650,-0.010293707593323615
2651,-0.007476389139006851
2652,-0.0022509358982040293
2653,0.014914513959999098
2654,0.03382897197038986
2655,0.00046162384121215623
2656,0.01188341726604448
2657,-0.02949435127800836
2658,-0.005918982974098219
2659,-0.013370330299995828
2660,0.00241987869769087
2661,0.018160641480343565
2662,-0.04383132991218771
2663,-0.010195811283967324
2664,-0.006805498845113899
2665,-0.03513146887459992
2666,0.016866289828937737
2667,-0.02749788280296605
2668,-0.010645938691118708
2669,0.01685934116277039
2670,-0.0008269425332514417
2671,-0.022914914213492114
2672,0.011267967858927856
2673,-0.03832953062070293
2674,-0.010035428366271425
2675,-0.010611356626885886
2676,-0.024023381337732307
2677,-0.007015332733557573
2678,-0.004728364764583821
2679,-0.012285747817818092
2680,0.011308602497069851
2681,-0.020751991320327668
2682,0.034319444261041485
2683,-0.015915414203285023
2684,0.02125619380775417
2685,0.05180336475586407
2686,-0.011120780961710921
2687,-0.023387521148255624
2688,-0.011225992324264423
2689,-0.011703249976077409
2690,-0.014158004850094772
2691,0.013200668862389462
2692,-0.0007538381052813016
2693,0.02837582329174624
2694,0.004987988390824768
2695,-0.022046479425254818
2696,-0.02090983614134753
2697,-0.011105670796495997
2698,0.03989261857740697
2699,0.04145106544460125
2700,-0.006282705244938284
2701,-0.005291578892747889
2702,0.015794762132939923
2703,-0.026961190942473845
2704,0.026084504017144933
2705,-0.02981348498259699
2706,0.013331253260472558
2707,0.01479449108544374
2708,0.009496899870842302
2709,0.002617441717255863
2710,-0.015615091960308995
2711,0.007348552085178168
2712,0.007350776899871788
2713,0.010332373167103108
2714,0.007747867338247717
2715,0.0012278235834954766
2716,0.03449571431973816
2717,0.016976986454322485
2718,-0.01771014616190196
2719,-0.005412672463905947
2720,0.01923147369886158
2721,0.016183802098009768
2722,0.005240858236591971
2723,0.00021421048841124536
2724,-0.026638162742408707
2725,-0.002943051433661973
2726,-0.0015280152861429023
2727,0.0015794522465297496
2728,0.002957020666916117
2729,-0.038051367809452036
2730,0.01759849037789303
2731,-0.02238816699521168
2732,0.006068825692335215
2733,-0.0016970393908101718
2734,0.0024311557123917063
2735,0.01754357183871934
2736,-0.02173238705015504
2737,0.007765243309057897
2738,0.012401481135700896
2739,0.001698059518831405
2740,0.005796802226595741
2741,0.023138111420521523
2742,-0.005894540723144204
2743,-0.01930313560342885
2744,0.014081200941307426
2745,-0.0044341532045007095
2746,0.011016020810282938
2747,-0.022231456701698387
2748,-0.025238742480339627
2749,-0.016951770612744
2750,-0.024444564800426047
2751,0.001814655665308245
2752,0.012626553585953099
2753,0.013777956595838897
2754,-0.009268660495199406
2755,-0.023959487084226634
2756,-0.02888584398508758
2757,0.011924989483084819
2758,0.0026034638661974747
2759,0.005462667461232351
2760,-0.03448316311216028
2761,-0.023162200355601292
2762,-0.01308164380911169
2763,0.017434628826665743
2764,-0.026084531684074135
2765,-0.012159808902808744
2766,-0.019282371451219756
2767,-0.05348533134345418
2768,0.013714128427654345
2769,-0.01694060885915363
2770,0.008596988089144265
2771,-0.020842354814600117
2772,-0.03719748669016671
2773,0.004334828277225001
2774,-0.00271283454715992
2775,0.008321725315260589
2776,0.04287554156507309
2777,0.0027571371303736535
2778,0.0052917455148175415
2779,-0.010384072772505543
2780,-0.002189255483797487
2781,-0.030524420708113117
2782,-0.009230764879800898
2783,-0.012972274870223292
2784,0.005822476638881699
2785,0.017858040087855142
2786,-0.009373101095061917
2787,-0.0498986696096312
2788,-0.009344047443849684
2789,-0.010434649346613149
2790,-0.030664857452320532
2791,0.01473839951180462
2792,0.008413790305774802
2793,0.03577205951694165
2794,0.018829719354585203
2795,-0.006379800811280889
2796,-0.03172120284914879
2797,-0.006796085662476874
2798,-0.0019820160317425505
2799,0.007721687353278071
2800,0.00952236095684887
2801,-0.011295388992685444
2802,0.012260029425884694
2803,0.004253431220065838
2804,-0.022801695422167798
2805,-0.01627642234248443
2806,-0.013332750881428119
2807,-0.0091421222654511
2808,-0.0032949010917260623
2809,-0.04425779677302338
2810,-0.0088895387697503
2811,0.006617353573141871
2812,-0.0034607006851744694
2813,0.015283884387644369
2814,-0.0029370954705263555
2815,0.0037577083413661044
2816,-0.018061176860992175
2817,0.01748111150289758
2818,0.010231510090479548
2819,-0.014827431006264429
2820,-0.0033366812070569807
2821,0.02633996836159443
2822,0.008091368037511799
2823,0.010365136052645508
2824,-0.018862820177644093
2825,0.005903152377241685
2826,-0.00328574384945114
2827,-0.03582550938648992
2828,0.009042939800539877
2829,-0.013476688281155396
2830,0.02497624187175847
2831,0.028753611877686092
2832,-0.008983604943799137
2833,0.009559151116149146
2834,0.027716314292105818
2835,0.005794693993073396
2836,4.5574006238539336e-05
2837,-0.026098445516898
2838,0.01946623163356909
2839,-0.0017186908810658138
2840,-0.01660521840474123
2841,0.00439108400408266
2842,0.03109738899361993
2843,0.020575006041892024
2844,0.03728459679635972
2845,-0.04948734582526507
2846,0.0022772379296066986
2847,-0.005951403276822988
2848,0.0015979436611819695
2849,0.010445615773437177
2850,-0.0135187248805515
2851,0.002430938073504045
2852,0.014079422618447041
2853,-0.019916909264989475
2854,-0.01835650714016693
2855,0.012262979629619003
2856,-0.007655923566277659
2857,-0.010523433753095375
2858,-0.0146142987188257
2859,0.024777456065281967
2860,-0.0037164859039335546
2861,-0.004798965412490868
2862,-0.0018319740038207134
2863,-0.003676393756585735
2864,-0.01607673753337807
2865,0.01751888803047447
2866,-0.011353344041307865
2867,0.03114029381449217
2868,-0.00034694252520991374
2869,0.011297624177166515
2870,0.004673871637613646
2871,-0.008495862140980562
2872,-0.016742148138947942
2873,0.02638802727696482
2874,0.020134569211429556
2875,0.005770450512699273
2876,-1.6976698674369995e-06
2877,-0.005375661389933427
2878,-0.030207207845332137
2879,0.0031128770573777115
2880,0.005310121992179358
2881,0.02125609231071353
2882,-0.02494179593846236
2883,0.03145092245928312
2884,-0.006612473910098373
2885,0.009681119428213893
2886,-0.005397270236801391
2887,-0.003527476927506309
2888,-0.015455631937431012
2889,0.014428830096329665
2890,0.004744628190846226
2891,0.006959528385446506
2892,0.022345489153897155
2893,-0.01199477787214284
2894,0.011300266818174498
2895,-0.002978990550682982
2896,0.0136344576905195
2897,-0.015879522473875484
2898,0.016142025610928992
2899,0.012689154910614425
2900,-0.006568987596814193
2901,-0.006085564268814596
2902,-0.009600586940645557
2903,-0.012338558287557297
2904,-0.023061505828331767
2905,0.02417713681313387
2906,0.00914855495724032
2907,-0.025153856937130858
2908,0.011610478611352145
2909,-0.030611983459704818
2910,0.004901931706709966
2911,0.0010200230137362909
2912,-0.025973498455055963
2913,-0.00277539337287134
2914,-0.028170040112144225
2915,0.022346264664557965
2916,-0.008467788045099308
2917,-0.020233382882301844
2918,-0.020601612529191512
2919,-0.015641605488983485
2920,-0.02192906602690971
2921,-0.011349825807713838
2922,-0.0019291200384501772
2923,0.004867101531141458
2924,0.01591652561685276
2925,0.015946416747104467
2926,0.020837124982041183
2927,0.004572079822779777
2928,-0.025209463457802814
2929,0.022155580896681123
2930,-0.03664969665260217
2931,0.004575213672478744
2932,-0.007192265311568323
2933,0.0123254501689118
2934,-0.03467135345749072
2935,0.0015821790055601617
2936,-0.006894761268748372
2937,-0.03686270509933726
2938,0.013343806939551126
2939,0.01312684486328912
2940,-0.008780082607833665
2941,0.009850115570661112
2942,0.011150231042895017
2943,-0.004675820110951288
2944,0.01982340204271621
2945,0.021329322705275683
2946,-0.003682909114016748
2947,0.02200190599964347
2948,-0.017803729276151283
2949,0.005748430188829535
2950,-0.00292065755961098
2951,-0.005623959341250666
2952,0.0028735722787733547
2953,0.01890924135209884
2954,0.0027522774459587617
2955,0.01232732575490028
2956,0.014717537344633727
2957,0.005444571289750083
2958,-0.03942658003972718
2959,0.013603834259958212
2960,0.04098733804789838
2961,0.0019832628902485454
2962,-0.022296070577784544
2963,0.012763885625515146
2964,0.04423815293776553
2965,0.036500103624263654
2966,0.0036621420676784364
2967,0.017446838422079107
2968,-0.015831961255551922
2969,-0.005266610423807818
2970,0.01295443058626651
2971,-0.005279042427131134
2972,-0.006111201776863011
2973,-0.022345625621375168
2974,-0.004747569572533785
2975,0.022516665664130946
2976,0.02087695770753831
2977,-0.013232678812219109
2978,-0.006076032889046605
2979,0.002047499442501871
2980,-0.006479793959229191
2981,0.019697617857104992
2982,0.021304651840389
2983,-0.015055119469446265
2984,0.03468612070497307
2985,0.04066753384393778
2986,-0.0038407223098914046
2987,-0.009388962154596522
2988,0.0169203853816815
2989,-0.010353365975496399
2990,-0.006969906774038867
2991,0.029526122143377128
2992,0.01319303476511832
2993,0.014152893709247756
2994,-0.023651233963617475
2995,-0.029558467719101846
2996,0.0024433280643627584
2997,-0.004803278851290762
2998,-0.010738382520837335
2999,0.009031738215399918
3000,0.0022319979508026275
3001,0.006379770563870306
3002,0.0053949139293202365
3003,-0.03691139361508976
3004,0.004578467350533793
3005,0.02702652133298468
3006,-0.0032171258272407034
3007,0.02588149216021588
3008,0.008860656024521657
3009,0.038761197765033395
3010,0.007852885476453056
3011,-0.002396289746921667
3012,-0.0063183837070549245
3013,0.0013742933660502348
3014,-0.0263540946372693
3015,-0.0015033983822427507
3016,-0.003770866542750884
3017,0.0028665422897332267
3018,-0.009814086669363125
3019,0.013669401535869867
3020,-0.00781277511115573
3021,0.006165570838995293
3022,0.011325885219447447
3023,0.0011362249206941137
3024,-0.011254153325895131
3025,0.012857034005318596
3026,0.0012218392302755694
3027,-0.004472257117995996
3028,0.005732073145487484
3029,-0.008801364030935543
3030,-0.004288526755380876
3031,-0.004681177912151157
3032,-0.003920814403839301
3033,-0.018945677337983316
3034,0.004503006517680438
3035,-0.02420407954354981
3036,-0.03456769650538341
3037,-0.046614619048045494
3038,0.027043072541060476
3039,0.0015769074054433352
3040,-0.01606402637001037
3041,-0.006800807072338529
3042,-0.014475271243852238
3043,-0.009478217050716642
3044,0.004421018604682855
3045,-0.011017369736104366
3046,0.03289391525387971
3047,0.0005886636647967251
3048,0.0003842643858801957
3049,-0.010170196665198736
3050,-0.005023150664741693
3051,0.019179062869453496
3052,-0.003918083315689418
3053,-0.01482583501803886
3054,-0.024419373163030635
3055,-0.009253171479126103
3056,-0.002613740706019225
3057,-0.005578812086872295
3058,-0.005411601743825287
3059,-0.0028245810969658425
3060,0.012293816155599711
3061,-0.0027031537901650226
3062,0.04787645834572769
3063,-0.011333432375326247
3064,-0.01470706025530821
3065,-0.004377187118942272
3066,-0.02713808848822929
3067,-0.023386313848499558
3068,0.003431677641828404
3069,0.0017395865244840027
3070,0.012366690843271026
3071,-0.02183178370070821
3072,-0.026561114535062432
3073,-0.007988816439597243
3074,0.00868534211710195
3075,-0.016484708776030636
3076,0.01576924593631855
3077,-0.012165033413919047
3078,-0.0012862979573147416
3079,0.016670683103175397
3080,-0.025357426762903354
3081,0.010420594688202034
3082,0.0008542530026827628
3083,-0.01753283210253801
3084,0.018423115699407584
3085,0.021327134041170672
3086,0.01011995968867937
3087,-0.021029882229253085
3088,0.018251808786818435
3089,0.006804109577087874
3090,0.02172736759133835
3091,0.005574907779979476
3092,0.017342186753764092
3093,0.022206050160357264
3094,-0.012969684193496834
3095,0.006903263882046892
3096,-0.0008333231542883354
3097,0.022968237095761446
3098,0.008527235964486431
3099,-0.0048015419317071146
3100,0.005150380768454434
3101,-0.02535704033262159
3102,0.029913073885690606
3103,-0.04034118823198171
3104,0.010193559479515278
3105,-0.005475464942638879
3106,0.0033807182799050757
3107,-0.013997473080975771
3108,0.011237244793319074
3109,-0.018035458399152632
3110,0.003964490920978953
3111,0.017080495475441337
3112,-0.015314846505163182
3113,0.0009705303472353605
3114,0.016160038029787237
3115,-0.023443860270612616
3116,-0.022717245388763654
3117,0.002960616130944979
3118,-0.006659789343877251
3119,0.06109294358554426
3120,-0.0030488322668349617
3121,0.00013821848648551917
3122,-0.015202608669707712
3123,-0.018477981637175362
3124,0.010318926076414934
3125,-0.0038234181037108774
3126,-0.00033869611732545543
3127,-0.0017365895208205054
3128,-0.0128139782262483
3129,0.01293985864965199
3130,-0.0067551403189644475
3131,0.011407957245165478
3132,0.0070109083047585445
3133,-0.009696924131430243
3134,-0.025243314579060195
3135,-0.006171185927025719
3136,-0.020080573298300142
3137,0.0032020385101308477
3138,-0.008228456943732188
3139,0.027463958598198675
3140,0.006088741528998534
3141,0.011717316725427668
3142,0.018559802706729175
3143,-0.006501649114360202
3144,0.0013110967747663668
3145,-0.010906952592237387
3146,-0.008276735014705069
3147,0.002651432539994223
3148,0.009566374159592746
3149,-0.015799844303868115
3150,0.0085218092084536
3151,0.013992638926995123
3152,0.0038669600203970807
3153,0.000517694327879054
3154,0.015720791602167637
3155,-0.007885231007959652
3156,-0.008896718096310978
3157,0.024797131210989157
3158,0.030118425758377827
3159,-0.006591122452700197
3160,-0.004616812345321777
3161,0.02475013104772458
3162,0.012416246011157747
3163,0.014809107890606292
3164,-0.029147310819078762
3165,0.035399378358907135
3166,0.024162251683195895
3167,0.017931592186179224
3168,-0.005088171669205139
3169,-0.007471154990077468
3170,-0.020075240327339438
3171,-0.0012441197901785425
3172,0.00895316491692555
3173,0.0009677899459775862
3174,-0.01589185859936702
3175,-0.009292430586530915
3176,0.014737762863459012
3177,-0.009531457632723391
3178,-0.018007659448058717
3179,-0.047053395520194205
3180,-0.02634037920939067
3181,-0.018878047941897933
3182,-0.020463831837455156
3183,0.006983741406142036
3184,0.013660975570561755
3185,0.01314600848807408
3186,0.01108078238175098
3187,0.011725113917446359
3188,0.028075087896802495
3189,0.017464965586878357
3190,-0.001552738621366818
3191,-0.009692956689383954
3192,-0.029315142195047966
3193,-0.004009816912414681
3194,-0.024611349676726527
3195,0.00399023800928822
3196,0.0231123288839255
3197,0.0007507306064153956
3198,-0.0020455721566864536
3199,0.03975469910495365
