,weights_in
0,-0.1595372955454802
1,-0.3319761276014837
2,-0.2341676308718839
3,-0.31544179774331416
4,-0.22637213180408486
5,0.08219655989264543
6,-0.48988945870400297
7,0.3339477627874538
8,0.4752805899344834
9,-0.11390462041220596
10,0.4479524901345879
11,0.39661905190815877
12,-0.478564185463867
13,0.0004216249588024698
14,-0.8629473369183485
15,0.5859046046422771
16,-0.6744797406379801
17,-0.4646510068622779
18,-0.8389199913071175
19,0.02352237915157623
20,-0.4210211522778544
21,0.34272425242765026
22,0.11165514294572501
23,0.1998618297527219
24,0.983529838752949
25,-0.11843509696869237
26,-0.7748768565334928
27,-0.7941434413694737
28,0.8853968196427573
29,0.07592965286051616
30,-0.18651236509571326
31,0.18853304059412898
32,0.6326398980930973
33,0.09569275634057019
34,0.08695546146017127
35,0.8933958637847705
36,0.09258564950705654
37,-0.04483214627225716
38,-0.046306339723708824
39,0.10981078495941782
40,0.1623053703358537
41,0.6554437704853076
42,0.42656764705076217
43,0.17544748061354612
44,-0.29805231302165613
45,-0.02891949245863191
46,-0.5181505424721033
47,-0.18131908105471992
48,-0.40674387265130557
49,-0.5651497901205556
50,0.14756484463277217
51,0.49452238646546326
52,-0.22628760037698886
53,0.050868587979153196
54,-0.1098913732522125
55,-0.3102698112153285
56,0.5686283930033826
57,-0.2481299421200793
58,-0.3017084780337282
59,-0.06195837173404656
60,-0.27573323657125504
61,-1.0078449066977317
62,-0.897640367208006
63,-0.9191766353902558
64,0.26374419183879216
65,-0.15616329399368742
66,0.20763783043104087
67,-0.12740778726870594
68,-0.10759674729127652
69,0.09924840782196177
70,-0.7254774869822121
71,-0.8014090627540067
72,-0.1623378278423766
73,0.8475550367595546
74,-0.7001665351953594
75,0.23867350277928087
76,0.7357724495772252
77,-0.27964371807047883
78,-0.3787878042748688
79,0.09407618716556213
80,0.5004689350575189
81,-0.1899666969693975
82,0.5814635343870599
83,-0.04462631043424233
84,0.5244778582802573
85,0.2793040012673932
86,0.5730298576808693
87,0.04828924649118294
88,0.12435708526329567
89,-0.19762736164381914
90,-0.31557878161506864
91,0.15513683314772755
92,0.7516014490597781
93,0.2750477739939434
94,-0.2917453512760704
95,0.2748933443755599
96,-0.38093938631952895
97,-0.07492270699489939
98,-0.1498893071625137
99,-0.7435133304222915
100,-0.24074783772238412
101,-0.31028157363193204
102,0.15786572264874915
103,-0.4831249647948807
104,-0.7340363758545662
105,0.10038719881919382
106,-0.583365892495317
107,0.3591339616100353
108,-0.45331166839037523
109,-0.20665674458511402
110,-0.008081907244142995
111,-0.8903676148884235
112,-0.2861630901863059
113,-0.2251313282417541
114,-0.5482808042142674
115,-0.4430727231164079
116,0.330773413868611
117,-0.03949840050218027
118,-0.2226409257721028
119,-0.5231961377182438
120,-0.026773464542783034
121,-0.8580347362587759
122,0.17884813401815639
123,-0.34485817161087995
124,0.6072728779241384
125,0.03912478132751011
126,0.22012321226383155
127,-0.007908377765927625
128,-0.16316229602982568
129,-0.31840332630510304
130,-0.038140494665126624
131,-0.6277056298689975
132,-0.28061791380118606
133,0.4835839067944544
134,0.05010278862647338
135,-0.18898264428342054
136,-0.12191483525446696
137,-0.2772521442719116
138,0.18463919267702306
139,0.02090014605827808
140,0.9336779272295633
141,-0.7189225797023571
142,0.40467698536091634
143,-0.28242007830266735
144,-0.013878095856552378
145,-0.4513264598304969
146,-0.1813646787719357
147,-0.08233240335889656
148,-0.060396334701070836
149,-0.2482164457177697
150,-0.2169731806096359
151,0.1785364393543904
152,0.4205122876898149
153,-0.0464752934965822
154,-0.23745187868949605
155,-0.2597709404090876
156,0.2828864712755761
157,0.38779697933054375
158,-0.15057198370448852
159,0.41141643595899746
160,-0.29612537775622544
161,-0.30269323044268487
162,0.15317822997865668
163,0.2692994190911713
164,0.023783224457597882
165,-0.045080674311021536
166,0.6639825279919089
167,0.2123509550272113
168,0.4677714914202422
169,-0.06663085032827981
170,-0.24175807460543702
171,0.26966183154146645
172,-0.26693729673888356
173,0.7430173186014203
174,0.04670404539042207
175,0.22546214107314466
176,0.3255794885285258
177,-0.10968770114734418
178,0.4746174602787845
179,-0.29842729898714826
180,-0.4285938512423811
181,0.5011779472882285
182,0.1265970547929613
183,-0.22638200352871057
184,-0.2295894449115008
185,-0.22950355048783228
186,-0.45710858279211175
187,-0.00694575076353298
188,-0.2514688328844218
189,-1.0965470007925342
190,-0.655801315071219
191,-0.12008043966847173
192,-0.36425770091605186
193,0.2511732801188153
194,1.011720626253204
195,0.5724650191131213
196,0.2547577620303806
197,-0.8185634014914883
198,-0.47780807342960385
199,-0.003307543907078498
200,-0.3393767611454265
201,-0.3114205547371509
202,0.5900133037839675
203,-0.4942422435469609
204,-0.13829790578920195
205,0.45008820556785095
206,-0.007698125560286072
207,0.29251521359486504
208,-0.30541854036876465
209,-0.3077446380819061
210,0.1514298546184341
211,0.35579223228395873
212,-0.331757740970367
213,0.5828963121817292
214,0.0042760717945735304
215,-0.696466574796184
216,-0.5135758937191229
217,0.45926184255908964
218,-0.6901784437927807
219,-0.46782451694453
220,0.5182064798430451
221,0.45913842909057584
222,0.6531482560742133
223,0.7387054365734336
224,-0.3191778745404586
225,-0.033323859902757935
226,0.24794020484965631
227,-0.573503824824862
228,-0.7244481735777629
229,-0.09853395192749748
230,0.5337591408424016
231,0.461324393921312
232,-0.20878470775807206
233,-0.23790552392828207
234,0.02743636151577127
235,0.12151348395426192
236,0.41237719368499876
237,-0.7946673077245081
238,0.0015848045490298565
239,-0.5028737162812605
240,0.11914007807440119
241,-0.024697775189163936
242,0.34949657622787983
243,-0.11266537569414091
244,-0.03606268944965867
245,-0.2556244031743079
246,0.5347065178479695
247,0.40805011732736274
248,0.37138059623322256
249,0.7639944482391074
250,0.23000261980262435
251,-0.7814440299364043
252,0.012732477234877686
253,0.3674678917450912
254,-0.47621499579661714
255,0.03742700691510101
256,-0.5274323443890817
257,-0.496800683038519
258,-0.021831952733747138
259,0.31063632761746635
260,-0.3641437774131395
261,0.42141864882651786
262,-0.2703849600775844
263,0.3850869134566084
264,0.4009462778732536
265,-0.0985020152342804
266,-0.49001744070844605
267,0.4499790868256318
268,0.6955681258482489
269,-0.09767266543917542
270,-0.5309766321649044
271,0.1852525547913609
272,0.39207361277937014
273,0.23598690224094768
274,-0.24725014069905138
275,-0.06511987804469442
276,-0.2670878712419935
277,0.5399994646382342
278,0.09774130301261112
279,-0.9500364360067383
280,0.43830687136291335
281,0.453858705872145
282,-0.3801060406054075
283,0.44771353896032323
284,-0.6112028557480979
285,-0.2941069409382897
286,-0.1449518592743378
287,-0.4693722613082586
288,-0.41666725611349587
289,-0.9228223702969537
290,0.1501414320976601
291,0.47015164241922264
292,0.3932732549031185
293,0.3931817069308889
294,-0.09539825257970495
295,-0.18411117997000437
296,0.155421213472496
297,-0.5126403348570635
298,0.20627375881529014
299,0.2428669929116814
300,0.48554333162489605
301,-0.08305075630522243
302,-0.3364056113634772
303,0.5255017703317751
304,0.3378277034761908
305,0.1865210125746049
306,-0.36595120046723106
307,0.5121482711379934
308,-0.3646455205935236
309,0.10254017112381653
310,0.12101449722887386
311,0.30291256687766077
312,-0.2781059024055416
313,0.17728696486745446
314,-0.3622681536205317
315,0.7375083511384917
316,0.37179954253206055
317,0.10090983381187414
318,0.39108071705664543
319,-0.016858246942902236
320,0.10447082227062617
321,-0.20240360729635845
322,-0.8235030487761413
323,0.6133203747599261
324,0.3411267611603629
325,0.5715843545193177
326,0.7483586324356611
327,0.5822239804919142
328,-0.1615238822768755
329,-0.7941255548268091
330,0.45339814169701076
331,0.017512763818190884
332,0.1500528309144918
333,0.0069076572080351804
334,-0.2600311127090067
335,-0.8892175125534598
336,-0.05538351695697034
337,-0.08582514691818041
338,0.27906793296253873
339,-0.01574945028596552
340,-0.16848314444865664
341,0.4339522579310674
342,0.05115824147748518
343,-0.4261381097963241
344,0.550165118027832
345,0.09472692309579714
346,-0.5318160401861763
347,0.8434577642641722
348,-0.5899221973748145
349,0.5875848821018476
350,0.1581110859197153
351,-0.17763245032776573
352,-0.4330344741345068
353,-0.14042536036866202
354,0.08520144594246666
355,0.26902086993261415
356,-0.5711235853651817
357,0.30682723634462283
358,-1.2938841176180504
359,0.2653384506219469
360,0.5371992554191534
361,-0.046394000567372654
362,0.5196993946338966
363,-0.6045334114626305
364,0.538932490527744
365,-0.01761034870595083
366,0.48517278195065167
367,0.1964759305051722
368,0.20232078629736933
369,0.17658509071728076
370,-0.415829052934224
371,0.15608700669762107
372,-0.5896387441318945
373,-0.003646425077808569
374,0.5278941271466299
375,0.151865478622901
376,-0.7570515800541128
377,0.3011563252702584
378,0.24751998507307937
379,0.40778243969543015
380,0.17890109786385766
381,0.23710871453456037
382,-0.623238059628153
383,-0.3428550062341028
384,0.23589098397159924
385,-0.03945738111260908
386,0.6001991711961584
387,-0.2101204645245736
388,0.6076087911747815
389,-0.29874945616186627
390,0.24847587895205123
391,-0.4032778088809125
392,-0.39504466295779483
393,0.20149815801873636
394,0.033380099780497954
395,-0.4886409615043988
396,-0.05786327796116752
397,0.6792171622232269
398,0.04954706014191896
399,0.7490367190520737
400,-0.13182770986876152
401,0.2830311679032655
402,0.09370500416698357
403,-0.3732495235739722
404,-1.0805173552356366
405,0.09989382936853969
406,0.5081257685937216
407,0.2996448070620889
408,0.31631006226651426
409,0.0912730598834794
410,0.7097592526812803
411,-0.24830413717049682
412,0.3082482750093856
413,-0.276688097404813
414,0.32269910075740527
415,-0.0827907968288196
416,0.3721547878367887
417,-0.242956234265423
418,0.260070973897383
419,0.6408793624803288
420,0.27938008936686254
421,0.2257781257296841
422,0.11448022717189903
423,-0.2584211873950519
424,0.1187972398002755
425,0.12323635724424356
426,-0.42969885922078593
427,0.049248771205803246
428,0.1477417784415136
429,0.6004828804138637
430,0.17129278130209757
431,0.1844483960203438
432,0.8916874917067882
433,0.13569009845508959
434,0.02532660910591095
435,0.00013724768570889554
436,-0.09721086260438323
437,-0.6140443415255428
438,-0.2921668227933546
439,0.4979139744249347
440,0.22716365703269584
441,-0.04019565504582697
442,-0.1403875042428376
443,0.07565956297327782
444,-0.14370259424824577
445,-0.8949995645642917
446,0.2867935885849754
447,-0.0856379673901715
448,-0.6382222814369669
449,-0.0971168107343639
450,-0.4167359473584473
451,0.37114672235934415
452,0.48716604962880355
453,0.395834129324175
454,-0.07073242829443128
455,-0.427366233787299
456,-0.23794582968748815
457,-0.4790948785763031
458,1.0157637189563933
459,-0.4156562856391571
460,-0.062129793514510985
461,-0.05106718110407803
462,-0.5883948965246508
463,-0.46557825877778836
464,0.17016093333218804
465,-0.17706253274169148
466,0.10730308778314196
467,-0.3994504139737797
468,-0.12159661258601412
469,0.29896831864499124
470,-0.611715572895943
471,-0.5280513316609415
472,-0.6788366122426889
473,0.11219163756228002
474,-0.03916758634351504
475,-0.3797346593033657
476,0.49543513066005235
477,-0.41535552820656607
478,0.2005824062822213
479,-0.4876908032050515
480,-0.579071360900601
481,-0.23512975620999618
482,-0.694079501335144
483,0.7480441219103835
484,-0.24748135960781062
485,1.0648930954941507
486,0.40295487024447774
487,-0.2782184898531032
488,0.3123898067273491
489,-0.17645845467096358
490,0.7985989432876087
491,0.4380146240047965
492,-0.4282208074444976
493,0.3372609123436831
494,-0.10859233663377572
495,-0.22534083765634594
496,-0.11041687439351831
497,-0.2946688908823752
498,-0.007235291969017849
499,0.2047133965673741
500,0.29427973385336303
501,-0.14349541736857574
502,0.3814543003240132
503,-0.26455675773495946
504,0.28989789141707356
505,-0.11449987833130933
506,-0.044725501114875325
507,0.006827256702455283
508,-0.3099731286056764
509,-0.2878440486473771
510,0.3491741450579858
511,-0.012234456856779204
512,0.26006215039848923
513,0.7527267657298924
514,0.3381631778059307
515,-0.41927139677877817
516,-0.112997998924392
517,-0.7457541878540123
518,0.17630918494506082
519,0.6322309719391982
520,-0.20322439638340947
521,-0.1161227310908634
522,-0.3400789465029686
523,0.330562138404955
524,0.5576169533451012
525,0.3609884190279147
526,0.1734957696575962
527,-0.8351480987514194
528,0.4286954240471529
529,0.626658592400885
530,0.3075659037334797
531,0.5013477263875104
532,0.13274291248410017
533,-0.43999815657778396
534,0.08923084036722076
535,0.5245229502186599
536,-0.5601238454125292
537,0.45251666432442134
538,0.5478961328911824
539,0.5081088860432625
540,-0.2675439960277949
541,-0.06842609759091212
542,0.031835104386320506
543,-0.2468605110860524
544,-0.09542734834043369
545,-0.6542599808438728
546,-0.31519219621444383
547,-0.43941751564978354
548,-0.8512171480187127
549,0.1652404451345676
550,-0.13361673800012316
551,0.1587578811966995
552,-0.07331055978305216
553,-0.1500389605670914
554,-0.2460602440134495
555,-0.01255348596897699
556,-0.23054276504852814
557,0.25431697087608335
558,0.4495874108214628
559,-0.26141116176156715
560,0.3696000524195245
561,0.44384808279549515
562,-0.17579409791204467
563,-0.30677858521597656
564,-0.052378774621889834
565,-0.07832663258229693
566,0.6961972947318973
567,-0.3879692207154788
568,0.3297052809271206
569,0.06984278394728945
570,-0.07881469932637619
571,-0.8219625969320615
572,-0.04349759889467982
573,0.3405906443724469
574,0.047769355499595816
575,-0.01810552550677198
576,-0.1390130973039833
577,0.2573228961033223
578,0.43771820422615765
579,1.1835151360619822
580,0.29059825676631273
581,-1.0368185336608753
582,0.34020571693927953
583,-0.18445131927634792
584,-0.22184731621017792
585,-0.011007022509277526
586,0.25269769410353654
587,0.44364206345692025
588,0.3619829515348411
589,-0.20667454306654193
590,0.21233258756615403
591,-0.668390479457789
592,-0.1365200595171536
593,-0.4315561473461735
594,0.2401682746914144
595,-0.15597801731365474
596,0.6439707376352066
597,0.22786690234773901
598,0.07282630468982791
599,0.26909687828352763
600,0.08532400936780157
601,0.1922751504061169
602,0.22620307837233694
603,-0.8110004575803557
604,-0.21321234734587802
605,0.1921021330290442
606,-0.05936663125020332
607,0.28244107084645154
608,-0.030227341020492723
609,-0.281493627349932
610,-0.9060429866536976
611,-0.36574790362506776
612,0.1242785978125724
613,-0.45987748758181135
614,-1.0741474935910833
615,-0.09527261165331272
616,-0.20586657204050918
617,0.1445885791344752
618,-0.019729648988674357
619,0.06388892512266489
620,0.1844390307575778
621,-0.5792293269773717
622,-0.44040749956914427
623,-0.4661326194398302
624,-0.08262287754833054
625,-0.22980530823289913
626,0.3499066064576263
627,-0.18727747303373146
628,0.08688701191759454
629,0.5619175597270033
630,0.35471732827799546
631,0.36870682136705096
632,-0.1814405012530754
633,0.3958044461694437
634,-0.40523218971064423
635,0.369648209276358
636,0.2127653868116856
637,-0.4026205698596843
638,0.061018912486168975
639,0.17698117620529313
640,0.02281222739788266
641,-0.9141969582566497
642,-0.0003676327588033161
643,0.3841163610942367
644,0.07720311637742512
645,-0.19013406680868308
646,-0.4447874047428948
647,-0.22424577634228846
648,0.4508443337938205
649,-0.1589850839170147
650,0.23000765705527765
651,0.3184029572412791
652,-0.007625261289641743
653,-0.022453032547020614
654,-0.2904731984051159
655,0.3680406223355138
656,0.843266770314212
657,-0.3030041709040639
658,0.009426128069634715
659,0.4086064533567656
660,0.4201696450780479
661,-0.6299521909814734
662,0.3327798988573434
663,-0.2021195417696884
664,-0.2857553342577807
665,0.4389659627432315
666,0.8611118682514007
667,-0.49954095304752644
668,0.48872567194972555
669,0.01619194136953898
670,1.0133185488252756
671,0.4720446834617035
672,-0.049620904020538974
673,-0.009309878279029543
674,-0.41443865905952365
675,-0.2624908627568008
676,0.3590376426194774
677,0.16642220613887376
678,0.4929470188015617
679,-0.9282860959570323
680,-0.050658441510194586
681,-0.02396409467603655
682,0.05884348191851061
683,-0.1650263891756982
684,-0.11087979534838137
685,0.13820200178752814
686,-0.26126369530160637
687,0.3469238508127889
688,-0.34155500255946036
689,-0.019333193673520797
690,-0.19003366297795185
691,-0.2746788684131796
692,-0.03511827699992053
693,-0.23584698146309277
694,-0.0709967070617772
695,-0.17241234328413643
696,0.2367325780953703
697,-0.5870834421329588
698,0.011464455678430553
699,-0.40680307991364534
700,-0.3558142766228899
701,-0.7319290966300799
702,0.8129782190411002
703,-0.24417240564135975
704,0.2113769843736087
705,-0.3383397638230694
706,-0.12714165269136876
707,0.24380418062319828
708,0.10181032163595764
709,-0.05192402819446609
710,0.14488402956342078
711,0.9392515531515457
712,-0.8528671559613384
713,-0.12490214898058237
714,-0.12514153393255684
715,-0.3606215717279495
716,0.3375790216349051
717,1.1882427090801384
718,-0.2629194538781534
719,-0.12206534092413507
720,0.26698905496210523
721,0.47241770090259994
722,0.6208232972684833
723,-0.17161415972627156
724,0.26252422649803014
725,0.16105113255905634
726,-0.06465001178727994
727,0.8564807310514282
728,-0.11859974873302385
729,-0.631983438760976
730,0.23159184494099452
731,0.43179215350006833
732,0.045724335286194115
733,0.03404276651745253
734,-0.8414007535982828
735,0.09834937961836997
736,0.49546723512101865
737,0.018750675266840534
738,-0.020875622050421063
739,-0.3446285451496741
740,-0.07849783055452682
741,-0.45185097335195584
742,0.7611215007372307
743,0.023500977315016557
744,-0.40751566488637603
745,-0.14839873162345507
746,-0.7133497415311099
747,0.9433863375940503
748,0.07239654103215447
749,0.49584598280837955
750,0.5228068499375356
751,-0.2704235504459288
752,-0.3251060517793731
753,-0.15275992939423477
754,0.46919049769385085
755,0.6022499259426244
756,0.7332782175978694
757,-0.0865622179623547
758,-0.4838586424423828
759,1.1334106580217933
760,0.17007956384814182
761,0.11106865019929081
762,-0.8036423878152615
763,0.3370303948351504
764,0.5794020981102391
765,-0.005604778418676362
766,0.5266561231895363
767,0.5630226283962475
768,-0.09177157270516051
769,0.8517672469366144
770,-0.3514197989519655
771,-0.6430514283024246
772,-0.7082451728824198
773,-0.004454271326634745
774,-0.08870485917378626
775,-0.050933064735274695
776,0.15441759157037782
777,-0.13305627075190443
778,1.0103037264715178
779,-0.2661429699915772
780,0.21571657788640555
781,-0.10315889668849182
782,0.13414631649476935
783,-0.5673678978558215
784,-0.4256009799412863
785,-0.4957122852784227
786,-0.12307738194529104
787,0.544083163745554
788,0.31258689493658554
789,0.21661426169764397
790,0.05430944549572379
791,0.2428482308345127
792,-0.20065844436467936
793,-0.4665476511789176
794,-0.1326747947462833
795,-0.020067997799196866
796,0.5215710037973618
797,-0.5046509589794429
798,-0.44970572677576864
799,0.027746459890461254
800,0.33276006311199796
801,0.731737632602379
802,0.4052879409532481
803,0.6103760449422884
804,-0.11048242793814397
805,-0.4901760441178369
806,0.0875747714165501
807,-0.8083443900231572
808,0.3680060388644423
809,0.2578196820493995
810,-0.23364443174608765
811,0.1634337727491325
812,-0.0649644188812614
813,-0.39069995788040696
814,0.7565844720874977
815,-0.2026271648782661
816,-0.2708217285579751
817,0.1666997977249468
818,0.4446301213570491
819,-0.31063602936302304
820,0.8068176221401598
821,-0.2596766353996277
822,-0.3738495358611868
823,0.008934928001618988
824,-0.13043854780866085
825,-0.10735923243087296
826,-0.1762783342124998
827,0.4564177764960783
828,0.44354226332874236
829,0.213707410272028
830,-0.05348655351290376
831,-0.3022353269632615
832,-0.6782801987800026
833,0.11578431126002081
834,-0.16706200920068484
835,-0.7142744751241966
836,-0.06498876112901202
837,0.4461325276998414
838,0.16577405980080223
839,-0.0601375327485796
840,0.0618419159785642
841,0.3907614717454255
842,-0.6554016464174377
843,0.17148485889575887
844,-0.27000621336868125
845,0.4982906346063786
846,-0.43800501532822533
847,-0.2323451087096648
848,-0.33931943194616115
849,0.47040114441426767
850,0.10911650511560708
851,-0.28716884468863985
852,-0.2111672532612993
853,-0.024679387542305958
854,-0.3921130546190303
855,-0.08103322985756946
856,-0.6555603559650606
857,0.08473325234636807
858,0.07553682486035723
859,-0.50375875710708
860,-0.3660706055506251
861,-0.31480525362992423
862,-0.038420457481046104
863,0.11064628767630083
864,-0.6276467416397624
865,0.14761172135585007
866,-0.19337126982596842
867,0.3810825732905642
868,-0.19841130549342506
869,-0.5095473119089722
870,0.11302978571061606
871,-0.021673930470921626
872,-0.6910054594043374
873,-0.23203234758829175
874,0.43387847624787346
875,-0.9271176022819694
876,0.18469889599211273
877,-0.28101678582006967
878,-0.13213526578299387
879,-0.3072849930665646
880,0.8039547474199957
881,0.18521952613751305
882,0.28779009263218136
883,-0.003091616547255681
884,-0.40451375419536995
885,0.20416367189293078
886,0.5873570764607005
887,-0.5172347447314928
888,0.2273120487809684
889,-0.059073997966714684
890,-0.03766321142349333
891,-0.47468733808385133
892,0.24008087750150897
893,-0.321638050812776
894,-0.05411725294952978
895,-0.12237376235506577
896,-0.6875343215811975
897,-0.49107085966655095
898,0.8284060736144566
899,-0.24896924520539776
900,0.2153178359223699
901,0.20744250676288808
902,0.15855685315416296
903,0.7517630518021686
904,0.33156257403741246
905,0.5087027814632313
906,-0.22917042538905527
907,0.17051391938757382
908,-0.2576985998679865
909,-0.5757750901997154
910,0.6809712372219029
911,-0.19345898087027286
912,-0.16529227103335697
913,-0.5387273755247098
914,0.299536351613963
915,0.18322485352602214
916,-0.1119183825552349
917,-0.020045863442663833
918,-0.4923160831624646
919,-0.3869392042587108
920,-0.1145032655269493
921,-0.2889534282092577
922,-0.6027969431960939
923,-0.05887146640203977
924,0.37549411769189156
925,0.07791059812198857
926,0.2012811818131216
927,-0.44735048569725444
928,-0.0804940099151687
929,-0.5355330586581339
930,0.12075055992788616
931,0.015256049402402551
932,0.31787932484460113
933,0.35350615097892757
934,-0.16043443660729576
935,0.43997965478268025
936,-0.3540416505047759
937,-0.3149348916508601
938,0.012364968702469727
939,-0.5417948431880152
940,0.4589536111278999
941,0.04188920891976089
942,-0.32342959918339687
943,-0.13902810606356303
944,0.27055118973896164
945,0.7527649659473586
946,-0.06207863006342123
947,-0.016068242811418533
948,-0.4436902564848132
949,-0.17312150254223335
950,0.1715277893090792
951,-0.5047370593413725
952,0.30105913931949546
953,-0.39403748721390447
954,0.16302515360964656
955,0.21716366247416213
956,-0.24591736991570087
957,-0.18828125062062745
958,0.40478295849579526
959,0.0963429519421655
960,-0.21694519461025163
961,-0.47691020463714956
962,-0.29830607515667434
963,-0.13347668047646707
964,-0.17533496682228308
965,0.18039385543469305
966,0.4410813096368101
967,0.7172027138885292
968,-0.12229824694823237
969,-0.1969011473215082
970,0.2788753936235171
971,-0.11919628319067499
972,-0.17855391031003295
973,-0.7596549160082873
974,-0.14996665099289724
975,0.22601317827368925
976,-0.3458204250592465
977,-0.13209427575626062
978,-0.21152135022844076
979,0.09423968077063324
980,0.29659908071499014
981,0.11350063474017627
982,-0.5379511004109866
983,0.3438826329830586
984,0.44489339634856767
985,-0.25451716595863133
986,0.3287022054240798
987,0.07568905353788954
988,-0.6410420089592591
989,-0.2953002068107395
990,-0.7723527435245736
991,0.5189209100580411
992,0.06725260808233853
993,-0.07752545519940894
994,0.48919642439741334
995,-0.2767720711975953
996,0.0399956009335647
997,0.04249912286183864
998,-0.37354600698769297
999,0.028453956597029782
1000,0.1646331118816294
1001,-0.5436646601326363
1002,-0.04421623950228154
1003,-0.08434037876562947
1004,0.3341436878534125
1005,-0.3005026548285775
1006,0.2579458974338082
1007,0.0765905047772717
1008,0.5016450817882834
1009,0.39755445702948494
1010,0.027378012734099556
1011,-0.3737221908684347
1012,0.5787878662623033
1013,0.2565453449106697
1014,0.20957823521836041
1015,0.5945328046080813
1016,0.08281783904127349
1017,0.43933170783876
1018,0.022930481984782352
1019,-0.25472736237812693
1020,0.01021251275993423
1021,-0.4279527622011795
1022,0.017543308076673994
1023,0.05760222775290397
1024,0.6729261113081164
1025,-0.2270323613373124
1026,-0.04433809888333687
1027,-0.11401287814327545
1028,0.4688511209332033
1029,0.08492735492207243
1030,0.9753227091656624
1031,0.4272439881111507
1032,0.18613352610304154
1033,0.32381921696013777
1034,-0.5799224156219611
1035,0.5593222857743546
1036,0.5333442270345146
1037,-0.12314624744896767
1038,-0.285923674723868
1039,0.22226879819958792
1040,-0.3671235634584636
1041,-0.4418675765766754
1042,-0.028470915482833162
1043,0.09751501218556122
1044,0.5204442369591499
1045,0.5563415137849965
1046,0.2481207955761296
1047,0.14534694172728874
1048,0.11247583312460341
1049,-0.11421731350776468
1050,0.30982354230468506
1051,0.31201020883352365
1052,0.2215154606394888
1053,-0.9216335495910882
1054,0.2197896678688776
1055,-0.05411804576506333
1056,-0.6140695100544624
1057,-0.06794641070192543
1058,0.2704356871107711
1059,0.1922398852110408
1060,-0.7657954089209095
1061,0.35794003046945255
1062,-0.055116895427730704
1063,0.1307866852870212
1064,0.580509064684011
1065,0.2017666499046141
1066,0.2032276120429863
1067,0.06473638647096017
1068,-0.886800071747213
1069,0.18849176547753674
1070,-0.36384774057492564
1071,-0.6636551896536771
1072,-0.0016695393576062268
1073,-0.19304019175823373
1074,0.2829755226294213
1075,0.42383652867064786
1076,0.026367053962431337
1077,0.2614838320561046
1078,-0.10989242998638711
1079,-0.11229066634563362
1080,0.23469213966062819
1081,0.010209842949998318
1082,0.36000617232273086
1083,0.0797301424744292
1084,0.5222026394929804
1085,-0.4903082388268719
1086,0.6878519852761757
1087,0.011164260496265952
1088,-0.29272058413159413
1089,0.5915123617269041
1090,0.413784164950943
1091,0.05182703404070099
1092,-0.11255602870905276
1093,0.18643486558680405
1094,-0.4845641272478942
1095,0.5267631151909993
1096,-0.1218301024103307
1097,-0.3449193295524746
1098,-0.07310256521503924
1099,-0.1151706375853525
1100,0.5231912337821953
1101,0.021766443036776797
1102,-0.2579533442090015
1103,0.04012489987539926
1104,-0.25309350814782383
1105,0.07064762910034499
1106,-0.10355136392998328
1107,-0.1699065514003761
1108,-0.22341540325929773
1109,-0.14334505262862254
1110,-0.1782731835984982
1111,0.834256165031587
1112,0.1539761216304256
1113,-0.3026632826102887
1114,-0.32156427888788697
1115,-0.7510502282608639
1116,0.41336403248249576
1117,-0.23512455373534621
1118,0.005441071583291789
1119,-0.5531805281222048
1120,0.07332387176945789
1121,-0.25777702576893363
1122,-0.10857462405533383
1123,-0.33445482078226707
1124,-0.11797400582329791
1125,-0.2916267409654982
1126,-0.13025551060053064
1127,0.23147412207164444
1128,-0.5902308215706634
1129,-0.12719104434170317
1130,-0.1535342208325046
1131,0.07307750072167306
1132,-0.6595703328651948
1133,-0.0293738876561513
1134,-0.008247233570868158
1135,0.032454280370804764
1136,0.12101939329973617
1137,-0.2726822736296542
1138,0.3790612920500588
1139,0.007879629241156653
1140,0.34628976681179435
1141,-0.0012796447329873387
1142,-0.6224575633243633
1143,-0.3868473284926463
1144,-0.013864179141842082
1145,0.12560487035406298
1146,0.30509644986226775
1147,0.1747817519173562
1148,-0.4183967657152947
1149,0.7329966072492753
1150,0.6878505171476114
1151,0.0007299746185535633
1152,-0.48817556004407653
1153,0.6591420920044138
1154,0.10979326441773221
1155,0.44255702750842124
1156,-0.30941844939887925
1157,0.0019076924589241445
1158,0.4132142744389852
1159,-0.44110843308003483
1160,-0.8769074696089086
1161,-0.0028007069493348464
1162,0.09399454338509994
1163,-0.010902282971495125
1164,0.14946549867579245
1165,-0.3306417197282897
1166,0.6712194412366017
1167,-0.43314157830863725
1168,-0.3857504127914331
1169,-0.5117786058095246
1170,0.09889283384312181
1171,-0.18926828963209633
1172,-0.31048015690422587
1173,-0.2113407849479395
1174,0.13621727864390043
1175,0.2570328762040979
1176,0.1689148992401928
1177,0.11723907823542064
1178,-0.019789792058618794
1179,-0.061409530678526204
1180,0.29446954699913647
1181,0.9645872913413517
1182,-0.34494625775517873
1183,0.31891020561384015
1184,0.2787731128988793
1185,0.2027437319616624
1186,0.03276726136636845
1187,0.5156133688237806
1188,-0.2538507201091854
1189,-0.2343830762519073
1190,0.456936899729202
1191,0.8335255557354774
1192,-0.5054551723493946
1193,-1.2369762092962833
1194,0.3115289459002696
1195,0.5422470928018304
1196,-0.5656658881838932
1197,-0.012961363851118188
1198,-0.40149471822643706
1199,-0.35656392294490924
1200,0.02479739672403251
1201,0.5010665189973446
1202,-0.8153730624503911
1203,0.0903930652425096
1204,-0.46668808221339586
1205,0.3457071591245335
1206,0.292631336316489
1207,0.6527812538983301
1208,0.07971697616673615
1209,-0.4606534614867873
1210,-0.6845236834483694
1211,0.9020691510400506
1212,-0.29369621217343955
1213,0.6470957664312793
1214,0.35117960623664385
1215,-1.0147888036808836
1216,-0.1920479282646961
1217,-0.46909094951971386
1218,0.10246488339527349
1219,-0.6358679846614173
1220,0.36780538444193733
1221,-0.11712707918672854
1222,-0.4797377501385053
1223,-0.5700069090472281
1224,0.24507149492559074
1225,-0.8442648006740772
1226,0.18406707390198104
1227,0.0033288847650631264
1228,-0.5608495654154216
1229,-0.4140881762979612
1230,0.7437389050383307
1231,-0.10617639971056102
1232,0.01428988188746755
1233,0.06402361626272839
1234,0.20428815514455415
1235,-0.02175018964922228
1236,-0.7724450553637371
1237,-0.010964542386361634
1238,0.6218973092899163
1239,-0.21853732971967627
1240,0.271140539829445
1241,-0.1796595482947656
1242,0.5032949696974642
1243,0.9799392611093617
1244,0.20085696344131168
1245,-0.01929428990331606
1246,0.5374379600273493
1247,-0.3922697948843405
1248,-0.47324178517397547
1249,-0.30113172788633086
1250,0.02001854556059607
1251,-0.013428776223397113
1252,-0.4477512689797533
1253,-0.06506059985553711
1254,0.24848001349409451
1255,-0.1221821534589469
1256,0.014572047617945415
1257,-0.016385352514024152
1258,0.02052307032406202
1259,0.03790644122609628
1260,0.31764189729063314
1261,-0.35147450208906417
1262,0.5117176824823175
1263,-0.23570696671632776
1264,-0.06454365770129723
1265,-0.3734890339096631
1266,0.19569176475861627
1267,-0.580294273912722
1268,-0.43238735920989185
1269,-0.0005519105671234432
1270,0.3553835287561156
1271,0.4904397303437614
1272,-0.11365848477423708
1273,-0.6667836535079954
1274,0.28293544173173507
1275,-0.31457982845519517
1276,-0.17176155505485144
1277,-0.831812788936804
1278,-0.07871092833063216
1279,0.501825427062302
1280,0.4053015979115203
1281,-0.31456984364445406
1282,0.42620829636609553
1283,0.33889382633158255
1284,0.21050394464211292
1285,0.32370096945271915
1286,0.9100742153650629
1287,0.7976976616368296
1288,0.47363348149721757
1289,-0.1481262592493627
1290,0.34607643630909607
1291,-0.5847832596098553
1292,0.18519598722119587
1293,0.32602362447178485
1294,0.2521926286045783
1295,-0.34285871813183444
1296,-0.6511186750929112
1297,0.14840705517263736
1298,-0.2789179370142735
1299,-0.07838731971916817
1300,-0.14720025348968446
1301,-0.22440242302133082
1302,0.3060507587300646
1303,0.2667243929509602
1304,0.0688845414874392
1305,-0.017587016016039285
1306,-0.043098132438207405
1307,-0.13487160193310305
1308,-0.011382863511966618
1309,0.0034893178184708857
1310,-0.2807173812944089
1311,-1.4234318393090086
1312,0.12063608406333855
1313,0.29556761100614937
1314,-0.15164805495842307
1315,0.11148733668257549
1316,0.17329635615004274
1317,-0.19901360631963055
1318,0.13156504519962528
1319,-0.10166601427069429
1320,-0.5784036980473821
1321,-0.21886254345491424
1322,-0.14916219860866023
1323,-0.16608008067003796
1324,0.34131330293483964
1325,0.18457575035303556
1326,-0.38820475255773335
1327,-0.41865513385314596
1328,-0.36486873252740737
1329,-0.23570207405972482
1330,0.11530308358373045
1331,0.33057990411059157
1332,-0.616034463749038
1333,-0.028156146383498976
1334,0.5070183089598327
1335,0.044412801929837965
1336,-0.14367791232246138
1337,0.7150116709458175
1338,0.28735241606054734
1339,-0.6109917471184745
1340,0.07549678011856219
1341,-0.6690449885314732
1342,-0.274091296147862
1343,-0.47314018745351233
1344,0.48128026183764344
1345,0.7163271254973582
1346,-0.3030379026769526
1347,0.28840222732081666
1348,-0.10613292329934454
1349,0.4101774382200235
1350,-0.5821718946652854
1351,0.0618397302171157
1352,-0.14718374972171835
1353,-0.3872118227410961
1354,-0.6322687540317278
1355,0.3506523125564546
1356,0.5108063858057433
1357,-0.5251685397445572
1358,-0.06336491278060077
1359,0.29502800654502687
1360,-1.1413943038455878
1361,-0.22445990546755631
1362,0.27873649390166344
1363,0.5461165647464827
1364,-0.23797673214015044
1365,0.3451376053028366
1366,-0.02769024580833477
1367,-0.4692850076182447
1368,-0.15511559789571058
1369,-0.05150163100107865
1370,0.2409961684520817
1371,0.23928403135594037
1372,0.42029449466500657
1373,0.2083559179546448
1374,-0.3043564005921585
1375,-0.5245326180939326
1376,-0.3818260299144589
1377,0.4024262207286983
1378,0.08442542012004565
1379,-0.11064075580734946
1380,-0.21924296811067898
1381,0.4004479784607205
1382,-0.1309962043018024
1383,0.33450155829093
1384,-0.17148923088307924
1385,-0.29453869171046043
1386,-0.4110462872857515
1387,-0.010463064426644597
1388,0.2333958796000259
1389,-0.23192645701988174
1390,0.5048026826115006
1391,0.8064802729845502
1392,-0.532598982169683
1393,0.10940548749940752
1394,-0.36714610544479437
1395,-0.6308132127011068
1396,1.0550729948158304
1397,-0.5520101789001335
1398,0.16765142136122027
1399,-0.08397749861361327
1400,0.33317624771821336
1401,0.7860845752665891
1402,0.011591074090360072
1403,-0.25508887185853457
1404,-0.060971369207262024
1405,-0.43508268809585526
1406,0.2760846830920879
1407,0.34867283963859363
1408,-0.003540330315178997
1409,-0.004659194144781852
1410,-0.14750266461848396
1411,-0.2644757385280057
1412,0.240523264346641
1413,-0.1552091937423479
1414,0.7062030976012537
1415,0.1558053218475184
1416,0.3325481806296881
1417,-0.33073586279753975
1418,-0.6972803109864338
1419,0.6191473022700769
1420,0.4880224717581219
1421,0.650621422318009
1422,-0.5692366839174846
1423,0.32667622592843143
1424,-0.0748905973136442
1425,0.41498968590255386
1426,-0.11977021662222959
1427,0.35164418156608357
1428,0.6213504532124261
1429,0.5961772982700437
1430,-0.026263031143827727
1431,-0.07827586456390558
1432,-0.17701453262139247
1433,0.4635022503535194
1434,0.41290513668835677
1435,0.3274091109377651
1436,0.6404066619293951
1437,0.09946143918435968
1438,0.26786632572859537
1439,0.4777630236561046
1440,-0.035592392531532506
1441,0.30862284282875246
1442,-0.3383737513081162
1443,-0.06103880025783589
1444,0.3637038686249439
1445,-0.24071077922376874
1446,0.3140120780601026
1447,0.08371495593990001
1448,0.17083676955381347
1449,-0.5854650838791116
1450,0.7095598548993741
1451,0.4553073772386071
1452,0.38750172298192714
1453,-0.1211745307760883
1454,-0.5017742286350019
1455,-0.22569756202528216
1456,0.3358325794631915
1457,-0.20048040930191774
1458,-0.8000954613069935
1459,-0.07261375332075999
1460,0.47950217761493397
1461,0.11204526118740887
1462,-0.2939571695505896
1463,-0.16466030114633667
1464,-0.4591576854080644
1465,-0.6105720340756513
1466,0.09047466514436606
1467,0.5991950610401944
1468,0.1331661718441505
1469,0.6353819668888734
1470,0.004157442874601001
1471,0.20001054029600773
1472,0.10332061741235121
1473,-0.25892850157406355
1474,1.0230124355092503
1475,-0.010384381021334474
1476,0.35614668670364036
1477,0.14728991928518215
1478,-0.39821512140280685
1479,-0.004105994764247072
1480,-0.22682215518301774
1481,-1.1861834445958126
1482,-0.06439747745492296
1483,0.363185827968248
1484,0.7144463283831766
1485,-0.41861121176865296
1486,0.3133536525281804
1487,0.16508307929003302
1488,0.5512728463839666
1489,0.5856028060887465
1490,-0.61499737462446
1491,0.027443427548694204
1492,0.307086411164343
1493,-0.14696854877955715
1494,-0.19067052622948893
1495,-0.26374834950488063
1496,-0.21013088934081645
1497,-0.21764663246754778
1498,0.5755294729309606
1499,0.46877148007202163
1500,-0.2195423589476393
1501,-0.32894775338654514
1502,0.28858451160020565
1503,-0.27959814722401527
1504,-0.0971423926133052
1505,0.18095625712634314
1506,0.0426149201983964
1507,-0.7651526381852366
1508,-0.4020478819467605
1509,-0.39718330249164546
1510,-0.13586425516281167
1511,-0.5572928907841989
1512,-0.06762929750739494
1513,0.3409199451526327
1514,0.6972841704371747
1515,-0.027228940725998903
1516,-0.14139741775206296
1517,-0.12187390448914974
1518,0.8914628226868795
1519,0.09829858582389916
1520,0.09953440079422844
1521,0.7500838787184279
1522,-0.512570211680988
1523,0.4133477425698766
1524,0.05465127136185939
1525,0.2921218322659913
1526,-0.07170795882519897
1527,-0.0702455636206973
1528,-0.034387736904990425
1529,-0.07417604416133428
1530,-0.26009554487875486
1531,0.03685321268500827
1532,-0.02868772409460471
1533,-0.3054840865066774
1534,-0.8853133361460749
1535,-0.1637128823793669
1536,-1.452053121444796
1537,-0.30984678103804353
1538,0.1523829146234064
1539,-0.228187590577613
1540,-0.3006512221962899
1541,0.39875269935989077
1542,0.4014995853344526
1543,-0.2366806570324167
1544,-0.20621376943302813
1545,-0.32403093524308646
1546,0.03794305322395493
1547,0.40470720161857665
1548,0.37238877130015713
1549,-0.22513800279770285
1550,0.30980189058528723
1551,-0.2727550254095661
1552,-0.0883500706570717
1553,0.022706956920543895
1554,-0.5625594294891783
1555,-0.21586343285867837
1556,0.42265311190190263
1557,0.273519774979663
1558,0.5350152552356815
1559,0.2596119464919847
1560,0.018756564106282965
1561,0.5368050477772741
1562,0.45034194583215825
1563,0.11275989928347077
1564,0.12623622455878247
1565,0.7219434025187406
1566,-0.31231636188486755
1567,0.32305567422451154
1568,0.7217204980828756
1569,0.317236701325679
1570,0.5078943453822871
1571,0.12879467207822468
1572,0.41016141945296647
1573,-0.31682628477699326
1574,-0.004250454491950922
1575,0.013829306819152749
1576,-0.29829853423007313
1577,0.04299712826118412
1578,-0.29522601175847607
1579,0.2084696472431037
1580,-0.8480866839140858
1581,0.08619726448565809
1582,0.11133475590098224
1583,-0.1960525538995335
1584,-0.6188560143607157
1585,-0.22242612590263056
1586,-0.23610336860313783
1587,0.16412117681060734
1588,0.023012395164504037
1589,-0.0074061482340613
1590,0.2881955851441848
1591,0.0025655415627746764
1592,0.9451579422605708
1593,0.37545146151235503
1594,-0.056620398237375164
1595,-0.3221088117926397
1596,-0.056717740185651414
1597,-0.9059151582903009
1598,-0.011473060690863974
1599,-0.08353521472802287
1600,0.48060433234172395
1601,-0.3284358996996527
1602,0.23147750201431508
1603,0.09753677274118944
1604,-0.10594761967508869
1605,0.2395471081701717
1606,-0.35505084728437936
1607,-0.5538841104234632
1608,-0.005939953350954365
1609,-0.41728464249460584
1610,-0.25958818180406373
1611,-0.04423079408354329
1612,-0.06736633859645033
1613,0.5045894378084724
1614,-0.42851232700281633
1615,0.12791753400156056
1616,0.05159325737987262
1617,0.10953508416037872
1618,0.48033937724220677
1619,-0.030228709097094235
1620,-0.04052579521159353
1621,-0.33439221008552344
1622,0.06712297208322807
1623,0.8891028119011929
1624,-0.3139291563179337
1625,-0.07700675015007966
1626,-0.44270530020974064
1627,-0.416972281469305
1628,-0.030215600691430297
1629,-0.06352043632127864
1630,-0.17367737325305155
1631,-0.31760577567791826
1632,-0.23144600980791008
1633,-0.684676546721317
1634,-0.636848986138072
1635,0.5062067993535493
1636,-0.09542383832694136
1637,-0.05230395280836805
1638,-0.06986408162357251
1639,-0.11688395341537505
1640,-0.2799667306604306
1641,-0.17892412952291845
1642,0.34649679974505526
1643,-0.9032240237732042
1644,0.09846356522026496
1645,0.3168095111778226
1646,-0.35181392300454234
1647,-0.9953670338024388
1648,-0.41647122086607963
1649,-0.14415745353334594
1650,0.5113595784228567
1651,0.46602910382014046
1652,0.8367656662729694
1653,0.2199058576666241
1654,-0.10341068258356964
1655,-0.15593963660535348
1656,-0.3385918280254174
1657,0.3736874470356549
1658,-0.14040867765526102
1659,-0.0635794223130615
1660,-0.31117594157790124
1661,-0.3445444029459357
1662,-0.6756353625041809
1663,0.3100251981214387
1664,0.5023284697217105
1665,-0.4856436227451766
1666,-0.005769936392507008
1667,-0.6338409701528791
1668,0.13332660079123138
1669,0.2851052424597928
1670,0.16048902059477366
1671,0.010983725565352641
1672,0.5970408542408661
1673,-0.33399669022396544
1674,-0.5625832299609901
1675,-0.3291682319632115
1676,-0.2526956514297693
1677,0.14790819054379883
1678,0.28853222226941305
1679,0.6966309903289666
1680,0.1827818432398003
1681,0.4220627080791973
1682,-0.10416697719506122
1683,0.14459669996283536
1684,0.48444127075820864
1685,-0.49181310074163614
1686,-0.2195705655505757
1687,-0.7365153893188905
1688,0.3891643241201546
1689,-0.14276512864679705
1690,-0.4095367549783685
1691,0.16859086938512935
1692,0.42824572510412073
1693,0.18628440557803053
1694,0.10422230264646605
1695,-0.22102373609933396
1696,-0.37838255799272574
1697,0.2363591953827883
1698,-0.07456936513753196
1699,-0.42720477117206973
1700,-0.736257640081186
1701,-0.018392424622408247
1702,0.16259979501096816
1703,-0.43359121131214606
1704,-0.6050055664617279
1705,-0.5350098453828102
1706,-0.38045871261180675
1707,0.13421172297852693
1708,0.2690275778526919
1709,0.09657887196478544
1710,-0.0725802404184571
1711,0.1425614406558214
1712,0.05312150675427345
1713,0.1816753154685221
1714,0.5669945210703706
1715,-0.1427102837746721
1716,-0.436067824245256
1717,0.36510820612080064
1718,-0.7779513214697258
1719,0.2181992774905088
1720,0.3781711201634866
1721,-0.3248891845151725
1722,-0.15617009349887756
1723,-0.1046453562187141
1724,0.26423230624244326
1725,-0.35149977425269074
1726,-0.16446884159186145
1727,0.18240352078982813
1728,-0.02348686893371315
1729,-0.4449608691827501
1730,-0.4247498569907637
1731,-0.0014750732664168553
1732,0.47996208467205326
1733,-0.06334968628430165
1734,0.6243340304672184
1735,0.0010611246251410183
1736,-0.1129895031059706
1737,1.057854752793107
1738,0.14229445083795814
1739,0.20579289963561812
1740,-0.26134388631418787
1741,0.5573310366933759
1742,0.03789336974335405
1743,-0.046843241394373104
1744,0.2374608144990694
1745,-0.7062648216930667
1746,0.38355586525645846
1747,-0.15932556710900306
1748,-0.2657575189858392
1749,0.32008437496119113
1750,1.0479140751308804
1751,-0.4296677911427965
1752,-0.3578652725537718
1753,0.46086151417137766
1754,-0.18040356573449431
1755,-0.06630958308643067
1756,0.47261335244165364
1757,-0.15685976833702944
1758,0.4668130379790967
1759,-0.7167892813411628
1760,0.043408357147984786
1761,0.12309253125600272
1762,-0.14475096555245778
1763,0.05796034345386008
1764,0.09375818616001431
1765,-0.37854022795292513
1766,-0.13294914317782103
1767,-0.14985012163012232
1768,-0.7582596994921844
1769,0.004437986255434799
1770,-0.3344404474556019
1771,-0.080059572839264
1772,-0.18217259929324767
1773,0.17340111101396005
1774,-0.757102929224841
1775,0.11296894108860356
1776,-0.25136981091565075
1777,0.29009211108119776
1778,0.654154316633701
1779,-0.02298357506026083
1780,-0.4935112953808601
1781,-0.0443303519035629
1782,0.3793393479225178
1783,0.4379184212450214
1784,-0.18010541958297022
1785,-0.030227141508618858
1786,-0.5161098030470445
1787,0.17917191905767058
1788,0.2918431988852885
1789,-0.2894954055100535
1790,0.2599145515096945
1791,0.2004238576359054
1792,-0.05596123015063165
1793,-0.2482753684121686
1794,0.7011968790502452
1795,-0.019276075945969966
1796,-0.44434598258834235
1797,0.48504009014789173
1798,-1.0083048427733636
1799,-0.8092217588919145
1800,-0.8567387124097801
1801,-0.030764224018766627
1802,0.12231062539375213
1803,0.16400416212160607
1804,0.1150613464294391
1805,-0.12366481235719883
1806,0.11910470686128696
1807,0.3936746771310338
1808,-0.7466761696121244
1809,0.18765846138796557
1810,-0.408829281138374
1811,0.16395422299914642
1812,-0.11505727591983018
1813,0.0635283398284887
1814,0.29268077403774484
1815,-0.4081390066186179
1816,-0.2667768112830221
1817,-0.1481378212934961
1818,0.16023969921888148
1819,-0.40887360259630384
1820,-0.45236039260195376
1821,-0.4117036713524611
1822,-0.53145691715332
1823,0.13071492999437215
1824,0.1392868016671698
1825,0.3566103880505511
1826,0.10440160991995107
1827,0.821669431458908
1828,0.050096052395724025
1829,0.06930634375158551
1830,0.2854778325658894
1831,0.14520767801184853
1832,0.09295020300402822
1833,-1.3250744398552208
1834,-0.3320811156506962
1835,0.12171141262103082
1836,0.07484811697469063
1837,-0.3840260712600333
1838,-0.47009601137727886
1839,-0.2455502662147645
1840,0.8658122908536418
1841,-0.36618314859515194
1842,0.0508921323428638
1843,0.6393252302284206
1844,0.8781268188384388
1845,-0.3591207862244281
1846,-0.3202272053915385
1847,-0.046302390706310634
1848,0.08376352144805532
1849,0.2450134836740889
1850,0.01570962667625599
1851,-0.5107543713188288
1852,-0.4698834839350364
1853,0.9528560556305816
1854,0.2654082105868329
1855,0.6220047609853642
1856,0.2829889110827305
1857,0.5068441349837454
1858,0.04626337498043549
1859,-0.1613687157443778
1860,0.5173420239250225
1861,0.057606348508861926
1862,0.32998717951236467
1863,0.2206497642710934
1864,-0.5029932110150127
1865,0.803768776934945
1866,0.2544731933953786
1867,-0.7228707640267668
1868,0.28983554139509243
1869,0.6696857233965597
1870,-0.14243746792787343
1871,-0.365490328145389
1872,0.23449808160700755
1873,0.40382740207130363
1874,-0.2797933690776891
1875,0.0611646690755044
1876,-0.5995453134673957
1877,0.6684844181926509
1878,0.2806603153916699
1879,0.1330302041261288
1880,-0.6683678951446881
1881,0.12898998028921968
1882,-0.49548727027692224
1883,-0.19621811136119363
1884,-0.6481649357227952
1885,0.43742335724904463
1886,0.11504177613177308
1887,0.43467007563165827
1888,0.5487595026439449
1889,-0.46244854732326746
1890,-0.5803099879008758
1891,-0.2528804966269627
1892,0.0046579842048818446
1893,0.25286329567694227
1894,-0.41496527701988445
1895,0.24780528578610164
1896,-0.6995863389952884
1897,-0.06487727281755296
1898,0.1891812794511547
1899,-0.7911640540957083
1900,0.6403309006536076
1901,0.08402442960718029
1902,0.31432156911973025
1903,0.3169001101706102
1904,0.34965241987927875
1905,0.38549541852620245
1906,0.49858738698430977
1907,0.13767416256956908
1908,-0.2208894034493096
1909,0.062123913362908026
1910,1.3305741264011461
1911,-0.7376264043843122
1912,-0.3548310345967083
1913,-0.7740285067153162
1914,0.39594191610632773
1915,-0.2186319257527649
1916,0.2942634582232063
1917,0.0829255001654202
1918,0.5725474521731713
1919,-0.3314124534351595
1920,0.1638733223465883
1921,-0.6404720512365683
1922,0.2152715760778577
1923,-0.12832189677939085
1924,0.3087719378032029
1925,-0.42646255917406267
1926,0.12593926710947648
1927,0.11489690199400229
1928,0.08339796410243785
1929,-0.5269402287272894
1930,-0.023363472408336913
1931,-0.6245557375887866
1932,0.5800101095312469
1933,-0.3734374713432058
1934,-0.028818436593246493
1935,-0.3630377557907223
1936,-0.6588590664183407
1937,0.12039833939550604
1938,-0.32588968002567414
1939,0.9032331373459996
1940,-0.043130316694538706
1941,-0.10431607707854779
1942,-0.2630507349042667
1943,-0.22630108901390142
1944,0.12305570607900192
1945,-0.4231933996671651
1946,-0.06358156516896765
1947,-0.3279040448217875
1948,0.24919334068159113
1949,0.26969256395592967
1950,0.580952729965376
1951,-0.09465401122822671
1952,-0.2575688677534842
1953,-0.4639031360445139
1954,0.4730539977577768
1955,-0.37420907648921664
1956,0.19843503392153664
1957,-0.29231904139340664
1958,0.19131879779080474
1959,-0.056674376231116375
1960,-0.20099756271530564
1961,0.5548996513636818
1962,-0.20077701639139878
1963,-0.3786152980057993
1964,-0.3959516334668834
1965,-1.0106870496202691
1966,0.46400796540108913
1967,-0.7120514477022881
1968,0.2498536354932812
1969,0.4667435360019479
1970,0.1859196870951016
1971,0.020705912988660622
1972,0.31606393814796563
1973,0.19189010181749128
1974,-0.07762896731978891
1975,-0.09321139662094095
1976,0.3835778629607269
1977,-0.035787571389143485
1978,0.032182040328934
1979,-0.5812348298121554
1980,0.12254058495892887
1981,0.599784714936196
1982,0.64291380721538
1983,-0.033467668948715314
1984,0.04398756268237466
1985,0.31359548563072337
1986,-0.23783961754843086
1987,0.030872378886307852
1988,-0.4141499112612717
1989,-0.23007613322640671
1990,0.2925225798701265
1991,-0.29007641599068956
1992,0.8701403075278932
1993,0.18553710224134834
1994,0.5781939142956669
1995,0.23920323874175042
1996,-0.2947959220166863
1997,0.9804487336439444
1998,0.45902582452310464
1999,0.235081210826197
2000,-0.17487987046985767
2001,-0.19263416336319578
2002,-0.7239306183688331
2003,-0.5483386051477893
2004,-0.2056284131180904
2005,0.9486886042288446
2006,0.09506033510571063
2007,-0.11176618663460956
2008,0.33444126822731945
2009,-0.08332249482507996
2010,-0.09644746131428591
2011,0.14447756916431992
2012,-0.39516447099013924
2013,-0.06858090542919504
2014,-0.011248439410010741
2015,0.4243600250060995
2016,0.7098357615110286
2017,0.11639018615250822
2018,0.2752793774095045
2019,0.01277894875851906
2020,0.3395151338105647
2021,-0.04456899999784381
2022,0.08379868330777854
2023,-0.2715381522446844
2024,0.8340974109628638
2025,0.9213710241803795
2026,0.21864812063319522
2027,-0.07086057306364885
2028,-0.31317362223711914
2029,-0.16894151524302103
2030,-0.279688929004652
2031,-0.1218590201925435
2032,0.04634360496158239
2033,-0.651093470045793
2034,-0.2912271875885667
2035,-0.39345981376745665
2036,-0.2890193006027091
2037,-0.6633079749091304
2038,0.7167476828132593
2039,0.09742737761239306
2040,-0.210996894020973
2041,0.38662553102941133
2042,-0.06893160020478983
2043,0.2782464313301646
2044,0.4883830383934335
2045,-0.20535279192383046
2046,-0.3164051725531776
2047,-0.4687380215358138
2048,-0.1649518254828687
2049,-0.2510309710628902
2050,-0.6842652007170605
2051,0.21027388880360315
2052,1.0182153410787846
2053,-0.4246671300300164
2054,0.23393763149944907
2055,-0.3302880703521413
2056,-0.009547334244386302
2057,-0.29402115679060065
2058,-0.6216139296320196
2059,-0.18209679391340725
2060,0.287893858693655
2061,0.34601272941212646
2062,0.2275919085232576
2063,-0.545754745488752
2064,0.38967503705629436
2065,-0.511953153111943
2066,0.23033956801086422
2067,-0.8942831914798823
2068,0.49471852108379455
2069,0.02494444673682594
2070,0.1896293125843856
2071,-0.34174857616364474
2072,-0.27027882471676545
2073,-0.011331793832431405
2074,0.41600255931267277
2075,0.18285127912309632
2076,-0.06180126476966659
2077,0.18448941973835367
2078,-0.4394710316357439
2079,-0.3216756228007604
2080,-0.5995609006455904
2081,0.6348514741260003
2082,0.1644144790661051
2083,-0.3809456668136069
2084,-0.585511800221465
2085,-0.5350765372568893
2086,-0.01714665250192035
2087,0.026060280665583066
2088,0.41848105008218706
2089,-0.07027230858515295
2090,-0.2502290985115031
2091,0.5222899138772871
2092,-0.20745873066070503
2093,-0.03747948662986577
2094,0.06351235886728483
2095,-0.42035842549767344
2096,0.22937784665149016
2097,0.9558459170004735
2098,-0.2921467869954518
2099,0.10649571877043483
2100,0.11169460992299535
2101,-0.2999869295793776
2102,-0.5789552782539772
2103,0.5078650295185655
2104,0.24329624568291627
2105,0.19457801564786883
2106,0.054392790398902706
2107,0.4719530235957192
2108,-0.15021546755170714
2109,-0.0807031445657741
2110,0.6992477953514156
2111,-0.6561375569178678
2112,-0.029093050828315908
2113,-0.14768508198429744
2114,0.027356697544619595
2115,-0.2887384238271138
2116,0.21152162101830752
2117,0.1108209643281087
2118,0.3668113874237769
2119,-0.5278816448911878
2120,-0.012637306817094586
2121,0.590002976509812
2122,0.1255263724639275
2123,0.3429903669489548
2124,0.2028204133396197
2125,0.05238775040430527
2126,-0.015572575455914806
2127,-0.9883183946826926
2128,-0.4382105459866481
2129,-0.16035205305610184
2130,0.10129145840308286
2131,-0.2571589266199644
2132,-0.6500906028643816
2133,-0.17566860868853634
2134,0.26606852656310753
2135,-0.2442750974031318
2136,-0.3411750484689988
2137,-0.3416188181344371
2138,-0.3395284830805893
2139,0.13846496572231887
2140,-0.29974111383295093
2141,-0.10161873648381423
2142,-0.0004990513153024668
2143,0.06597428001732175
2144,-0.022538182662069833
2145,-0.7033338488680682
2146,0.4519152360120473
2147,-0.2521801522702156
2148,-0.06095233354086084
2149,0.25135978795552205
2150,0.12796519641104928
2151,-0.13776156954950158
2152,0.44889210525126055
2153,-0.44293451856023397
2154,0.160021296705747
2155,0.8297105438839165
2156,-0.3568531636300582
2157,0.34461189186855584
2158,0.554883270522403
2159,0.39295982435646437
2160,0.0632493793967595
2161,-0.18990668231563837
2162,0.42146515947326835
2163,-0.17897345217108426
2164,-0.7349748488074959
2165,0.03379110156096557
2166,-0.5962333199652009
2167,0.7287984593002443
2168,0.6661629575683216
2169,0.468911895587493
2170,0.4745166004622566
2171,0.24356657953079885
2172,0.021945233313163493
2173,-0.24214345278093852
2174,-0.25260179830439144
2175,-0.40323377471489324
2176,-0.5121761229724313
2177,0.31025560355398013
2178,-0.7361213260479098
2179,0.11092623534086087
2180,0.04649979280225178
2181,-0.08337575634055182
2182,-0.2969943328328241
2183,-0.1778224436383553
2184,0.5809507245064947
2185,0.19468636414699877
2186,0.6839275192917545
2187,-0.11278346428407716
2188,-0.1331897194847534
2189,0.05092909218112995
2190,-0.7867392666365356
2191,-0.5254849598742541
2192,-0.3216214530798044
2193,0.2979379024992705
2194,0.3556087161897923
2195,-0.25276402524346125
2196,-0.2753158681407626
2197,0.3695109921327813
2198,0.12547121095140348
2199,-0.26227268841552115
2200,-0.028415033939287265
2201,-0.43682042867707577
2202,0.7221832867531969
2203,0.9159509040736487
2204,0.20112516880283562
2205,0.10332036277296844
2206,0.35289138479121307
2207,0.028745649992684207
2208,0.054452855143249955
2209,-0.08683043152710632
2210,-0.8506527048471821
2211,-0.22797546759923096
2212,-0.3435119160281808
2213,-0.37577623310348207
2214,0.1628955307778914
2215,-0.3664660850994022
2216,0.05744239517496149
2217,0.4792950698502979
2218,-0.35592416711994435
2219,0.14897560842455307
2220,0.1388061828148485
2221,0.23875524335399964
2222,0.19302898414810532
2223,0.11751554033600077
2224,-0.13122087136401267
2225,-0.07653594412511205
2226,-0.11354847753130236
2227,-0.44895111026210244
2228,0.5298125995899493
2229,-0.018249705750795098
2230,0.41153861282568327
2231,0.17299834546800716
2232,-0.3443620350775729
2233,-0.8025839626336955
2234,-0.23777187050285614
2235,0.18699975259764584
2236,-0.09437557337094596
2237,-0.016185672099314378
2238,-0.12928382556048848
2239,0.21942250333730026
2240,-0.7017020843202452
2241,-0.3611270272492561
2242,0.7542533796455245
2243,-0.5910302863179484
2244,0.02419324554682014
2245,0.9826986583504511
2246,0.6358218858412039
2247,-0.0830234125077225
2248,0.05269168928385755
2249,-0.22298423333185935
2250,0.13216582712712246
2251,-0.5941259561592961
2252,-0.1646744896549934
2253,-0.07122131519096513
2254,0.5076807500904944
2255,-0.3040013579424178
2256,0.08539766994542036
2257,-0.1756987512558907
2258,-0.24872660977805083
2259,0.3843889042744887
2260,0.015097568725304
2261,0.7408823540002277
2262,0.034471999528778
2263,-0.1950702720572418
2264,0.046053896639614254
2265,0.39506758838369427
2266,0.9985151451958351
2267,-0.604308230161391
2268,0.027842375207780354
2269,0.25664996031808834
2270,-0.14533888725170996
2271,-0.11039767635426943
2272,-0.1295710852005292
2273,-0.004710226881778154
2274,0.1603648156643942
2275,0.21146609559956436
2276,0.05842550239354299
2277,0.08351039497422083
2278,0.43020984074147806
2279,-0.4258391738647456
2280,-0.4801159951141633
2281,0.12610044953467223
2282,-0.45608154854785515
2283,-0.06063954170732819
2284,0.7278981381126896
2285,0.1065222640308332
2286,0.3096355455748162
2287,-0.3313976312391945
2288,-0.5563659263494017
2289,0.27602149776502033
2290,0.4282117817586911
2291,-0.44841348631239625
2292,-0.23551336017583033
2293,0.3615630665692472
2294,-0.12239859383399013
2295,-0.2687233264181801
2296,-0.15181586819767262
2297,-0.21328788989919145
2298,-0.49800778540599233
2299,0.11926197686647944
2300,-0.31322540049591446
2301,0.09229651686903924
2302,-0.22977087704465976
2303,0.00901209000112172
2304,1.0077075140632896
2305,0.7300089173748192
2306,0.29210389762191147
2307,0.613162369054627
2308,-0.10248642807073179
2309,0.10155912580838372
2310,0.3685111410501008
2311,-0.30063738479090785
2312,-0.11069484212152832
2313,-0.0980651212339013
2314,0.2520196839139624
2315,-0.9674878162127468
2316,0.18705675970018812
2317,-1.0953870652490791
2318,0.35499022067273817
2319,-0.20909464760165866
2320,0.48530575726232617
2321,0.4396141758740101
2322,0.3600643045659004
2323,0.1679275613620186
2324,0.3935812204242295
2325,-0.36422151625539584
2326,-0.4149689000529854
2327,0.2212227446473662
2328,0.05871638750370704
2329,0.7953130832589862
2330,-0.012482763859218744
2331,0.1508767727341589
2332,0.06780078741382968
2333,0.2875578726277553
2334,-0.4776480362670579
2335,-0.3565284436354062
2336,0.07530267056428348
2337,0.04505955121647397
2338,0.02322901257512988
2339,0.42821357250650005
2340,-0.13860099724861155
2341,-0.17059306268924385
2342,0.8975607019703298
2343,0.09627382236560048
2344,0.41709554368707197
2345,0.0496137693766198
2346,0.7336522070332904
2347,-0.23265161924138789
2348,-0.22867901344176392
2349,0.492100993657658
2350,-0.30815903511823034
2351,-0.34555898587413625
2352,0.26255167688570213
2353,-0.08298360655080599
2354,-0.10893166215541703
2355,-0.1159514262417867
2356,0.14922730347964794
2357,-0.24447822961543017
2358,-0.023149306378989813
2359,-0.009927410536585893
2360,0.2533600274794511
2361,0.4794181467730809
2362,-0.005449639494901579
2363,0.362566712240179
2364,-0.5417074802149118
2365,-0.3563191366804143
2366,-0.07391059236959693
2367,-0.016066633548010897
2368,0.6203447969050669
2369,-0.3094950218674101
2370,-0.07366836801598417
2371,0.5712750417381375
2372,-0.07782507993896591
2373,-0.291561115209369
2374,0.3169102393541247
2375,-0.034688410067318945
2376,-0.4064568992995474
2377,0.14347960591727132
2378,0.14319894510839756
2379,0.6233063363757874
2380,0.32979567508652585
2381,-0.3906227703659807
2382,0.6988086614267034
2383,-0.6782690226995068
2384,0.3474515063565538
2385,-0.16299054235830326
2386,-0.264734825115351
2387,0.5294905433568575
2388,0.18871879557379664
2389,0.6355293644545547
2390,0.31669510197802825
2391,0.12458413998668329
2392,-0.22223462680673375
2393,-0.30014989898946154
2394,-0.2980210130010968
2395,0.5786457076732434
2396,-0.334519320735657
2397,0.0585857164887006
2398,-0.22679570381259265
2399,-0.11033742380507168
2400,0.3639959366573355
2401,-0.3495863570308844
2402,0.1843919192168354
2403,0.5225246576492749
2404,-0.0117070081251903
2405,0.14189660044085609
2406,-0.2498043975059371
2407,-0.09951987910851677
2408,0.32550472147036974
2409,0.14708245708572018
2410,0.18376371510996653
2411,-0.1012722224766067
2412,0.3298058645646102
2413,-0.5865064520580592
2414,0.14495966665356289
2415,-0.22130210407310377
2416,-0.5400063399631215
2417,0.09415534146909509
2418,0.5174519495301937
2419,0.21012771845842573
2420,0.43467198560857817
2421,0.16751568949038295
2422,0.07301710310691965
2423,0.23581127784100328
2424,-0.36859897239490874
2425,0.5650892845157346
2426,-0.2731747623578038
2427,-0.2111838860615246
2428,0.09496637681172705
2429,-0.189903280135353
2430,-0.4773251154183751
2431,0.4291667509658375
2432,-0.6320992579314382
2433,0.07826647018830914
2434,-0.2030116073412729
2435,0.5982848775984784
2436,-0.3683663121021406
2437,0.3185202721147225
2438,0.35148156609862313
2439,-0.2317074086260919
2440,0.21040039106085617
2441,-0.7815387756980963
2442,0.2816818440816788
2443,0.15417706724530747
2444,-0.19022361876024743
2445,0.3648157357583102
2446,0.531843108348182
2447,0.17121269149033008
2448,-0.5098435048894726
2449,-0.04152575962766856
2450,-0.3554855171238467
2451,0.03654564799100458
2452,-0.23071528677870198
2453,-0.0206955455715659
2454,-0.923138193183123
2455,-0.6078238285661492
2456,0.3555542983213359
2457,0.21475106266904637
2458,-0.6963918488617397
2459,0.26758680360281806
2460,-0.17186740731057057
2461,-0.16526244033090312
2462,-0.19909723407936744
2463,0.8391812155711619
2464,-0.5878746376961892
2465,0.8658332071894872
2466,0.2372422256639604
2467,-0.3176512133534192
2468,0.24122027227878232
2469,0.4247141808451794
2470,0.16037800740807578
2471,0.3562829674892324
2472,-0.19289957609995464
2473,0.0803240968767378
2474,0.03638826040137351
2475,-0.2327002183507145
2476,0.15280057945930461
2477,-0.005620785148534846
2478,0.35852504110969036
2479,0.19761831863377569
2480,-0.8408017150185896
2481,-1.2887708087928376
2482,-0.026880385483315488
2483,-0.08184711265836149
2484,-0.5162931613923316
2485,-0.1291216444234298
2486,0.5493174810399366
2487,-0.5934037859094452
2488,0.27201519888433656
2489,0.17866023534522826
2490,0.0019313858089390636
2491,0.3037516447875748
2492,0.11348372686103327
2493,0.30135786427819417
2494,-0.8066925085292277
2495,0.34467302045149517
2496,0.5178545444174791
2497,0.27613766524733624
2498,-0.3764875487097394
2499,-0.22957539434994478
2500,0.7857952108370049
2501,-0.9452196707526
2502,-0.09023807720727531
2503,0.6999641447852957
2504,0.3802511783077187
2505,-0.16935389830539319
2506,-0.3915837479932002
2507,0.26424393866670925
2508,-0.11694160761119857
2509,0.005786983686203224
2510,-0.6357523002961148
2511,-0.6184767132323641
2512,0.5278428981657954
2513,-1.0524526439084279
2514,0.7676666414085618
2515,0.25667193370599556
2516,0.1820702882793653
2517,-0.10068705652142686
2518,0.2855194304630531
2519,-0.4596703133193618
2520,-0.012304993871394077
2521,-0.07510080881107324
2522,0.048935870940566874
2523,0.4597913369959316
2524,-0.4564373333641304
2525,0.7182880675853957
2526,0.4633272447049702
2527,-0.25278066027097373
2528,0.8333125719947809
2529,-0.2756588189817135
2530,0.03737798576668191
2531,0.8138894254776153
2532,0.14331633962072418
2533,0.1361590413272074
2534,-0.35728370695883577
2535,0.4969375121383769
2536,0.16223993324344724
2537,-0.7113853676234306
2538,-0.1113068228476235
2539,0.3905301438876977
2540,-0.6337978047204584
2541,-0.14771450359637914
2542,0.5106090197597662
2543,0.5959849902370569
2544,0.24913363533577032
2545,0.16575830439847317
2546,-0.22871170525999981
2547,0.0432714468822579
2548,0.4305771470724192
2549,0.6881427130289214
2550,0.3081558260579242
2551,-0.25946936366645934
2552,0.3323417463949156
2553,0.3578685569567347
2554,-0.09771611570257137
2555,-0.2812741880503077
2556,0.4728720781683066
2557,-0.07239611363090544
2558,-0.3409877803482525
2559,-0.02974587939543545
2560,-0.16387595343470712
2561,-0.42005804988242823
2562,0.27817694128329834
2563,0.3548327787408277
2564,-0.7080165184167915
2565,0.392337064117715
2566,-0.3700209366919933
2567,-0.08758374082590485
2568,0.4889251772179389
2569,-0.5372101511797585
2570,0.17871792353217078
2571,0.3143992112650108
2572,-0.4665083424838721
2573,-0.23559153588783793
2574,0.3441466973023915
2575,0.2080828880365223
2576,-0.6318912511302754
2577,-0.0019116833686181186
2578,-0.6446170407348717
2579,-0.027802180735439243
2580,-0.26531287354051913
2581,-0.6708453610842295
2582,-0.5588117078827812
2583,0.24747974340268802
2584,0.026374284460590085
2585,-0.7269675426907897
2586,-0.5139639471379115
2587,-0.2690481583896319
2588,-0.04353494663460599
2589,-0.12276538928175809
2590,-0.24399348915740066
2591,-0.31068519668002953
2592,-0.5443595617678988
2593,-0.3228882638730539
2594,-0.14349292026851332
2595,0.789323867871308
2596,-0.22811374564365125
2597,-0.07657348786870706
2598,0.05207093558318262
2599,0.4295836083584182
2600,-0.271137448742085
2601,0.007286103306958738
2602,-0.05057696152985051
2603,0.061407602123939704
2604,0.5236156512483654
2605,-0.32053578740426175
2606,-0.5673145309228924
2607,0.23806980350535925
2608,-0.2926645205661954
2609,0.39917142465977007
2610,-0.23135376797968868
2611,-0.05713784375367389
2612,-0.42634452248821536
2613,-0.3584636877988623
2614,0.4155101772726341
2615,0.5148303577304675
2616,0.07507826826999055
2617,0.1685054874924565
2618,-0.3177867028653357
2619,0.5259531907712747
2620,0.04219154540127995
2621,0.12670523277711776
2622,-0.49557566729977515
2623,0.7388556919272256
2624,-0.09416855078216363
2625,0.10649582869529878
2626,0.8813069905611708
2627,0.17659418084111939
2628,-0.17845514381635574
2629,-0.3548415085082759
2630,0.34314782385797654
2631,-0.4781970894317051
2632,0.11291199431572842
2633,-0.09116909308556023
2634,-0.15417126488098284
2635,-0.5584984149136654
2636,0.12786555738675287
2637,0.9503911113546115
2638,0.04297425709290947
2639,-0.04657987539566561
2640,-0.31841605574698156
2641,-0.08032828985138642
2642,0.016742862593719734
2643,-0.26794289505936836
2644,-0.19596434372504518
2645,0.6012694361030224
2646,0.26934391248540984
2647,0.05613484359931634
2648,0.11018192504653328
2649,0.6583776962539554
2650,0.6206879571425802
2651,-0.1746776576836306
2652,-0.5034683640016127
2653,0.052492754308558424
2654,0.5173560027284876
2655,-0.367487113408075
2656,0.5908275937702617
2657,0.37551189828432524
2658,-0.2023890800880003
2659,0.23542542807368758
2660,0.13444082037918548
2661,-0.13192119705004202
2662,0.3048888766700381
2663,0.6914730123290994
2664,0.5428564887244663
2665,-0.364078970926012
2666,0.61854073199956
2667,-0.6180656344373524
2668,-0.3961993543309484
2669,0.46947947226978265
2670,0.20681518731156562
2671,0.20624231659180886
2672,-0.36005836385177914
2673,-0.013347425455537243
2674,0.8760109304771915
2675,0.19716073094390332
2676,-0.24565039407385303
2677,-0.42896989193741014
2678,0.17808151354169574
2679,0.4357438992781371
2680,0.4140007920837126
2681,-0.08248880338248012
2682,0.33841338842477486
2683,0.2890241375657588
2684,0.3099382793278189
2685,-0.2454038149509813
2686,-0.5720737214429751
2687,-0.23660626640260765
2688,-0.218499959952965
2689,0.49230782095779285
2690,0.2253425200990509
2691,0.4502444102282487
2692,0.5035127145538792
2693,-0.4645584510838044
2694,-0.6577461616372058
2695,0.3898173643059446
2696,-0.15258220078939616
2697,0.1577249057530334
2698,0.03561697622112251
2699,0.619132664307022
2700,0.06282149591079812
2701,0.19234233588540503
2702,0.7239827298708682
2703,0.11893597451937686
2704,0.13026426439778316
2705,0.15957819135870166
2706,-0.45002095847208695
2707,-0.2802378597398825
2708,-0.03503707118778713
2709,0.5308283274480422
2710,-0.03788547783869392
2711,0.21835437982586287
2712,-0.20688015702082083
2713,-0.2694054436684855
2714,-0.15125251478551419
2715,-0.25338463661912497
2716,-0.3993989435693961
2717,-0.2949584461091867
2718,-0.4629339075474587
2719,0.16397969344096539
2720,-0.3158215101279305
2721,-0.036271189066276
2722,0.421314997292296
2723,0.18342292023105472
2724,0.23621263440567578
2725,0.11028263682643356
2726,-0.9692753978305696
2727,-0.13553853928535423
2728,1.100091862460564
2729,0.21872863423244074
2730,0.0018778501843789036
2731,0.6882704925347755
2732,0.3297186064601367
2733,-0.049374182503695775
2734,0.1428337234898494
2735,0.2888731466083313
2736,0.0646383498578687
2737,-0.05687098249557736
2738,0.5158431967887249
2739,-0.046235795827334066
2740,-0.6308586103538653
2741,-0.7532076203944271
2742,0.36949737577557956
2743,0.04457216038789476
2744,-0.3345050083106478
2745,-0.07341088955730488
2746,-0.28636161790162323
2747,-0.24922595244999882
2748,-0.5716673949154085
2749,-0.28769079323671165
2750,-0.20720574180502346
2751,0.22119682245611857
2752,-0.3647330327301021
2753,-0.036827136702410244
2754,-0.30763172648888315
2755,-0.5745421084294344
2756,0.4952805977850219
2757,-0.15136491447007688
2758,-0.4820808682747422
2759,0.16425227767690176
2760,-0.4051641731266086
2761,0.36893128949543147
2762,-0.28549505455723206
2763,0.21858382483081537
2764,0.30732697294503797
2765,0.06151159176421959
2766,-0.19314345085511986
2767,-0.32418299444098253
2768,0.4937945214107887
2769,0.5060852203825134
2770,0.3314737443863932
2771,-0.3683978909832506
2772,0.2502550485758617
2773,-0.37865394648869066
2774,0.691111033893714
2775,-0.532544534684314
2776,0.017279456943477167
2777,-0.0010569016010092247
2778,0.6348167456109095
2779,-0.09373660319438205
2780,0.5235456547090431
2781,-0.11283960975874306
2782,-1.1826164174504892
2783,0.2913117770221985
2784,-0.7071323481983726
2785,-0.0031898559436248464
2786,0.6080803696685179
2787,-0.5192899985203392
2788,-0.25608510827422437
2789,-0.33331244915453
2790,-0.19705496414289114
2791,0.6099119999282228
2792,-0.27494728006977465
2793,0.7017078973159641
2794,0.14399775320462677
2795,0.29659902826056594
2796,0.2373454480740969
2797,-0.6461321756429724
2798,0.4070532234266205
2799,0.23433519039726136
2800,0.2019689580793671
2801,-0.23438714157326399
2802,0.5974476012598879
2803,-0.22440016183947345
2804,-0.7285430506503586
2805,-0.15042698292267734
2806,0.1874571908753876
2807,-0.04363740141471472
2808,0.08669618172399988
2809,-0.2488979714826445
2810,-0.4222757605220578
2811,-0.17966252961863116
2812,-0.799689243186356
2813,0.7893482903416541
2814,0.12551301872054496
2815,-1.2786756087409499
2816,0.25797007374722525
2817,-0.3059882253863179
2818,-0.1286029833174832
2819,-0.30772126976220754
2820,0.3003711970041616
2821,0.03279939935204864
2822,-0.35389643748180516
2823,0.017754335942513737
2824,0.39998030700941284
2825,0.4138435299906796
2826,-0.4092587130230291
2827,0.8364973524088272
2828,0.31362114107469113
2829,0.23684056450296878
2830,0.13610077453302621
2831,0.6372028299101119
2832,-0.07790899085247821
2833,0.1469448194155359
2834,-0.37300035332753306
2835,-0.45441907516711055
2836,-0.29189890416399095
2837,-0.0819017382090472
2838,-0.20397967603254022
2839,-0.3681611902012122
2840,-0.5440080076315
2841,0.1278785246653145
2842,-0.33812601076918525
2843,-0.059272020634047295
2844,0.21965813880548105
2845,-0.18119210228974364
2846,-0.13025886871301937
2847,-0.328067174352681
2848,0.24496786600684092
2849,0.46155479684543943
2850,0.35397681600811887
2851,-0.005022095537708577
2852,0.06482719293700864
2853,0.7228571664935787
2854,-0.17488436274358354
2855,0.7519446709536778
2856,-0.32440162704376674
2857,0.1391189164639743
2858,0.2006281639568025
2859,-1.3133422199530238
2860,-0.3495894292171382
2861,0.31996853338101205
2862,-1.0310161091568903
2863,0.02931484131693277
2864,-0.2784374301174251
2865,-0.23127315372639734
2866,0.45873309478044894
2867,-0.5235823523332417
2868,-0.500711133309371
2869,-0.8917762339471117
2870,0.28925354160755606
2871,-0.0372467531432317
2872,-0.54382989301957
2873,-0.37519356886066996
2874,-0.12437827754502427
2875,0.43855700969394895
2876,0.27552808929926353
2877,0.5015144765573454
2878,1.1092074847423419
2879,0.020614937894891532
2880,0.513252132788682
2881,-0.05955536248694203
2882,0.36793364427569075
2883,0.3831013714472327
2884,0.4515963428446817
2885,0.9923096990283651
2886,-0.020636288263986804
2887,-0.4752174430218067
2888,-0.22014171202328556
2889,-0.9242450611598076
2890,-0.009458847524343825
2891,-0.3436956238959684
2892,0.5876091250614554
2893,0.2608195212109875
2894,0.4215523659634291
2895,0.07113086770249796
2896,-0.4063583589335622
2897,0.9476270908119511
2898,0.2548819698486924
2899,0.1041805660715525
2900,0.49018268797755243
2901,0.17610730187229012
2902,-0.14668593277266176
2903,0.6361452692539148
2904,-0.2766675487068628
2905,-0.27281381721312997
2906,0.41513559447946613
2907,0.4232433009973547
2908,-0.2731813403036846
2909,0.2109827875007776
2910,-0.953051178994663
2911,-0.33907912482935204
2912,0.8302671437734733
2913,-0.4595019990372065
2914,0.2440195695455983
2915,0.8453646142090516
2916,0.14588237805585894
2917,-0.15835222860210932
2918,0.26309733235839344
2919,0.1321946486005686
2920,0.13386193439204858
2921,0.6070173680595885
2922,0.21201874688361064
2923,-0.3760068507828159
2924,-0.2301785779706465
2925,0.43282128541725473
2926,-0.11087778945712493
2927,0.03232562893102572
2928,-0.9568237280045307
2929,-0.18514255343358027
2930,0.9040204253074631
2931,-0.3440844634299521
2932,-0.09812308172829001
2933,-0.2967799263207975
2934,0.08656932203996102
2935,-0.4406860096986623
2936,-0.255126252509083
2937,0.07585202017551483
2938,0.1043071711394509
2939,0.012099910722014402
2940,-0.2706923823329994
2941,-0.09176219122439846
2942,-0.190945023126921
2943,0.13597075502398595
2944,0.437744585981238
2945,0.2872544292927801
2946,-0.26646710713798055
2947,-0.12240068847464051
2948,0.8761462534928129
2949,0.4694707682712731
2950,-0.8010254337888414
2951,0.05542088072367824
2952,-0.45642311340605524
2953,0.1674768885872374
2954,0.6031436180342636
2955,0.1667552675784826
2956,0.17533396004410193
2957,0.014333668469525832
2958,-0.06214616044666589
2959,-0.7313092710610098
2960,0.16941240731764626
2961,0.11045530089988533
2962,-0.49228614270440274
2963,0.14397664640121488
2964,-0.0551940671445387
2965,0.27728267822416824
2966,1.043057814067445
2967,-0.22751176388829805
2968,-0.10054164941597729
2969,-0.7355764726529015
2970,-0.42699665740495546
2971,0.07625288698045644
2972,0.021885377720271652
2973,-0.43414503312396824
2974,-0.4508800087283003
2975,-0.42894420495461155
2976,-0.20070613348675942
2977,-0.4075222708558517
2978,-0.10614950200741916
2979,-0.3205331554283326
2980,-0.5112300145535373
2981,0.13331237475796673
2982,-0.026660699946891624
2983,-0.009615117384179438
2984,-0.0786577488502828
2985,-0.23475168702406418
2986,0.04578702539968625
2987,-0.016873975383716846
2988,0.8423312991967405
2989,-0.15547611567126038
2990,-0.3968449176299975
2991,-0.1853850142633905
2992,-0.33559003806755733
2993,0.5311217998384492
2994,-0.07699258734497783
2995,0.8579755535893862
2996,0.3500003745329182
2997,0.12446135506881095
2998,0.30353236523733995
2999,-0.01243244514514838
3000,0.6063902088640264
3001,0.036073144857522055
3002,-0.14324612060803504
3003,0.305284273075933
3004,-0.83214999392138
3005,0.17427536093808438
3006,-0.21875550382148817
3007,-0.15709024138256114
3008,-0.19810265300938668
3009,0.03157599618576817
3010,-0.7386946774142578
3011,-0.1809195928944476
3012,0.7513844581871881
3013,-0.2079240551644697
3014,0.14452741550826684
3015,0.25474530368633597
3016,0.49363282392089586
3017,-0.45040384006952855
3018,0.6345189894213226
3019,-0.33788390581020555
3020,0.6149025919383919
3021,0.01656154284672243
3022,-0.1542685228007214
3023,-0.07228129604500388
3024,0.10165997321098656
3025,-0.00862250470682303
3026,-0.827262940499767
3027,-0.25953369869326404
3028,0.8102482798270426
3029,-0.12297464410511566
3030,-0.08448871726190846
3031,0.04803321662924225
3032,0.21153378878482623
3033,0.24979506252611702
3034,0.4008334836354951
3035,0.02288622604443317
3036,-0.39788592942965434
3037,0.18447036454154148
3038,0.5044312922078422
3039,0.06449887445670367
3040,0.6091386686629505
3041,0.5020546291262028
3042,-0.1255954906192789
3043,0.5240174294589953
3044,-0.6479988085799553
3045,-0.3640184986550352
3046,0.2584479076558845
3047,0.5445557586900038
3048,0.043358294225922814
3049,0.2617682578141843
3050,-0.09027241430331974
3051,-0.4504290945338233
3052,-0.6891579869699385
3053,-0.6671870081438711
3054,0.29933544291231223
3055,0.16802196762478247
3056,-0.0031339968088565555
3057,-0.1384100234931418
3058,-0.051410205395812175
3059,0.24171728635986484
3060,0.7216608814325526
3061,-0.2777932540890905
3062,-0.4931142803153255
3063,-0.58731890137053
3064,-0.018805413243924714
3065,0.16734455451686764
3066,-0.03738552565285819
3067,0.4901201834805109
3068,0.26767455254800265
3069,-0.12314898016305811
3070,0.1760930216482727
3071,-0.18442092198484233
3072,1.0691752644203607
3073,0.01805006068798586
3074,-0.24787273114927696
3075,-0.7157621172259561
3076,-0.04255249968400752
3077,-0.8792697574084801
3078,-0.20468779731597148
3079,-0.3205213708968026
3080,-0.09360794536736054
3081,0.7036896931133698
3082,0.7817358360918762
3083,-0.1718624762284556
3084,-0.8071305147995728
3085,-0.529591031893328
3086,-0.10144229196232332
3087,0.24959950505675882
3088,-0.20282112453327003
3089,0.08422098921482456
3090,-0.3910068144210368
3091,0.21104469382086025
3092,-0.13305669211261437
3093,-0.3397290368914187
3094,-0.2874101991152942
3095,-0.09845418740505782
3096,-0.7450886120203991
3097,0.39033739921389216
3098,0.30887599738037325
3099,0.037624728190271274
3100,-0.2817355050117534
3101,-0.23759598293085216
3102,0.15038602882051713
3103,-0.6367417681072916
3104,0.5050703098272721
3105,-0.14113337720266628
3106,-0.22853699652526005
3107,-0.38116423939081534
3108,-0.5911317641105875
3109,-0.05838461794258762
3110,-0.6600734646342373
3111,0.14780179915955488
3112,0.2743271024230099
3113,0.10742732922359235
3114,-0.10401967229081333
3115,-0.10833501575779644
3116,0.18080705407156092
3117,-0.236221344621172
3118,0.5078686070289672
3119,0.22639834437978426
3120,-0.5678061116019875
3121,-0.08962474483033477
3122,-0.8129215777860644
3123,0.203014075796859
3124,0.5043933062865085
3125,0.4085223642263311
3126,0.025117768646555218
3127,0.08310860335533299
3128,0.638312977916962
3129,-0.37738368356886304
3130,-0.5986205573504985
3131,-0.20665893100575955
3132,0.39553262749889384
3133,-0.35841876288143704
3134,0.4535083163117202
3135,-0.5477896991607057
3136,-0.44684585461249815
3137,-0.4341843043341872
3138,0.6935729985106851
3139,-0.15058598442198715
3140,0.5617016541668306
3141,-0.6308049566177091
3142,0.7552526378021021
3143,-0.04994987679939794
3144,-0.6418311655027968
3145,-0.8462355980758954
3146,0.341226678342251
3147,0.2525695603729409
3148,-0.19557252350525828
3149,-0.2344725294224157
3150,1.1423012055207395
3151,0.27819647418743343
3152,0.02938288873083452
3153,0.3255649827113229
3154,0.27828100506912506
3155,0.3465806959165204
3156,0.07227973636900652
3157,0.3675006948012574
3158,-0.7620681783853357
3159,0.33782960232948034
3160,-0.1213095581362308
3161,-0.5257319901120058
3162,0.1543937317926459
3163,0.31293996072215396
3164,0.9387912204275939
3165,0.2606705613837277
3166,-0.00029381124171746874
3167,-0.3066859707001807
3168,-0.38412932943847705
3169,-0.12722881523004487
3170,-0.16994458647661126
3171,-0.3858155896062154
3172,0.1867112865645214
3173,-0.13707076140237207
3174,-0.8147358709048788
3175,-0.09628956247613857
3176,0.014883533159854663
3177,-0.5997708091380771
3178,0.24791424024791886
3179,-0.707016470120481
3180,0.3598026507894283
3181,0.055291039075751766
3182,-0.312717870403339
3183,0.04431369164520206
3184,-0.359635438586365
3185,0.12828533354889834
3186,-0.5227467215918715
3187,0.2674687832477646
3188,-0.364239877297986
3189,0.23951258185117327
3190,-0.47629391456322984
3191,0.07208642311685362
3192,-0.17385342546076316
3193,-0.34613193876593984
3194,-0.27541692419878677
3195,-0.17798997377322667
3196,-0.6272074081985644
3197,-0.27678983953619374
3198,-0.08739849701956405
3199,0.036284681628774185
3200,0.7529931037465089
3201,-0.3587630039120224
3202,-0.3481677246287252
3203,-0.3319106884645895
3204,0.5125603912467828
3205,0.2387953924519636
3206,0.2750007319024033
3207,-0.1594542146770876
3208,0.6928892874284351
3209,0.2658408696170146
3210,0.9500565186931602
3211,0.6142578455296769
3212,0.017914806893688098
3213,0.2719434347074532
3214,-0.4073348443129066
3215,0.4918437918018191
3216,0.0715273731341479
3217,-0.3112787201233448
3218,-0.5462960262545798
3219,-0.5565051277406212
3220,-0.2653409048146307
3221,0.16626198878045895
3222,-0.14216375603621675
3223,-0.10355379865798646
3224,0.01829741885028999
3225,0.1376634662922033
3226,-0.6082657213598552
3227,-0.04580268097950393
3228,-0.6418928412579893
3229,0.2706787947375163
3230,0.38298697531098136
3231,0.061833035718763335
3232,-0.5500475186492566
3233,0.4335623061352477
3234,-0.3706907693252366
3235,0.2730683623766224
3236,-0.002585562852189633
3237,-0.5205418402779791
3238,-1.2134474723523119
3239,0.46956648260594197
3240,-0.41818232976675757
3241,-0.27535720195466407
3242,-0.3501194159361622
3243,-0.20420227070604102
3244,0.09553591021786244
3245,0.040344961754054234
3246,-0.3851606318626864
3247,-0.32290661501260504
3248,-0.27455973042315396
3249,0.23727894081298656
3250,0.7062147525609519
3251,-0.20566046275587424
3252,-0.04011414698751078
3253,-0.11299395834048902
3254,0.11736922718818275
3255,-0.2706136503567469
3256,-0.6300844927537437
3257,0.09493736998895853
3258,0.04127744755230329
3259,0.13262578432114075
3260,-0.042019501486937984
3261,-0.7003639465628072
3262,-0.16944120230526535
3263,0.7058718087343883
3264,0.32312460626040423
3265,-0.2330354993840859
3266,0.377895723553353
3267,0.2512933165687693
3268,0.2894196997261268
3269,-0.420511798333121
3270,-0.7238780742715215
3271,0.12397685505774145
3272,-0.0666286466286464
3273,0.6199472772842188
3274,0.30277892750573676
3275,0.7332590578797861
3276,0.6570718253011942
3277,-0.4414617132014458
3278,0.1681632357674505
3279,0.34534981735724696
3280,0.15652577656091904
3281,0.10987559687498186
3282,-0.01002501115406748
3283,-0.6227875826126942
3284,0.3020421330168231
3285,0.1138553015525488
3286,-0.4570438189805789
3287,-0.14572443639415836
3288,-0.2033284813364694
3289,-0.41184303757574137
3290,1.1870354309395905
3291,0.7216293272048879
3292,0.19079053375078997
3293,-0.14241804223897211
3294,-0.48370527801309554
3295,0.4816319333931675
3296,0.24207728755481095
3297,-0.34907553430150806
3298,0.03559496457991734
3299,0.6014922483465562
3300,0.8171842439549929
3301,-0.39537520773004814
3302,-0.8528581527554799
3303,-0.8672110863654079
3304,-0.048275542952553915
3305,0.06006842023819113
3306,0.3845902744588648
3307,0.4441993474603106
3308,-0.2086309564146682
3309,-0.3116307145238067
3310,-0.5035317524052666
3311,-0.09173640282683958
3312,0.11488973133860324
3313,-0.33684719299518107
3314,0.5719080901252543
3315,0.04735393505193398
3316,0.7383975970019597
3317,0.524491201675948
3318,0.10567400348025456
3319,-0.4720895663030537
3320,-0.6160697898266329
3321,-0.23934064941187838
3322,0.2562080287300215
3323,-0.7665763650463883
3324,0.31184685406732116
3325,0.8504163277860645
3326,-0.06630811772578578
3327,-0.03477405221831098
3328,0.5002761198903535
3329,0.13895536459482893
3330,-0.6465749243740663
3331,-0.29484526151750623
3332,-0.6220409561718917
3333,0.0645532403056912
3334,0.6046182739052794
3335,-0.2210934056219891
3336,0.23028353123540493
3337,0.15696372084404164
3338,0.0512094263683215
3339,0.3999383539814154
3340,0.7305924733583274
3341,0.43348520469524277
3342,-0.21386451707014603
3343,-0.4376683512873662
3344,0.6969633644107301
3345,0.20182226051631144
3346,0.3106263152492117
3347,0.4156750400001562
3348,-0.6562782500082079
3349,0.5166938315720181
3350,-0.7853098060165181
3351,0.6633942558898017
3352,-0.5792486204864429
3353,-0.36985800119405343
3354,0.14073659134983224
3355,-0.1718684712381272
3356,-0.06976405970082183
3357,0.04035663684073862
3358,0.4813638603328698
3359,-0.14134568005037113
3360,0.41626895726964797
3361,0.446246136532782
3362,-0.048536274097584806
3363,-0.169890395982506
3364,-0.34996596346197584
3365,0.17203208874166853
3366,0.13370978647674775
3367,-0.15331152651212504
3368,-0.31227581374170627
3369,0.24889322731657115
3370,-0.5056805629924054
3371,0.8335922904955307
3372,0.5826363647264202
3373,-0.3200560848997284
3374,0.8931921286999494
3375,-0.2658022584965853
3376,0.5967834013335127
3377,-0.6694210177229474
3378,-0.028938991278124198
3379,-0.05984044248627649
3380,0.42310818491118235
3381,-1.022188491401443
3382,-0.2214484098731893
3383,0.17399525047750702
3384,-0.4402747999422706
3385,-0.4332351222760603
3386,-0.6359308481965272
3387,0.007907895119210497
3388,0.08564955290420849
3389,0.11540012216543427
3390,-0.23743122016942875
3391,-0.5226884707506337
3392,-0.04988857757365133
3393,-0.16032519477865667
3394,-0.06625698812828507
3395,0.055002828376988146
3396,-0.13248178725508913
3397,-0.046937149179209825
3398,-0.09092309964031983
3399,0.026070152338070692
3400,0.42546117881985185
3401,-0.19667470403820325
3402,-0.8515880477839102
3403,-0.1795016531794217
3404,-0.3446826572206561
3405,0.049353883389822155
3406,0.7008711450703813
3407,-0.37011705685680985
3408,-0.10455812342009183
3409,0.699456771208373
3410,-0.240703538696973
3411,-0.21550857560476092
3412,0.5683597167516667
3413,0.349327939629721
3414,-0.6830001961106008
3415,-0.04631181800088867
3416,0.08895364274087138
3417,-0.10391316305129207
3418,-0.6139358106781846
3419,0.2914986819502623
3420,-0.07309459510032049
3421,-0.09575106961135751
3422,-0.45331370910044055
3423,-0.5008890788561345
3424,0.8300494524984448
3425,-0.24432320050534787
3426,-0.2724757063544943
3427,0.02534829704069324
3428,0.2488869176761824
3429,-0.6760249551523744
3430,-0.3193011402922793
3431,1.0097809169451604
3432,-0.22472765595662206
3433,0.4261664513685786
3434,-0.10685421923447079
3435,-0.5447349710213512
3436,-0.21232957221251456
3437,0.18954084773917076
3438,-0.4074010219356441
3439,0.78809600868649
3440,0.18724091773470622
3441,0.18550327913738984
3442,0.3421124199992221
3443,0.31715699832417354
3444,-0.41438663215900384
3445,0.5588542769468793
3446,0.18609203015451037
3447,0.021298514473254176
3448,0.035815324518248454
3449,-0.2617646326531739
3450,-0.11499371944050235
3451,0.5518612558587649
3452,0.02958294303102165
3453,-0.045676015637247935
3454,0.08366901766437025
3455,-0.7160926582738011
3456,-0.26838170486209073
3457,0.036453569135755204
3458,-0.18203068944537065
3459,0.31770267805131724
3460,-0.009793988728344496
3461,0.14470841624723033
3462,0.08533269767084425
3463,-0.33174413521509954
3464,-0.5444967391431436
3465,0.42886407167148205
3466,-0.46787785367452805
3467,0.35594086920526946
3468,-0.156091485986897
3469,-0.0010101918472267787
3470,0.1767173895390604
3471,-0.3958862914204845
3472,0.332599516517935
3473,-0.21103964555705032
3474,0.2788640881885061
3475,0.05298690213549368
3476,0.48446352256836467
3477,0.4195399404463892
3478,-0.06911385838668413
3479,0.2131807413376127
3480,0.2668236198553828
3481,0.2741779779911337
3482,0.3441982166329557
3483,0.3009049652336257
3484,-0.24115136245055108
3485,0.5717146238330989
3486,0.08247601291722328
3487,0.2160149716706697
3488,-0.2696119283906077
3489,0.23986691855142803
3490,0.3062225846967315
3491,0.2384329901155725
3492,-0.42764157084038545
3493,0.10550231862770737
3494,0.26961294937733504
3495,0.15272786709749245
3496,0.04457574784379539
3497,0.14520475862428472
3498,1.1103514439232143
3499,0.06964572395499251
3500,0.24579987310389742
3501,0.29792062273146674
3502,-0.2841865539273523
3503,0.2027808000889937
3504,0.3153693985827912
3505,0.7926624809901731
3506,-0.3884164167808705
3507,-0.15406641024174753
3508,0.4151783131582979
3509,-0.3439544282901386
3510,0.2632340985395695
3511,0.9128795288076824
3512,-0.7133457761520983
3513,0.4272683084262204
3514,-1.1924878894649402
3515,-0.09442335157858504
3516,-0.07019405039852548
3517,-0.7137184427981869
3518,-0.05625654989560939
3519,0.06968280343121448
3520,-0.21359626426197903
3521,0.12133769717407113
3522,0.0235876892083152
3523,-0.7342314946386264
3524,0.20937509341008556
3525,-0.20872803431322542
3526,-0.04734819888804028
3527,0.15238437941952138
3528,-0.6913525979905152
3529,-0.2715293884031998
3530,0.8224166940536572
3531,-0.3950508882072842
3532,0.03240997135921299
3533,-0.4927123494868208
3534,0.46401815076596903
3535,-0.6084705450782726
3536,-0.14654866506686404
3537,0.25305555758606235
3538,-0.43727686034475466
3539,-0.4914506657930317
3540,0.6128619661747167
3541,0.03703979931821904
3542,-0.4327184724225028
3543,0.28314260016940807
3544,-0.5656512958782585
3545,-0.14827375286693034
3546,-0.7989670441170637
3547,0.047204479550151696
3548,-0.1045264394623581
3549,0.22420621923735679
3550,-0.18001518887971835
3551,0.28753678102340424
3552,0.04230057431269629
3553,-0.23105057688869765
3554,-0.3711848270952961
3555,-0.24836881381221965
3556,-0.015234391587720114
3557,-0.3664041285687912
3558,-0.3121754321455911
3559,0.2665831168569082
3560,0.9483759459212089
3561,0.2672040085678055
3562,0.17510263139105542
3563,-0.18474015956719314
3564,0.19824998526954557
3565,-0.21305633744834868
3566,-0.22080729268542304
3567,-0.21440613274512707
3568,-0.4181171509137831
3569,0.23560201557943367
3570,0.5495625484856246
3571,-0.08224343124364106
3572,-0.6096115012921626
3573,-0.05354451192920738
3574,-0.4731284264497739
3575,0.6823664823421052
3576,0.06295825066052019
3577,-0.12233072875914577
3578,0.2004738863248628
3579,-0.5699912507107039
3580,-0.1013819941156869
3581,0.608253747279157
3582,0.0156299501355617
3583,-0.11284669843996517
3584,0.352789769968737
3585,-0.2238044550903655
3586,0.21695412458436666
3587,0.5873205618270368
3588,0.2606211111543126
3589,-0.0707391323283639
3590,0.29067023684762866
3591,-0.17676738773478026
3592,0.598939464733186
3593,-0.44618002457762934
3594,-0.2074993629956787
3595,-0.05842412524861011
3596,0.060139139775328594
3597,0.34963590337234013
3598,0.07790301247578915
3599,-0.09652374410883326
3600,-0.34233897236745425
3601,-0.31309795653774425
3602,-0.4482897695960685
3603,-0.2151723319849537
3604,-0.7694467396645003
3605,-0.19840595327945532
3606,-0.23899550394201852
3607,-0.20116513553752874
3608,0.3143680436257747
3609,0.025281438378961456
3610,1.139512577805862
3611,0.3612850966429114
3612,-0.7781894198627168
3613,0.13245213503652364
3614,-0.11370873460725771
3615,-0.07843294582775688
3616,0.14966197106888965
3617,0.40584428877180034
3618,0.2636467171002816
3619,-0.6575559613064255
3620,-0.46936002622075434
3621,0.09129194631951064
3622,-0.008068304530964842
3623,0.6092647433594787
3624,-0.21418483236935673
3625,0.7933601112141351
3626,-0.38706255293023323
3627,-0.06884258378458664
3628,0.09227046497496413
3629,-0.06068687354572439
3630,-0.07376105009138166
3631,-0.24534997395937982
3632,-0.21764712921403925
3633,-0.4174307536304259
3634,-0.17055983532951524
3635,-0.3917295769478542
3636,-0.7123816283766236
3637,0.32313827514350246
3638,0.21371348019997402
3639,-0.029747426147321194
3640,-0.15551660149486207
3641,-1.0337487317309046
3642,0.4655885827899031
3643,-0.27624385767648496
3644,-0.20235423160161276
3645,0.025345446398959637
3646,-0.04811602882912954
3647,-0.03413080821110465
3648,0.4870653324472497
3649,0.568607780685695
3650,0.15460577120087954
3651,0.31410216588644563
3652,-0.2072415462157257
3653,0.21923132937184828
3654,0.4838499357771343
3655,-0.3055039248973942
3656,-0.4666125820081088
3657,0.2422680803516305
3658,-0.4372624105124611
3659,-0.37068875376009064
3660,0.7145007152755687
3661,0.3225742409609431
3662,-0.46152009082442674
3663,-0.13538463870137885
3664,-0.17202228232329966
3665,-0.8315940217170186
3666,0.09133652784892338
3667,0.05453706264870116
3668,-0.3782110808172262
3669,-0.5010924928422699
3670,-0.5028591218375666
3671,-0.45139243476369456
3672,-0.34753778809422176
3673,-0.011353603370369062
3674,0.47254877042181026
3675,-0.06730452925384368
3676,0.07870225753208569
3677,0.38369755864685495
3678,0.45819990385420817
3679,-0.9348669323492556
3680,-0.40516527089833126
3681,-0.16212019771131497
3682,-0.5220737765978967
3683,0.05327102581732071
3684,-0.3252351697920812
3685,-0.18874676890433928
3686,0.3419707758898586
3687,0.19575328755653146
3688,0.013003431011694941
3689,0.21662692835355893
3690,0.32252666772126204
3691,-0.03712347647843134
3692,-0.08366281304822676
3693,0.06616150783674281
3694,-0.26078408056316155
3695,-0.48578964370255845
3696,-0.03393047961818145
3697,0.23063249843730974
3698,0.10987612863024565
3699,0.32681866181132097
3700,-0.057372758503499606
3701,0.7959642637603809
3702,-0.0795627139909208
3703,0.4168389736771246
3704,0.7488799899356973
3705,0.9657618175065596
3706,0.1846466183056093
3707,0.3206344986292776
3708,-0.47317148887906596
3709,-0.1140593236342231
3710,0.06346315724867485
3711,-0.21762849456599387
3712,-0.3514707575497992
3713,0.03298566846049646
3714,0.6750474036997072
3715,-0.6641070387194619
3716,0.29366473567779744
3717,0.09910736500281882
3718,-0.0939401651947544
3719,-0.54019354443778
3720,0.48726989646241514
3721,-0.6189593438059098
3722,0.28868273194339644
3723,0.698286551916138
3724,-0.5412180972936135
3725,-0.57242240225832
3726,0.9483205437081883
3727,-0.4413245807462354
3728,-0.016384346094227252
3729,0.05395307712897586
3730,-1.0710456813718416
3731,0.052982644314072
3732,-0.00481167087591763
3733,-0.5270901019735327
3734,0.5019662338584109
3735,-0.03864006727947285
3736,-0.3562808574049801
3737,-0.7071358931164548
3738,0.3390169762576466
3739,-0.2974201733775567
3740,0.5091644549273641
3741,0.27433305147367937
3742,0.2338439948988901
3743,0.3632484239389122
3744,-0.24656917908080844
3745,-0.4328253004770814
3746,0.37731920636001703
3747,-0.8935608470344114
3748,-0.3298947941713218
3749,0.13021674648718354
3750,1.0897305502424888
3751,0.004143309800557398
3752,-0.02891688765068195
3753,-0.900741095835501
3754,-0.16687549015484332
3755,0.15163353475984084
3756,0.2381421375437423
3757,-0.09156801204280539
3758,-0.2998030728208016
3759,0.08417237233107676
3760,0.48327613964416893
3761,-0.3023307691440109
3762,-0.22263231559620497
3763,0.15227104267182334
3764,0.01695654930156618
3765,-0.04224633142400685
3766,-0.6467091641094815
3767,0.7392217461279816
3768,-0.12958121494227348
3769,-0.037331112540799946
3770,0.5749721582544429
3771,-0.36831776831449503
3772,-0.35909231503988576
3773,0.519818707909261
3774,0.16394891588922766
3775,0.1617291206991077
3776,-0.7331688480882619
3777,-0.0109985235544845
3778,0.23380078867217474
3779,-0.22687618983269814
3780,0.31812209315488327
3781,-1.290207597976226
3782,-0.11008847036704585
3783,-0.18069712792083717
3784,0.27946737735635413
3785,0.10246335943747142
3786,0.01616218123856037
3787,0.5524744364334064
3788,-1.251067064189421
3789,-0.16628300301462007
3790,-0.43718267167945907
3791,0.699721830916799
3792,1.0338962587078402
3793,-0.046154130157138776
3794,0.2995953312723194
3795,0.1674560497664044
3796,-0.2888850652573016
3797,-0.30400522510646927
3798,-0.7042434623424785
3799,-0.2063398462422324
3800,0.39243734360625987
3801,0.25671288515716156
3802,-0.5217811372843778
3803,-0.09070809071731702
3804,-0.7058337687988123
3805,0.08752258443656366
3806,-0.9184947352654286
3807,0.1345059786594994
3808,0.04306580440210727
3809,0.7611717367249277
3810,0.44099170864628845
3811,0.507011172406156
3812,0.10643086251351437
3813,-0.30224285196308687
3814,-0.47526221486590936
3815,-0.10151078460143685
3816,-0.3758298801129852
3817,0.5675678652490149
3818,-0.10262873780366895
3819,-0.1154980022528853
3820,0.11067461959252499
3821,-0.4222629586330887
3822,-0.1638197403250285
3823,0.014677851317571773
3824,-0.10917613151030776
3825,-0.17637972994239368
3826,-0.2911898064864542
3827,0.65819878858935
3828,-0.10404951197897729
3829,-0.47060471250805397
3830,0.43791175684992745
3831,0.1552004506296399
3832,0.13330997081636045
3833,0.0550681032800894
3834,0.3157549410727124
3835,0.08015061710300787
3836,-0.5313505458012896
3837,0.11775738051248427
3838,0.28948616184123627
3839,0.17023168043953713
3840,1.0025070674351033
3841,0.8075445832782696
3842,0.6242012140874171
3843,-0.35996741190657855
3844,0.23038964589118796
3845,-0.24346371624118973
3846,-0.4459531864662018
3847,0.039025925461320374
3848,-0.1716534464237936
3849,0.35351761584395575
3850,0.06713282529923656
3851,-0.03956633463272627
3852,0.2676528471728766
3853,-0.4984619596785469
3854,0.23587862472729118
3855,0.5554779946501294
3856,0.22484698653917123
3857,-0.05639063535937976
3858,-0.1781731029980858
3859,-0.43979155606902287
3860,-0.7225778623865765
3861,-0.0451736885312416
3862,-0.4837263949479796
3863,0.6561101706753141
3864,0.28923314051843296
3865,-0.11509493396877435
3866,0.6110687710695255
3867,0.4179698946322007
3868,0.5430505092810448
3869,0.1949329707493752
3870,-0.30277096678435855
3871,-0.002529278087986195
3872,0.33520300868511593
3873,0.02923888391306388
3874,0.06871664186048651
3875,-0.15285308192275396
3876,-0.1499647001663196
3877,-0.1794333334904508
3878,-0.0821392448960385
3879,-0.30079405360099953
3880,0.3217639743050352
3881,0.31646515052400154
3882,0.9184055626525826
3883,0.07346047600745673
3884,-0.2202203172934664
3885,-0.4886388091355419
3886,-0.03277299759344505
3887,-0.7193991960088353
3888,-0.28635709802016723
3889,0.22253465597529656
3890,-0.46884868477332037
3891,-0.08674904141534484
3892,-0.5663650441294439
3893,0.35903288513534154
3894,0.8068341209977463
3895,-0.1943535428974732
3896,0.3609270757089897
3897,0.07746151122609075
3898,-0.13644375197996497
3899,0.11207711302395121
3900,0.4199079303845671
3901,0.27631367783520633
3902,-0.43511295310587605
3903,0.8528941134857734
3904,-0.1504923224880007
3905,-0.4288952815099397
3906,0.30869016780307756
3907,-0.7014946192607222
3908,-0.11126092629699323
3909,0.779252985968628
3910,-0.2434063884107317
3911,0.6013398891400441
3912,-1.0317250756316254
3913,0.1424141519264873
3914,-0.4607836984162461
3915,-0.059607796683843875
3916,-0.17125764748299221
3917,0.1447784657187259
3918,0.4697043504567588
3919,-0.030394769352793977
3920,-0.4496867882365288
3921,-0.5801542887248518
3922,0.5482249423727752
3923,-0.2886078192007971
3924,-0.7930397815913199
3925,0.6046364005411936
3926,-0.16865008232284528
3927,0.05463810468254578
3928,-0.28851897029560103
3929,0.03177957170654809
3930,0.022767516256661006
3931,-0.04449303206971153
3932,0.6589521370174515
3933,-0.5411220522235722
3934,0.06755634880735105
3935,-0.6786764560297196
3936,-0.3242814212678414
3937,-0.01747554008399862
3938,-0.029159951941755295
3939,-0.17409882269486188
3940,0.11610062929205818
3941,0.44063064479608527
3942,-0.5308218079295067
3943,-0.1061657889723543
3944,-0.07377233722146159
3945,-0.11835708357107337
3946,0.18812442123571674
3947,-0.360697576218068
3948,0.25578302943946807
3949,0.6063550460805874
3950,0.051818173650832716
3951,-0.706134931635819
3952,-0.097512543352585
3953,0.32754350716997566
3954,0.3215944840108672
3955,-0.11304760318513302
3956,0.032089328969456946
3957,0.1546067607617901
3958,-0.09824675412362245
3959,-0.0700983349301884
3960,-0.7397764006029466
3961,-0.13703010900168078
3962,-0.24363401337678592
3963,-0.027217314569879275
3964,1.1026566350022342
3965,-0.24870956249435325
3966,-0.4131703675140306
3967,0.5160497574890798
3968,-0.4322711382464858
3969,-0.08380625002633196
3970,0.4658338476215182
3971,-0.48535618237832323
3972,0.7461950352587405
3973,-0.3531169882799509
3974,0.42374642227900533
3975,-0.3330876108070996
3976,-0.06896888715164355
3977,-0.152746415597824
3978,0.2052808574339506
3979,-0.09354563385256687
3980,0.15412260390598204
3981,0.1789428134226261
3982,0.034594288035748426
3983,-0.35777539969291267
3984,0.42622939670276166
3985,-0.3616115843771482
3986,0.25712052498838284
3987,-0.6223386940803846
3988,-0.4250757666627815
3989,0.3466237028653632
3990,0.43381131793375827
3991,0.1764738408603233
3992,0.07001494403134464
3993,0.006024596883882365
3994,-0.5480830733104345
3995,-0.5103089213253064
3996,-0.30845979391175526
3997,-0.5756429702573691
3998,-0.06476503474950122
3999,0.41589997569679565
4000,-0.515377751614227
4001,-0.9750691905319308
4002,-0.045993598169714295
4003,-0.10794870748322949
4004,0.34057595554565495
4005,0.4512843781251529
4006,-0.23121475313373535
4007,-0.9619298121600738
4008,0.49634310895197614
4009,-0.6397303608942992
4010,0.2517469809281858
4011,0.394364533308405
4012,0.29078554458410444
4013,0.5639004558825714
4014,-0.8745967042576882
4015,0.37768542892936224
4016,0.19093956456672312
4017,-0.12933131427861952
4018,0.29500846306945916
4019,0.025313837426559366
4020,0.26030583123108036
4021,1.0996789302407002
4022,0.3777768898755816
4023,0.3795196998859157
4024,0.23532587332977128
4025,0.11503684106445383
4026,-0.004962111509200189
4027,0.30275951953938585
4028,-0.716653884276212
4029,0.3896133822591969
4030,-0.601676070461741
4031,-0.0424805487823437
4032,-0.3260298398370276
4033,1.027871753536909
4034,-0.04340456501968825
