-0.0402674735372 0.0178475263021 0.0113238890262 -0.0110385754416 -0.0321716871142 -0.0200297458763 -0.0253276092682 0.00779501869592 0.0187537161834 -0.022649709329 0.0256004242276 -0.0149899674562 -0.00693352763394 0.0192217253684 -0.0142597309911 0.0066018202635 -0.0113331681644 -0.0105590603142 -0.0105888849889 0.00107026376562 -0.00469828765083 0.0222673299109 0.0119222834931 0.00808587427637 0.0245892874815 -0.0135274166901 0.0190163583752 0.00859161390834 -0.00668647700066 -0.00327624201846 -0.021042179436 0.0103263309552 -0.00902189773193 0.0244151540868 0.00736121590141 -0.0286422313392 0.0033201402937 0.0305262748692 0.0255305560787 0.0383734714691 -0.00293469619545 0.000918678222197 -0.0300263591657 -0.00296165393595 0.00894634663435 0.000603152641017 -0.022790440908 -0.0078705760148 6.95507780494e-05 -0.0470631898982 -0.0289914519064 -0.0161932406707 -0.00181381357552 0.0178231863409 -0.0318029360826 0.00234244192565 -0.0191324686288 -0.00611337700706 -0.0193919972792 0.0239829182879 0.0261911591915 0.00244268830807 0.0177017629575 0.0247719894499 0.00995413742725 -0.0102262242463 -0.0214679376777 -0.0314322146042 -0.0213683287705 0.0178440984033 -0.0266321965662 -0.0284176012775 0.0274965175886 0.00515778899645 0.0109824625274 -0.0142847521041 0.00247942772468 -0.0116621128343 -0.0154135477166 0.0126755220036 0.0087795920494 0.00448700375306 0.034523145664 -0.00610784701673 0.00686765910236 -0.0342403283911 0.00504207016743 0.0207576897109 -0.0222787813981 -0.0198558570888 0.00479739187756 0.000995101621088 -0.00281738049783 -0.0154089578875 -0.0141295887527 -0.0342803603612 -0.0132764731563 -0.0292888572272 -0.015939250444 0.0149366468685 0.00276045204751 -0.00696727341782 0.0109573685692 -0.0113900692938 -0.0478546958496 0.00922434111388 0.00294111669346 -0.0271973804408 0.00590379460949 0.0232137839776 -0.00848016575109 0.0163121203622 0.0175068678448 0.00417817533875 0.00916381488757 0.00370512917471 0.0113486606229 -0.0217525805963 -0.0124644075219 0.0336084657543 0.00815020583469 -0.00622551347291 -0.00495021028373 0.0109540099672 0.0165452806103 0.0233194645735 0.0121258435357 0.042540973577 0.0283046702903 -0.0267477267195 0.00684791750234 0.0116481965396 0.00459874235668 0.0320409121209 0.0327153942493 0.0170900335403 0.00225154571034 0.026894584274 0.0204565279783 -1.5479941964e-05 -0.0160971432152 0.0272785232639 -0.00413341189678 0.008627525702 -0.00169821603502 0.0236515704551 -0.030196949346 -0.00148904193493 -0.00234685445863 0.011692325212 -0.0232873388913 -0.0137956498107 0.0170986623965 0.00253274031604 -0.00309064576637 0.0152001452402 0.031326128737 -0.0254052967389 0.00142452903346 -0.00803480090323 0.0238139255655 -0.0109733902807 -0.0257872707361 -0.0312777592044 -0.0141029031252 0.0070709945066 -0.0138813327234 -0.0286120632498 0.00754333409097 -0.0186542298304 0.00334449551379 -0.0591778616959 -0.0243293202065 -0.00376798082864 0.00935023024745 -0.00315397236806 0.0281618370479 0.00568092446318 0.018131351103 -0.0407881850113 0.00216536904958 -0.00324235705759 0.0179941979585 0.0120304061851 -0.0162023634798 0.0142928703292 0.0127327321256 0.00892382304416 0.00434158608474 0.0104577299995 0.0212685325934 -0.0194178877066 0.0162612628918 -0.0127698135116 0.0122255719602 0.0149212028229 -0.00584370204474 -0.0103333881986 0.0119928528503 -0.00513966290085 -0.00138310161268 -0.00928984738685 -0.0024750086915 -0.0138489608293 -0.0194449225288 0.0113625870677 0.0229089652579 -0.0368863245044 0.0291778273722 -0.00388058064036 0.00227714759313 -0.0185188477065 -0.0125935257986 0.0223884924496 -0.0361942695207 0.0105497399034 0.0135077900582 0.00807095917788 -0.0195663289368 -0.00691962332912 -0.0122763981566 -0.0308239146413 -0.0244945674508 -0.0145989714091 -0.00691163892042 -0.0180833159707 0.0140442751774 -0.0355623678395 0.0228403069683 -0.0293007185515 -4.90259217975e-05 0.0121452200147 0.000153152567965 -0.0309119042692 0.0109939687567 -0.0196653213767 -0.0349845024139 0.0135448362701 0.0138358233033 0.00934276021437 -0.00890510868858 0.000279648848733 0.0214288704925 -0.00716056038525 -0.0398455994933 0.0169561432792 -0.0161506833724 0.0440563497076 0.0143128823016 -0.0140622346131 -0.016359839237 0.00870505750692 -0.00163885586585 -0.00406972847927 -0.0157587730115 -0.024798003114 0.037345329758 0.00254405331783 0.0217685371071 0.0197653365506 -0.0059906864811 -0.0135718436518 -0.0254428590351 -0.0390180383489 0.0152544486789 0.00790440556501 0.00862089344102 -0.0179583357709 0.0157384231374 0.0060434249821 0.000843945552358 0.00362143305425 0.00760512993748 -0.0144425108454 -0.00759334781977 -0.00739253818548 0.00459858807877 0.00641230084463 -0.016390178543 0.018692409906 0.0145869695828 0.0208449514015 0.0324162276819 0.0179427554429 -0.0407668400353 -0.00573894061492 -0.0149134086956 0.000729267507898 -0.0044659536676 0.00994348177589 0.00803879266214 -0.0220967982124 -0.0164147715049 0.0090120017801 0.00376084652033 -0.0120342993809 0.00901315513855 -0.00427950263073 -0.00546391420758 -0.0114029985491 -0.0112413690282 0.011329349082 -0.0198770097333 0.00267716166941 -0.00961290726506 0.0194538921321 0.0120100248526 -0.0245095565711 0.0134218806723 0.0113237921205 0.0347227763485 0.0121102554817 -0.00588894988605 -0.00755587072879 0.00573434951297 0.0222407257839 -0.00268414276997 0.0352644020692 0.0134454581148 0.00396505259144 0.00513359380661 -0.00257179135903 -0.00389690575908 -0.012885359227 -0.0141919153675 -0.0149809487499 0.00131177532961 0.0289189246715 -0.0143508851049 0.00248037668163 -0.0199503751019 -0.00111008521759 -0.0157833986067 0.0150620240847 0.01513442592 0.0183195747975 -0.000917778909746 -0.00641388646748 -0.0130655433697 0.0223728476419 -0.0103344772994 0.0127317891819 0.0224715740498 0.0263702838559 0.00711829246786 -0.0128473651222 0.0187298396239 0.0138104332079 0.00514917161347 0.0257894468729 0.0111462660282 -0.000792120508463 -0.00411368411171 -0.0085078029046 0.0105884718389 0.00527420580402 0.0099617090052 0.000751285964338 -0.0195948410857 -0.0448105823781 -0.00935714951602 0.00830425114652 -0.0309092889788 -0.0151915021155 -0.0191730311205 -0.0408742834049 0.00780902700527 -0.016370724118 -0.00679083777305 0.0185432068927 -0.0225910493552 0.0107078562029 0.00951183938039 -0.000430973639776 -0.0251469000223 -0.0286621917836 0.00345090333842 -0.0106432894905 -0.000784614514566 -0.014942329314 0.0238794148983 0.0101817463466 0.00840525570342 -0.0059357476927 0.000520882074241 -0.00244849006491 -0.0115021763321 -0.00692591447171 -0.00800909839203 0.000887122387284 0.00338592437315 -0.0175836701142 -0.000675860271329 -0.00827930273198 0.0122682164601 -0.0121785790919 0.00385778944165 -0.0177670770814 0.0111510678113 0.0192323413155 -0.00683014112324 -0.0127299553181 0.0147552191494 0.0115487667733 0.03442279767 0.00716365257431 -0.0382967654956 -0.0100025219775 -0.00911286039238 0.0044787089222 0.00433661714253 -0.00264383211852 0.00125175147645 -0.00954032757255 0.00166601834591 0.0280713857607 -0.03002405269 -0.0113695680946 0.0144381165115 -0.00944184968319 0.00244770882092 0.0211916280977 -0.00575786244654 -0.000393945086061 0.0436492110054 0.0163427968277 0.0137139921833 -0.0100013615158 -0.0104268102234 -0.0220490552178 0.00342941748343 -0.000792267675622 0.0211025194242 -0.00664025336009 0.00279476742018 0.00925819160332 0.0102143241966 0.0350886648829 -0.000584680746603 0.000979015127435 0.00163052000044 0.0158742955842 -0.00622569284172 0.00472287392901 -0.0131049422439 -0.0209964034653 -0.0112746944104 0.00207476528767 0.000708495362088 0.0308535349322 0.00481121917967 -0.0221051226676 0.0118230458695 0.0378682914232 -0.00379263196878 0.00218829960207 -0.00700666005739 -0.0142653954457 0.0235822093121 0.0312672003741 0.0221255528349 -0.0296899653081 0.00787524954385 0.0219084119973 -0.0477297124233 0.00639183975917 -0.019584895211 0.00148620999994 -1.17731827854e-05 0.0100243243122 0.0302602873019 -0.0130358784741 0.0398511752789 -0.0137707386851 0.0190094612804 0.00826531279124 -0.014571522247 -0.0141742431331 -0.0209013668601 0.0122574500988 -0.0276629836427 -0.00205334938806 0.00404145883179 0.00943961293175 0.000486305365267 -0.00230267955965 0.0208597336439 -0.00442223715397 -0.0161184476276 0.00557483853205 -0.00655248047332 0.00339148407138 -0.00134389208148 -0.0106352833254 -0.00354549287507 -0.0198523108607 -0.0141018772134 -0.0073469428018 -0.0137749397962 0.0152637000539 -0.0159718466322 -0.0313997562359 -0.0207111256023 -0.00947944438592 0.0108798840475 0.0109295700223 -0.0171709471564 -0.0170076801447 -0.0149105337515 -0.00941630885875 -0.00516803256411 0.00719055120835 -0.0261430552052 0.0157630513231 -0.00693338078923 0.0105492399566 0.0254943364502 -0.00433774150944 0.0123637006894 0.0247390061906 -0.00273868111731 -0.000220954723412 -0.0145514524135 -0.00701746334171 -0.00324869470133 0.00241338605173 0.00353370045369 -0.0451644760363 0.000729372608099 -0.00401898463572 0.0480961749812 -0.0117403036317 -0.0157004482483 0.0263834671394 -0.00898804101529 0.020556809242 -0.011994600013 0.0117683017274 -0.0209491201399 0.00424656714455 -0.0200596155802 -0.00884983481799 2.41510821377e-05 -0.0151909175387 -0.0167905808983 0.0475319624637 -0.033561004864 0.0265180200498 -0.00658246037019 -0.0028806649288 -0.0201238019735 -0.00518661956806 -0.0244313403386 -0.00100945674753 -0.00195249264356 0.0180302641876 -0.00203735762108 0.00419506314197 0.0308064698581 0.0116770702657 -0.0270699781098 0.00270293494013 -0.0154997779738 0.0196826153299 0.0334944643423 -0.0103544177908 0.0241723638307 0.00585247977071 -0.00809771005079 0.00021110215347 0.00973211234288 0.0128699200687 0.0164543246224 0.00431878248572 0.00118329154461 0.0104047514428 -0.0064988171581 0.000627410164038 -0.00439774952539 0.00750896949288 0.00762386530463 -0.000840851792408 0.00948442539871 0.0142815348757 -0.00764577529718 0.00995785570563 0.0244416411161 -0.00316256284912 -0.015021134562 0.00136521993703 -0.0120446085999 0.016671163632 -0.0397248523572 0.0171075125578 -0.00452664811671 -0.0159542892008 0.0194688873554 -0.0394566603566 -0.0102954806918 -0.0119118979636 0.0146207336125 0.00127249640811 -0.0159414716127 0.0102430068657 -0.0137987224632 -0.0218652803835 0.00952762269272 0.011822581381 0.00372696220509 -0.0147681388615 0.0172449993867 0.0128593444225 0.011159528927 -0.00466174228289 0.0242231230844 0.000150954101458 -0.0127686345474 -0.0073612491726 0.00909465146931 0.011005945241 -0.0409516483231 0.00394292468705 -0.00588690902178 0.0280098517956 0.0203637484473 0.0226622723428 -0.0168653566285 -0.0140993678942 0.0365415280899 0.00517771899708 0.0176907896327 -0.0313213094237 -0.00636180876928 -0.00184942573385 -0.0173364671217 -0.011763520568 0.0157222252653 0.0103760025549 0.0171035695691 -0.0123613776094 0.00199742711505 -0.0174849221249 -0.0198933420158 -0.00502686918757 -0.00766224507751 -0.0145706029213 -0.0121359910217 0.000388273024957 0.0157844756927 -0.0232857382074 -0.0414891308715 0.0148460467354 0.0321720990063 -0.00593621865579 -0.0161423519645 -0.0261539490173 -0.00719656005606 0.0278996923584 0.0161731749109 0.0132435636979 0.00493706879454 -0.000606408980993 -0.00460926968717 -0.00877779192115 0.0104730034729 0.0193253412869 0.00135232716026 -0.00161946522042 0.0136289314809 0.0076392514214 -0.00518990824423 0.0110746357442 -0.00320468705291 0.0114417832546 0.0103936458319 0.00754309009703 -0.032791103032 -0.00380643840625 -0.0337570253131 -0.00310439601371 0.000933548207508 -0.000393367130161 -0.0218281976188 -0.0158302255962 0.0250174547632 0.00532719364091 0.00123974416173 -0.0196149447689 -0.0200026253945 -0.00318332986815 -0.00390399605322 -0.0162257863801 -0.0112122241388 -0.00104380253828 0.0426980826628 -0.0110649519733 -0.0224376787243 0.032674128643 0.0350509862748 0.0272758891466 -0.00777790328312 0.0199699600041 0.0240159319296 0.00992099857337 -0.000377831174993 0.022069410757 -0.00337299223476 -0.00640247335608 -0.00559564774086 -0.00553564499872 -0.00537079522026 -0.00879001437319 0.0422777892176 0.0291384094898 0.0159200403104 -0.0134799488464 -0.00724920254196 -0.00579657872099 -0.0186198481964 -0.0198439936574 -0.0177725057279 -0.00123272695328 -0.00567378322386 -0.0158025327875 0.00406668420925 -0.00252636520776 0.0219929231328 0.00315439186844 -0.0143896005504 0.00700393939937 0.0204696397091 -0.008996195315 -0.0240116272767 -0.0093538581922 0.0213232753985 0.0124665402054 -0.0106189824037 0.0157937946147 0.0109366166887 -0.0206763193759 0.00063742005161 7.60479680372e-05 0.00593081810542 0.000856404843154 -0.0172588022365 -0.0059331104066 0.0110827439941 0.0486766226366 0.0191050504332 0.00107217929675 0.0183932553128 0.0114565667468 0.0190173757461 0.0133744729708 0.0364007429919 -0.00238337895584 0.0174713195551 -0.0150838059689 0.00671202592196 -0.0132511489969 -0.00536373902512 0.00593654057449 0.0314343410382 -0.019447098357 0.0132457057327 -0.0120798503302 0.00178587248104 -0.00702547922715 -0.00665314037139 -0.0093556867198 0.0154888073759 0.00781395200119 -0.00776792909093 0.0261589288188 0.0321187985463 0.00732748174561 -0.0216075991614 -0.0132015860596 -0.00885114173309 -0.00199539820371 -0.0211914386857 -0.0158942849842 -0.0372403492268 -0.0259305713737 -0.013192392674 -0.00724861282345 0.0112512100578 -0.0284933538762 0.0162048281353 -0.00333041934077 0.0278540223533 -0.020551664126 0.025826583366 0.0091480594183 -0.00979567269563 0.00449458319261 -0.0359892884095 -0.0151416403451 0.0121324727347 0.00184820938451 -0.0193013121898 -0.0409750811881 -0.00538922768212 0.0217606799119 0.0245171205294 -0.00325391133853 0.0101686441364 -0.00585044790439 0.00673459750389 0.0225027261731 0.0164796549866 -0.0309829631433 0.00762179220546 0.0309542586518 0.0219834533707 -0.0405471216538 -0.0218346123857 -0.01860398062 0.00589854061167 -0.00427784304933 0.00847486823539 -0.00942232515794 0.0122345388033 0.00543008277277 0.00518476061966 0.00293179908427 -0.00887074494392 0.00867230534006 -0.0191626739124 0.0124630104971 0.0309077180544 -0.0220221597691 0.000447138499871 -0.00128697131428 -0.0225758962601 0.0142099340683 0.0106286673315 0.0024250966647 -0.00958437123983 -0.000461320203311 -0.00961988235154 0.0245427683305 -0.0044736623407 -0.0207812409782 -0.0014266976372 -0.0267463103284 -0.00324388472269 0.0327538485977 0.0208763315761 0.00217148798212 -0.0162673279497 -0.00972571086395 -0.0220549289233 0.0245663827715 0.0205996800708 -0.00419702852285 0.0289861283283 -0.00365111407188 0.0168224132172 0.0114041974327 -0.022425962713 0.0186713631145 0.0264399824288 -0.0013568703161 0.0046251025115 -0.0207844419714 -0.00261094171377 0.000428612149915 -0.00401236366903 -0.00729439926803 -0.00105532148445 -0.0296385881952 -0.00476144082499 -0.0285432741815 0.0055532055914 -0.00291522379009 -0.0130579019294 -0.00640211038533 -0.00195241430859 -0.0198764233406 -0.0102209682471 0.00690897356229 -0.00986707964114 -0.00283007817175 0.0112386442941 0.00428491240057 -0.0242083400898 -0.0201865979388 0.0305411512637 -0.00818769557057 0.012441291203 -0.00179617051625 -0.00461207364216 -0.0277077351883 -0.00202273529021 -0.0436835491589 -0.0252904874424 -0.0260287568912 -0.0224725036942 0.0141769742826 -0.0282837215038 -0.0201069749918 0.0305866502635 0.017870348995 -0.00819407854453 0.00587522591466 0.00746833767118 0.019803470958 -0.00771963612583 0.022349663855 0.0218048635674 -0.019090254918 -0.00318465111741 -0.0188048810263 -0.0143702213665 0.00567337584472 -0.000522122846971 -0.0183918887513 -0.0311384428729 0.0116519821312 -0.0161815026498 -0.0200627599961 0.015850542622 0.0238646221852 0.00823516946013 -0.0242035330225 -0.000704341965957 0.00911246575572 0.0175312412778 0.0108461595612 0.0269586424026 0.0178214193328 -0.0375062311854 -0.00860513238404 -0.0350079346159 -0.0231612111802 -0.000525559298124 -0.00880959760267 0.0166639873661 -0.0418103746634 0.0202239271233 -0.00836639513709 0.0211326914749 0.0358596841337 0.0307773871962 -0.00402742112764 -0.00347449286356 0.00570941000397 0.0185660548404 -0.0168685508481 0.00379708734295 -0.0173653751054 0.00958794449702 0.00119957892523 -0.00778904637421 0.0232904459228 -0.0203409552088 -0.00283328013149 -0.00250637030079 0.00333227978299 -0.011892762083 -0.0135467567858 -0.0440819518723 0.000988931346816 0.0204596895051 -0.00778375576139 -0.0241348945602 -0.0167438995777 -0.0250396407609 0.0158931233756 -0.020517656887 0.00422876455396 -0.00810714342568 0.0031568091047 0.0152025557942 -0.00974645536157 0.0175623000695 0.00252209390381 0.0262315328498 0.0161580573822 0.0166849346138 -0.0173440917955 0.0087600224769 0.00274550898587 -0.000544798626639 0.0376765709045 0.00127447781606 -0.00271116658696 -0.0102235344265 0.0243777420036 0.0011991292427 -0.00167906234316 0.0252297421279 -0.0400018738972 -0.00701876426327 -0.00518577037771 0.000519532870093 -0.00638317035757 0.0351635052101 -0.010356337171 -0.0335148485962 0.0109335350777 0.00738395640147 -0.00218881247081 -0.00668910548171 0.00604684656993 -0.0131159287611 -0.0180947621872 0.00706080183955 -0.0263535439203 -0.00853131231554 -0.00111130746166 0.0147432032022 -0.0174205380179 0.026018629429 0.012651464063 0.0181661777257 0.00759332224694 0.00671989533995 -0.00515253378979 0.0190119857244 0.0275928941736 -0.000303696219622 -0.00449757781962 0.0343959559139 0.0279825697179 -0.00395437109386 -0.00770105297965 -0.0159229218452 -0.0201904695872 -0.00171241984251 -0.00109757441535 -0.0313474254047 0.0267164853626 0.00633765340345 0.019956739252 -0.000341970727139 0.00131416296518 -0.0306068676617 0.0046612815203 -0.0113657007695 -0.0327086457443 -0.0121772738415 -0.0118701838944 -0.00224782535903 0.0149293615229 -0.000292102462451 -0.00983337556419 -0.0237525927918 -0.0101753708166 -0.034280344891 -0.0167923169761 0.0205343853236 -0.00369382840341 0.0181577195607 0.0123121261613 -0.00173110884048 -0.00495103320998 -0.00332406985671 -0.00408138979977 0.0129527313216 -0.0150929004294 0.00588803821943 0.0368662841282 -0.0121401902737 -0.0298478177018 0.0048510396735 -0.0243160250684 0.00373137761559 0.000536830315164 0.0119608527559 -0.0136610748019 0.0331414947633 0.00480750944759 0.0299466794227 0.010163514882 0.0216797158074 -0.00723128402744 0.00443415058613 0.0179459328997 -0.0108622671115 0.0116753022835 0.0188659395993 -0.0507712526252 0.028091027227 -8.08169460553e-05 -0.00124056813645 -0.0027894380852 -0.00923855922549 0.0114113551315 -0.000204508656795 0.00619203188458 0.0389195910946 0.011974631061 0.0298222100441 0.0153280302452 0.0199163325184 0.0442929984425 0.000158687920911 -0.0166784522197 0.00619336299642 0.00374174224444 0.00740554990822 -0.0268568896868 0.00724733623967 -0.00648780646727 0.0195498734362 0.00329763763329 -0.00338890721148 -0.00622754866258 -0.0358251041228 -0.00126655418033 -0.0134482550595 -0.0161745114232 -0.00222144464252 0.0103852361327 0.0133870316171 0.00840296624188 0.0322620234336 -0.00769051865433 0.00652275202833 -0.0165715859796 -0.00324585614852 -0.021080355946 3.845084802e-05 -0.0149326977107 -0.0391644710301 0.0208620773088 -0.0186359233101 -0.0235021653988 0.0242641212112 0.0148352704367 -0.0133655222502 -0.0013196723704 0.0278600477248 -0.0283816896046 -0.0349032694349 0.00979355067235 -0.00265637013141 0.00307218260901 -0.0277422567577 -0.00464945270801 -0.0179610349083 -0.0263841296031 -0.0223213156901 -0.0274552791612 -0.00618700313138 -0.00497440931867 -0.0169777648796 -0.00887545320095 0.0125255958834 -0.0087810435758 0.00777734220523 0.00561715790185 0.028215162966 0.0113034088628 0.0239284986935 0.0225775432253 0.00364925676523 0.0322621814724 0.0111213653758 -0.00983075098719 -0.0333036759032 -0.00933952585023 0.00177895880003 -0.00319173054089 -0.00741454842752 -0.018911820559 -0.0127009789465 -0.000285775854276 0.0260305906356 -0.00421029011785 0.0124626385559 0.0249183110108 0.0355606834709 0.00469817164598 0.00969135532369 0.0187744659708 0.00658764446377 0.0268595833145 -0.0156474831631 0.00945539003939 0.00130206835903 0.0295971925098 0.0160906719623 0.00685257523746 0.0156805316504 -0.0148144861205 -0.0215848913119 0.0175842002296 0.0204243637967 -0.00851390415799 0.0169116643705 -0.00596415307511 0.0126207187209 0.0136476584682 -0.0136867885625 0.00471844825914 -0.00137860294384 0.00889915135722 -0.0199888052009 -0.0270439582252 -0.0155465554214 -0.00321599035099 0.0196956467753 0.0177120175655 -0.0186007510969 0.013398515537 -0.00895270221317 -0.00615729307062 0.0111338037516 -0.0271208757809 0.035208533724 0.00312394667627 -0.000982672990966 -0.00250227833839 0.0216398223559 -0.00835733056784 -0.0245669882177 0.00325798760174 -0.0132315567131 0.00393299940339 0.0148184497811 0.0312125287241 -0.00236621961023 -0.00966031811261 -0.00159518051808 0.0073619695922 -0.0218972098389 -0.0310737569607 -0.0024470914783 -0.0219091017235 -0.028599225075 0.00255285759663 0.00173476395784 0.0265937936792 0.0203394523986 0.0120819801399 -0.0153177606262 -0.0301880179465 0.0249025384717 0.0107476155929 -0.0110510910262 -0.0114195598848 -0.00200972173442 -0.00700832283552 0.0138245845187 -0.00755223687456 -0.0128143716725 0.000933098885942 -0.00413801555827 -0.00523609313373 0.00158995489071 -0.0107491398881 0.0176648320445 0.017437610071 -0.00263017266783 -0.00202204693788 -0.0578247249528 -0.0237626682608 0.00805644947075 -0.0308089670381 0.0170537587898 0.0224820894862 -0.000118801413599 0.0171803682109 -0.00187436757936 0.00424404146116 -0.0238220633728 -0.0191502545675 0.0183012203512 -0.0033670091232 0.00114853455953 -0.00113273051615 0.0102501228694 -0.0135592193129 0.000180116928918 -0.00607303430372 0.0241950352143 -0.026604443553 0.00640447241459 0.0165965261863 -0.0300428642457 -0.0278785254416 -0.0150876114084 -0.00366930800539 0.0156506645201 0.023609009022 0.00903064175489 0.012520716327 0.0354456683991 -0.00248569138184 0.0244491102699 0.0129593916958 0.0075563667689 0.00833223448416 0.00339542242771 8.40022042917e-05 0.0154835739045 -0.0112033887485 -0.0177562574041 0.00297391763164 0.0467941990728 0.0286938780364 -0.0105697432729 -0.00203883612454 0.0102906052601 0.00342941269032 0.0035025447992 0.0218002050931 -0.0116698495244 0.0232875537316 -0.00290897332341 0.0201963048251 -0.0436609734975 -0.010670211568 -0.0174306788155 0.0198295894252 0.00357128655198 -0.00910803684707 0.0197737189301 0.00780839060689 -0.000132245226642 -0.000139760889321 0.00355211017347 -0.0175446661489 -0.00742910597092 0.00453667630386 0.000272439807414 -0.0196753475971 -0.0283967416516 0.00334214372309 0.0221693697148 -0.00981603332085 0.00441505072972 0.0116312901551 -0.0147668392403 0.0154565603399 -0.0401349271874 0.0186740357534 0.0327550874479 -0.00513166601016 -0.0182658733399 0.00449755729501 0.0383082846528 -0.0106530715721 0.000436660101675 0.00994975154563 0.0139236801535 -0.0215329778758 0.000852253345722 -0.00053495980984 -0.00459365551948 -0.0239922482299 -0.040745932589 -0.0373370645749 0.0317099758783 0.00829016976292 -0.0174806275677 -0.00422562916319 -0.0510603190086 0.0039312292763 -0.0154494321906 0.0280006597068 0.000442330482334 -0.0264454577229 -0.0134928755708 -0.0079806412409 -0.014713630985 0.0397809706075 0.0167695472409 -0.0134681550874 -0.0300536384165 0.00400836454507 0.000756609011388 0.0131255838483 0.0188851746596 0.00146169265316 0.0191971225258 0.0106939758544 0.0154057444209 0.00148045398957 -0.0237088876456 0.00751549888675 0.0151457066832 0.0559356704679 -0.00252387521708 0.00388641529896 0.00410887342448 0.00354544998449 -0.0387168066078 0.0376079822875 -0.000494261815997 0.0104652987753 -0.00569912569015 -0.00192076770632 -0.00550924180205 0.0104547596933 -0.00620456278092 -0.0236934401338 -0.0191378032645 0.0253600136508 -0.00494035349625 0.00950007102876 -0.0428740460068 -0.0176382797631 -0.0158054194657 0.0121479562201 -0.0290396198128 -0.0396917205209 0.00665577381023 0.014988956164 -0.00673730145363 -0.0201958723838 -0.0017216163948 0.0124863932787 0.00865941186506 0.0115331586483 -0.00222245337898 -0.00158851669901 0.000892168678171 -0.00323053633262 -0.0212011844518 -0.0178284404763 0.00623246976533 -0.0245018258681 -0.0164711345301 -0.0085308196702 -0.00697799112759 -0.00677279369645 0.0356230372965 -0.00928465377697 0.0117536527984 -0.0181542749399 0.00949883478477 0.0365466343581 -0.014708555483 -0.0184542621755 -0.0121709588679 -0.00527735751045 -0.0154162831602 0.00174446469838 0.0195199502143 -0.0287843273 0.0211586940404 0.00245961912283 -0.00985720051459 0.0213094476871 0.00155282926258 -0.00790667823346 -0.0116342969315 0.0106700480699 -0.00277215181237 0.0201869074258 0.00208515217005 0.00384347019588 -0.0234735569097 -0.0124967401856 -0.00698433663489 0.0280230512535 0.0230268867232 -0.0225689056503 0.0162249819633 0.0141797347464 -0.00376680658553 0.0229710507394 -0.00505821896362 -0.00724017166098 -0.0186491400593 -0.0164944772885 0.0285661266245 0.00584992800005 -0.0102246132628 0.0163457066353 -0.0227674739025 -0.00256122072837 0.0184301519079 -0.0151682461874 0.0211012659896 0.01037259225 -0.0155894178664 0.00642104071798 0.00137258327066 -0.0360407046976 -0.0247041758764 0.0065031870093 0.0362095441056 0.00946615394784 0.0272176591056 -0.0228196138905 -0.00705454291388 -0.0151424450398 0.0323818394051 0.0160587021323 -0.0301163919627 -0.00102992385306 0.00328766880069 -0.00885665764982 0.0216872830605 0.00902773374375 -0.014580217774 -0.0355620289661 0.00625638139716 0.0194717013918 -0.00563739041316 -0.0186343745472 0.00642994637421 -0.0320544649102 0.0321900202316 -0.00333961733232 0.0156223570744 0.0151700585442 -0.0153126096619 0.0169887337245 -0.0225260125865 -0.000934946898398 0.0106212587431 0.0241384289447 0.00553578918273 -0.00394250542656 0.0183660966381 -0.00183813745778 0.0148610583894 0.0259203378544 -0.026266777638 0.015242456766 0.0115153584118 -0.0099544703523 -0.00659413199263 -0.00789377191945 0.00320202979206 0.0397956667892 0.0217918048591 -0.0206571610975 0.0140188294286 0.0232233039516 0.0232235301154 -0.0101264055362 -0.0172965816794 0.0012067904201 0.000620126312054 -0.00266874960617 -7.04595737968e-05 0.017926413595 0.0156899817825 -0.0343345053472 -0.0340524394174 0.0155240144899 0.000714007175774 0.0199267513442 0.0101859288276 0.00889682912217 -0.00316819998146 -0.0123441443951 0.00194145714451 0.0157310628076 0.00192768671434 -0.00396526395943 -0.00362231127024 -0.0131804499726 -0.0169268562805 -0.0123824903509 -0.0215884046727 -0.0101965365118 -0.0112369456667 0.000798292167549 0.00560208183489 0.0134543270764 0.013321164456 0.0112796024982 0.0137955441057 -0.0192473997611 0.0106318326119 -0.0244469162947 0.0102645398987 -0.01128209375 -0.0101792381397 0.00086212779917 -0.0256944419312 0.00410051219031 0.0111354378727 -0.000800106493735 -0.00240201713994 -0.0272293631565 0.0227352522623 0.00564195153352 -0.0249506163029 0.0195581628878 0.0071697268669 0.0377344257765 -0.0175036515416 -0.032085792106 -0.00453675298057 -0.00398915633746 0.00549427280711 0.0142479067436 0.0146938872676 -0.0119190747595 0.00742633692398 -0.00451436057187 -0.0016073296186 -0.00898518145888 -0.0236065654801 -1.18419883733e-06 0.0140253655342 0.00711853332369 0.00785544104234 -0.00133800336337 0.0310180043466 -0.0207180269459 0.0120382065175 0.00936211014313 0.0138487446736 -0.0174161419176 -0.0176568925052 0.00972420298738 -0.0105870306411 0.0366781766035 0.0303389414675 0.019858389774 -0.019597514076 0.0259303089055 -0.0145095263537 -0.00647063803053 0.00430529124292 0.0124127064232 -0.00391866974674 -0.010031553125 -0.00973363272494 -0.0166650216002 -0.0357566516404 -0.00691828537032 0.040820910742 -0.0231742027949 -0.0178834646753 0.0159907563303 0.0260623935888 0.010181132065 0.0225326936247 -0.00162225324709 -0.0136146133016 -0.013472774065 0.0398242129078 0.0144391121891 0.00465075392285 0.0399005844991 -0.0384957232241 0.027161052876 0.00508451218096 0.0186815963571 0.0321536359699 -0.0156472035982 0.0123277900048 -0.00969061478868 -0.0195844801507 0.0200767402279 0.0547939667063 0.0313203997812 0.0149493170447 -0.00955896279378 0.0102302895139 -0.0121614928306 0.0249109955007 0.0233482928951 -0.00866312130442 0.0363718787562 -0.0137822413604 -0.0098651496775 -0.0126449544808 0.00277282143301 0.00597159878331 0.0159392299739 0.00623565575431 -0.00738451346267 0.0395028180599 0.00979915424805 0.00848547625646 0.0131781486688 0.0259020643574 -0.0272728351288 -0.014913100251 4.79963127766e-05 0.0211392466679 -0.0142827023233 0.0196385604952 -0.0106535340185 -0.00779673806735 0.00935335849706 0.0182330914858 0.0170059046763 -0.0217499695305 -0.0181588606679 0.0336241104798 0.00347697754232 -0.00600663843196 0.0098308671595 0.0100145616274 -0.000723758001271 0.0320075070287 0.0528345168012 -0.0110346070963 0.01089679286 -0.00245160933859 -0.00694969592212 -0.00985229268599 -0.0177689519612 0.00581931587978 0.00127201098022 0.00324354015946 -0.00819108279143 0.0166927287057 -0.0131901633951 0.00394659684766 -0.0143400695426 0.00518703400173 -0.0183348306212 -0.0150853049399 0.0158062266367 0.00165702217835 -0.0204869921422 -0.00454965243036 -0.0122496012656 0.0172226124005 -0.00193946308319 -0.0165879974885 0.00882477011311 -0.00999061288267 0.0329426016681 0.0227191258245 0.0109096984595 -0.0114330556497 -0.00284765203214 -0.00294732287647 -0.00637430876574 0.00204668165671 -0.0243502797732 0.020835726446 -0.00962365785526 -0.0137151146049 0.0224027460883 0.0415579867441 -0.0201965261804 0.00362811990846 -0.0103813331509 0.0286986888615 -0.00421240935421 0.0317544344162 -0.0267936442289 -0.0126299416669 -0.0107837760407 -0.0187205366009 0.00870859897245 -0.010750611633 0.0203405153066 -0.00438426892765 -0.00886549353363 0.00964504843122 0.0387743433702 -0.0461674462621 -0.00715957835183 -0.00530350979697 -0.0267806192013 -0.0104478205396 -0.016777933717 -0.00797442087604 0.0249283140612 -0.00373602020946 -0.00180212354416 0.0511257490244 -0.00920999628789 -0.0166447307001 -0.000963342153721 0.0091426502834 -0.0440117696836 -0.0198054406316 -0.00575368950074 0.0125518634442 -0.0114494412937 -0.00695485401773 -0.0252707148095 -0.00873748397874 0.00527369245144 0.00701745400811 -0.0169312865699 0.014979660542 0.00207850795906 0.00699851206282 0.00997319109658 0.0238164024141 -0.00916672606753 0.0258006244561 -0.00727771404259 0.0021547545682 0.0146187491555 -0.005975251224 0.00486761923308 -0.00205961157741 -0.0120109388969 0.0130844715638 0.00131483904465 -0.0212460279726 -0.0105319106166 -0.0263124686659 -0.00998694538259 -0.029753918274 0.00973999464394 0.00356796890769 -0.00460220486778 0.00132953364767 -0.0255402562148 -0.0280327309233 -0.0293315019935 0.0130269966179 -0.00888309311096 0.00372843707251 0.0252981301111 -0.00788323224338 -0.00126340674014 -0.0232140156601 0.0116904218103 -0.0226935716151 -0.0250021015418 0.0297529097076 -0.00889832407568 0.0369718169711 0.00116659593586 -0.0113582815034 -0.00210265861163 0.0066399517199 0.02679272012 -0.0204960723926 0.0156515685588 -0.0161291755091 -0.00725736112477 0.0126014131094 0.0247087074405 -0.0112060926104 -0.0230555169676 0.0142076743651 0.0167519417293 0.00397432179634 0.0185788216009 -0.00901922643642 -0.00130469551231 -0.0271371993013 -0.01342916986 -0.0317809442006 -0.0189590695132 0.00096149388496 0.0185517423162 -0.00603538811963 0.0131771253857 0.0022800632489 -0.0227124918072 -0.00448752631523 -0.00166439274166 0.00193504866187 -0.0034263661435 -0.0183594448195 0.0165982791798 0.0479876638941 0.0174607919479 -8.63592751995e-05 -0.00795962191639 -0.00552769743819 0.0036448332991 -0.00529977132636 0.00184546804528 0.0208795292971 0.00795529850307 0.00939032587421 0.00809255705556 -0.000382476530631 -0.0110789688302 0.00761563642084 0.00187043184078 -0.00456590464674 0.0251771988437 0.00285420020837 0.0396102761293 0.011899172463 -0.0049310748805 0.00672088496665 0.0161929016539 0.00998296800461 -0.0475819289114 -0.0192559331682 0.0115256493149 -0.00681308425626 0.00443965989126 0.00902682045543 -0.0151980171932 -0.0053221117353 -0.0029065011756 0.00227132961541 0.00351838977319 -0.0324366588294 0.00208779526216 -0.0286357816983 -0.0272048853788 -0.0163972606036 0.016134680436 -0.0147186177786 0.014577771165 0.0258132632354 0.0177805859294 0.0123752099613 -0.00932073955174 -0.0222262683188 0.024412345258 0.00732450659816 0.0201947306202 0.0109183990747 0.0119090649213 0.0254712245194 -0.00903325015807 -0.0522599154825 -0.00109187329201 0.0213296790549 0.00249823711494 -0.0275551291588 -0.0100997309553 -0.0137199544392 -0.00769084916704 0.0516641983661 0.00415716738814 -0.0259451765051 0.00897048073392 -0.0211945017793 0.00379861026107 0.0278118231305 -0.0121744338213 -0.0351497467192 0.0249346093971 0.00739997294807 0.0108115441582 -0.0155840286086 0.0464443418133 0.0202568875575 -0.00650070637457 -0.0014305866763 0.0154473418622 -0.0257252832095 -0.00365534936942 -0.0233057893326 0.0225652215333 -0.000119601091548 0.0416797738711 0.00304207890678 -0.0183303702314 0.0122553140976 0.0282237141872 -0.0252268410232 0.0188470199523 -0.00352070664611 0.00827026217481 -0.0193352541394 0.00352851186148 0.00800073187061 -0.0025359531104 -0.0109422317133 0.0177321644757 -0.0145055841357 -0.0139466572483 -0.0342809906535 -0.00157728712459 -0.0144162393354 -0.00883408611571 0.00709079309484 0.00796638145499 -0.00627613444243 -0.00020581131409 -0.011619902224 -0.00188080886241 0.0391830279209 0.0154664704434 -0.00146989088169 -0.021886017096 0.00205083722478 0.00128819002774 -0.00416784050564 -0.00969128467935 -0.026224456169 -0.0232654989878 0.0229544304177 -0.0314539419854 0.0212998176701 0.011232427128 0.0348365173342 -0.00152007754788 -0.0070749923163 0.0250833219668 0.0174843801377 0.0111616487965 0.00812768178626 -0.0173128691184 -0.00127985223565 -0.0082445177633 -0.0217255513864 0.0195294781679 0.00661186528212 0.00917379531687 0.00680404327608 0.0174376979596 -0.00236210406787 0.00305394567006 -0.00480060899582 -0.00188015079241 0.0158794630459 0.00802440774351 0.000277611639228 -0.0237360283458 -0.0190329359155 0.013443217552 -0.00150918028699 0.0200733564625 -0.0476583126567 0.0183611799132 -0.0124458105465 0.0250476202551 0.0231750197854 -0.018295800795 0.00202397034731 0.0077474011156 0.000634121901986 -0.0390899695867 -0.0256287806387 0.0104413160191 -0.000486584485978 0.0188809816318 -0.0195950713169 0.0279266398784 -0.0120642174981 -0.0226957459155 0.0292512825563 0.00369219497241 -0.0116737290989 0.023834129408 0.0043303017322 -0.0040032105458 0.0273699526538 0.0180300174095 0.00693472591554 0.0278038937305 -0.0139774445549 0.0173757738216 0.0229526960158 -0.0278771323615 0.0481023613775 0.0160995610421 -0.028765741957 -0.0192230576167 -0.0111311203215 -0.00151542461277 -0.000484823242787 0.0100835595625 -0.0198076178422 -0.00730890154129 -0.00637657485961 -0.0485946227688 0.00831497170597 -0.00528109979303 0.0281072344833 -0.0191093685908 -0.00721513559113 0.00129492826352 0.000297454684307 -0.0057305099 0.00762091740346 0.0192562895336 0.0343808941839 0.00521543487895 -0.00879775371234 0.00148850680788 -0.0120031203392 -0.00749105812333 0.0360772110123 -0.00614151012218 -0.0196253911105 -0.00314349031101 -0.000353654294491 0.00935648004524 0.017761258077 -0.00514577792448 0.00249466907529 0.00560166523658 -0.017229626797 0.0127196882071 0.0362637963498 -0.00974187795579 -0.0203140418732 -0.00355067330615 -0.0123721346973 0.0192560058074 -0.0203043630916 -0.0132889898239 -0.0112865665718 0.0167316722968 0.00134072731042 0.00586060611631 0.0101119614672 -0.00857715548416 -0.0375617642716 -0.0183258924572 -0.0042453238856 -0.0100250595278 0.00497266647721 0.0203581868235 0.0255356030145 -5.67210253605e-05 -0.0381347930737 0.0113775616055 0.0110282572453 0.00467703510569 0.01889785325 -0.00552067443993 0.00362802924634 0.0312656965126 0.0362191259437 0.0205655115807 -0.0406036015502 0.0202730451326 0.00839578733478 -0.0109159950844 0.00996689489862 0.0211082405337 -0.00540104803287 -0.0461408274191 0.0135307080452 -0.0138176273718 -0.0100867449606 -0.0208134372676 0.00404365819872 -0.00774564223762 0.0140047048879 0.00472844568555 0.0176356418818 0.0369504171047 -0.0345383966364 0.032572851398 0.00234345627195 -0.0042845150603 0.0288971831768 0.010055885944 0.0132738843022 -0.0293601250994 -0.000988168551587 0.0250410604871 -0.0243608576065 -0.0116561133563 0.0210961135393 -0.0156468411597 -0.0348297703168 0.0138415179425 0.032167261926 -0.0283663921614 -0.0124364004623 -0.0126133121905 0.015081044135 0.00325218631152 -0.0172230232178 -0.0155591006036 -0.00538174284071 -0.00179446546847 0.00705512939549 0.00867754942294 0.0155963984335 0.0101764202368 0.0111603041342 -0.00315957971723 0.00441182444482 0.0242846413953 0.0179278916059 -0.0134065893222 0.018006462049 -0.00467313578499 -0.0162638254341 0.0155782265929 0.00459090814821 -0.0168141538341 -0.00628665805934 0.0134229264811 -0.0113834773395 0.029742701798 -0.00284833368166 0.00391839377227 0.0106588931499 0.00727460305414 -0.0117854641387 -0.0217102233076 -0.0120418274361 -0.0324705480453 0.00420087416757 -0.0100615983823 0.0194839731188 -3.48539600324e-05 -0.0345906922749 0.00166009333416 0.00872721111358 0.00625908361119 -0.00161711792694 -0.00101487263587 -0.00013653574091 -0.0231578128318 0.0238293060253 0.020739784415 0.0209826733054 0.0127838582242 -0.00289271439749 0.0278537591356 0.00364723421282 -0.0118675588848 -0.0339652012835 -0.0148724690313 -0.029847729332 0.00190601854893 -0.0127803526044 -0.00259748808996 0.0241918375149 -0.0212666662185 0.00387306757284 0.0126210888095 -0.00673424925161 -0.00622924735134 -0.00337672428079 -0.0128208102644 -0.0136722006293 0.0174414317793 0.0236558644089 0.00651597248505 -0.0192436551446 0.029425100897 -0.0114253901399 -0.0254897319609 0.0011945547055 0.00206038553543 -0.0202659380221 -0.00579596286039 -0.00489701481372 0.00206431600086 -0.0098774794775 0.00443950344308 0.0125374100523 0.00422200596966 0.00455694465615 0.0253132743726 0.0457221296177 0.00889732316604 0.00425435665718 -4.91630178897e-05 0.0020955173363 0.0167398118026 0.00105544297925 0.00717922106013 0.00952727183756 0.0157554093402 0.00932273654785 0.00209096341811 -0.0147506425419 0.0200634131022 -0.00376214488017 0.0511340447783 0.00476411157164 -0.00358043852697 -0.000164109169258 -0.000107955892798 0.00939960353772 0.0320544860512 0.0100922883177 0.0175267207122 -0.012393799284 -0.0283668726916 -0.0139701226881 0.0144041654123 -0.0379153354246 -0.0206090438626 -0.0157914448595 -0.00275715381853 0.0149363587286 0.0154514829637 -0.0140812045063 0.0223120962745 0.00350012610522 0.00679734192277 0.0187859955973 -0.0437635877691 0.0187991014707 -0.0104372600033 0.0115405432727 0.00723814531166 0.00889993505138 0.0148452916962 0.00568787122628 -0.00885612920885 0.0148073493259 -0.0194094021976 0.00715318920205 0.0150393653372 0.00497965367249 -0.00355308762659 0.0287815426773 0.00655377111962 0.0125363652566 0.00186594593479 0.00192085974429 0.0166296477511 0.0226957040581 -0.0400785460007 0.0235157661374 0.00992621514157 0.0293809199115 -0.00691206836984 0.00641506257056 0.0236545930535 0.00902624587248 -0.0139723960739 0.0121362952603 -0.0219590507545 0.00790263616492 -0.0136662617309 0.0181198523039 -0.0142033095647 -0.0048627241671 0.0192860047704 0.0020472312319 -0.0137877296616 -0.00196685488538 -0.0262517685603 -0.00882810487363 0.0327199552789 0.00631914833317 -0.0284889097487 -0.00163469230223 -0.0206261041671 -0.000911383558246 -0.00221808861275 0.0238439385119 -0.0139709432064 0.0264671880553 -0.000770199281332 0.0288132416 -0.0189075003335 -0.00555679222827 0.0184993458723 0.00341285496298 0.0061731170317 0.00133788369397 -0.0206361400564 0.0235103712867 0.00182356153909 0.0314440699226 0.0248704834512 0.00127616053422 0.0134145233864 -0.0128842477342 0.00579107908353 -0.0108924595654 -0.0246871473844 -0.000220886117798 -0.0199833740836 0.00181484481926 -0.012952597495 0.011953981014 0.0017868024312 0.00281263547874 -0.00448904132534 0.0320736502399 -0.0220489447901 0.0223431870027 -0.00164962360255 -0.0207949638023 0.00616756874485 0.00256911802256 -0.00307660596887 0.00120903626926 -0.000330726311585 -0.0186120476537 0.0331491818901 -0.0176667336071 -0.00675485327571 -0.0264709547141 0.00100606347689 -0.0184318433694 -0.020054793813 -0.0506185081878 0.0212406994934 -0.0201706200903 0.00965041962203 0.00776050753809 -0.0149734130469 0.0230405772701 0.0104415648667 -0.0136156339883 -0.0237470823564 0.00908993537904 0.0047822825001 -0.0105161955435 -0.00583796941084 -0.00133858400758 -0.0274854499201 -0.0189239892466 0.0182399509833 0.0247616378074 -0.00820889567683 0.00247446183962 0.0416327160601 -0.0251939359229 0.0104142046126 -0.0236527783901 -0.0296575798151 -0.00216905730865 -0.0166218729947 -0.0190482166953 -0.00489981214729 -0.0150492185431 -0.014873321932 0.0060718964867 0.00708387520546 0.0259777747149 0.0270062896675 -0.0284707471848 0.0258146923873 0.00359003261195 -0.027469793522 0.0508636892542 -0.0189546415656 -0.0198069108413 -0.0243011976864 0.0380971524465 0.02087870961 -0.0151417676281 -0.00342851592184 -0.0379934090407 0.0303053427098 -0.00919415699521 0.0220185887518 0.00340945735041 -0.00297606246782 -0.0113610710117 -0.00234362289882 -0.0363484037443 -0.00643733398697 -0.0291475124276 0.0158929897738 0.00542264265163 -0.00398937182417 -0.00459642155081 0.00114115086598 0.0141203505233 0.0224744955588 0.0049279143754 0.0154804747968 -0.0139861252544 0.00906560819544 0.000434712327458 -0.0363846376816 -0.00576907008946 -0.0268681324538 0.00112901678035 -0.0193168952182 -0.0269597456345 0.0343106036281 -0.0157112637352 0.00777518689152 0.01317282252 -0.0305283330337 0.00785502443929 -0.0115733703814 0.00286220674245 -0.00656687038241 0.0186727485419 -0.0179370732038 0.0044712118072 0.00332355762582 0.00190712779745 -0.00600359490418 0.0118568913689 0.0258485727568 -0.0191018947498 0.001150657841 -0.0312106080356 0.000552428927187 -0.00680886316493 -0.0125842751958 0.00919200418264 0.00737586356602 -0.0164460962874 -0.0131099005998 -0.00366594433928 0.0378096866173 -0.0132172752707 0.00434783676878 0.012453856306 0.0165921871348 -0.00745101542181 0.0293072432175 0.00797639734637 0.0104190746839 -0.0107991878776 0.0232130734703 0.000479255707571 0.0134902746258 -0.000411445106725 -0.0115997364749 0.0192835473624 -0.025786009191 0.0439638178683 0.00111155111626 -0.00162724740428 -0.0129229645281 -0.00763246895423 0.0200158562306 -0.0039139355696 -0.0106994929062 0.0301738646135 0.0294722378006 0.000130843166569 -0.00166703469095 -0.00302379128518 0.0169295251652 -0.0100836166834 0.0142177031649 -0.0124534851244 0.0277784919936 0.00921243350718 0.0119738990137 -0.00479855456013 0.0238666946928 0.0182574855383 -0.00104643666705 0.0233746116831 -0.00965516816133 0.0175725991597 0.0155041827852 0.0306042665621 0.00904379386781 0.0202158039545 -0.01310340699 -0.0207455796623 -0.0167001505363 -0.00482102417564 0.000431187715385 -0.0312307280445 0.00567822719912 0.00276896739051 0.00205373553995 -0.00745517813527 -0.0257870758336 0.000199845589858 -0.0280126132078 0.0218110553043 0.00327464197378 0.0112512050361 -0.00715229433527 -0.00409676235494 -0.0293350964176 -0.00493748494622 0.00310815869708 -0.0145299732005 0.0211185598938 -0.00875269782891 0.00732136609913 0.0242960917558 0.0150489388883 -0.00921285040393 -0.00283181874043 0.0464433310504 -0.043737489701 0.0211117909816 -0.0152690128956 0.0285915605436 0.00376022502993 0.000556845013525 -0.0131311890437 0.00396518176556 0.0301094324616 0.0502863225916 -0.00256262825472 0.0134596737899 -0.0141467410546 -0.0215944079215 0.0052709105451 0.00516127733555 -0.0039239281081 0.0200749706334 0.00814004359957 0.0198483140002 0.0149273540862 -0.0410792068917 -0.023390905882 0.0043085136295 0.000897502550742 0.00540769741176 0.0223739615728 -0.00618145197985 -0.00883692978214 -0.00365228812354 0.0201620059026 0.00220573282365 0.00845450111756 0.0245646580262 0.00325188156166 -0.00954264348502 -0.00962024897028 0.00942053580738 0.0108168333763 0.023626912339 -0.00477851188197 -0.00751628496342 -0.0161843558819 0.018819070812 0.013827008437 0.0106948531204 -0.0209632236452 0.00089798346587 -0.00482331831821 0.018984558393 0.0210843176197 -0.00709527915212 0.00686615419084 -0.0282501391402 0.00409721436267 0.00338456466376 0.00838351050096 -0.00852312323594 0.0213571810267 0.00226488069164 -0.0046230068062 -0.00274444578554 0.00529865907947 0.00987985406809 0.00272989726324 -0.00431086324564 0.0051011108398 0.00608815134825 -0.00677183702283 0.00928527410734 0.00928428225457 0.0291885364312 0.00521670396762 -0.00678297636598 -0.00178945566168 -0.0297264798585 0.0419082848424 0.0258145411791 0.00528564271806 0.00359542344852 0.00173312677004 -0.02881665817 -0.00335617185489 -0.0102580980613 0.00341475233505 0.00530185925806 0.0163485817161 -0.0189145243958 -0.0291285312332 0.0122931471986 -0.00159027165271 -0.0235198236792 0.025210211103 -0.00642784083245 0.00250602579406 0.0249428681894 -0.0333254700069 -0.00680404050776 0.00753237687528 0.0257357218328 0.0261678660301 -0.00409605139305 -0.00170233084169 0.011235092226 0.0112196021124 -0.000636180228383 -0.0174596354621 -0.0005257689801 0.0026025284453 0.0124306107954 -0.0194263937208 -0.0436087913012 0.0171313583915 0.0354358784812 -0.0117502143644 0.00204613591591 0.0227532602253 -0.0190160006837 0.0128619865167 -0.00715220554193 0.00996036334953 0.0166714644458 -0.0066004777987 -0.0253053591492 -0.00575035932694 0.0148551276181 0.014063997274 -0.0193812026991 0.0137073888514 -0.0194339558425 -0.00213571531166 -0.00821470804681 0.00446789125332 -0.00974131955357 0.000281347484484 0.00274247426134 -0.0161300466248 -0.0158772512663 -0.0496504202696 0.000621520994186 0.0177939937015 0.000248946799674 0.00394141665721 -0.0221107108966 -0.00669593176451 -0.0198995590817 0.0134226547568 0.00851178496703 -0.0357952277106 0.00195050666203 -0.0212712683896 0.00277915617261 0.0211184792908 0.019921974703 -0.00195117807629 -0.0149743235872 0.0347393119055 -0.018522941509 -0.000228972328537 -0.00241273121444 0.0100169981352 -0.00177591934415 0.0306482745762 0.0180458714988 -0.0432061213687 0.0154741231066 -0.0106417648289 -0.036247933009 -0.0036093745192 -0.00641126808104 -0.00752613690306 -0.015157534664 0.0244209848772 0.00757944296274 -0.0109333325938 -0.00376368277956 -0.0190323401915 -0.0193649683891 -0.0140627322959 0.00680264435703 -0.0116653740441 -0.00728412819219 -0.0159890086732 -0.0218291355483 -0.000575686290132 0.00448513945087 -0.00258275658698 0.0176430422671 0.00978123745437 0.00927364009433 -0.00537530062427 0.0222465920809 0.00322146404606 -0.0193347149886 -0.0091643046843 -0.0255307056097 0.0203182947627 -0.0177844713761 0.0215381494624 0.0228303345317 -0.0139290388468 0.0129108537832 0.0302217857046 -0.00267114515736 0.00245943905621 0.0187482086421 -0.00386105516289 0.00843477256826 0.0256465282169 -0.0149640697015 -0.00320773782032 -0.000581249163645 0.0190673718293 -0.0133948195652 0.0011004649192 -0.00795658146579 0.000881486521487 -0.0126963547826 0.000367401989525 -0.0350732154534 -0.0332829991865 0.023561117189 0.02004431159 -0.0134844848523 -0.0211654389254 0.0326204716922 -0.00189083446073 0.00971513745405 0.00308358653203 -0.0223986448846 -0.0430523731952 0.0220169997861 -0.0165030255953 -0.0172019953704 -0.0135991059059 0.029237058435 -0.0340209624185 0.00854449485543 0.0277219752704 -0.0173718053341 0.0502975932816 -0.0166265708326 -0.00320116773702 -0.0334003746776 0.00105860858389 0.0181249061493 -0.000577955456601 0.00518952773941 -0.0041960063168 0.00834158743917 -0.0223172579088 -0.0105579691975 0.00995947067869 -0.0125934159394 -0.00627376516223 -0.00394481929196 -0.00107048956232 -0.0130182547357 0.00826579338192 -0.02192110945 7.89712983939e-05 0.0198839054075 -0.00664633234422 -0.0102154482076 0.00542552453572 0.0279812261536 -0.0162129220814 -0.0207793708678 -0.012087415781 0.0239183507262 -0.0099345301485 0.00795429634084 0.000992409431292 0.00573338209218 -0.0179395117676 0.00216175836048 0.0248099306913 0.0181342810825 0.00725766653827 -0.0186454038827 0.0176025185598 -0.00232659166033 0.013310657528 -0.0439215985244 -0.0368685295184 -0.011929556975 0.0185469916135 0.0157897883834 0.00741146137231 0.00785696742362 -0.0012053170598 -0.00917546781562 -0.0322452708704 0.0082994510299 -0.00368509516858 -0.00193047624103 -0.00638515417305 -0.0160238982504 -0.0181486714846 -0.019988315279 0.0127022643343 -0.0148035114425 -0.0274860454056 0.000660912356266 0.0176159658276 -0.00903179896753 0.0146051593851 -0.0053253362957 -0.0291623977219 0.00391850051358 -0.026919865007 -0.033540289674 -0.00651938617525 0.00232204331361 -0.0192452033258 -0.0168223202384 -0.00569306706236 0.00195734665138 0.00138802413927 0.00734844302203 0.0130575450598 0.0207254670759 -0.025983815231 0.0199928698607 0.0213892315569 -0.0273641837828 0.00443516238934 0.0152685021391 -0.0013348086846 0.0293459142764 -0.00325238791981 -0.00409780800076 0.0102578021635 -0.0272073794044 -0.00461416129115 -0.0165924263889 0.0169825702258 0.0222004132619 -0.0350271159843 0.00457149291174 -0.00527316288944 0.0148175909984 -0.00723210498763 0.0230960254092 -0.0255080705805 0.00799406475505 -0.0159414075281 0.0113393543849 -0.0460462066142 0.0187186502807 -0.0195079443103 -0.0148368281616 