-0.0688377481921 -0.0755060401382 -0.272986508781 0.26441718583 0.479616277644 -0.0809096211038 -0.348895992271 -0.819639787878 -0.0274771053586 -0.391344996578 -0.509502643141 0.358019899216 0.0392737201395 -0.927014463779 -0.131216676336 -0.283751668981 -0.181202870102 -0.348903660532 0.186425386633 -0.299678465598 0.500493521522 -0.132329714747 -0.287551119048 0.0496489787839 -0.171779228134 -0.727881186063 0.402317261601 -0.342051805388 -0.133919784401 0.36947231782 -0.648311585584 0.068668647744 0.197335954643 0.0986408851419 -0.0642926978032 0.385477954848 0.247222726422 0.487547505398 0.147817465974 0.24809829889 -0.626326247112 0.154580931219 -0.321129875333 -0.337154216592 0.222592817301 0.625614425926 -0.083541048729 -0.338641927609 0.163416652101 0.493800955548 -0.123428765156 -0.183889241915 -0.513335233723 0.119772814181 0.579665708093 -0.21819578703 0.86158205153 0.121117726315 0.37347297354 0.177348024328 -0.632751983387 0.0329987171369 -0.659563887117 -0.30971368345 -0.375227026411 0.17036493138 0.584452919667 0.278675796244 0.136978200674 -0.0620274930601 -0.212348909037 0.144974876992 -0.150709188049 -0.191729951373 0.294871097638 0.0750166593024 -0.44361730942 0.0871820193873 0.531569534653 0.0968949258329 0.29846486293 0.00420375381256 -0.458152565113 0.361504622293 0.277441252303 0.132865633388 -0.178762464848 -0.328008626075 -0.500171746678 -0.460530799129 1.3421863345 -0.516554850486 0.131537534805 0.257225479204 0.45805518727 0.0825536287533 0.191692879908 -0.703374501894 0.400700962071 -0.0896337964771 -0.250085884416 0.381278715119 -0.039015381729 0.041412010381 -0.0713281091373 -0.0224920508975 0.128486621763 0.737244988552 0.33844489083 0.49527751051 0.164059959127 -0.575443004896 0.763708955462 0.235387374799 -0.376580849816 0.195166313021 -0.362590074183 -0.220222849943 -0.117179793245 0.563514457521 0.2313248141 -0.0369168220144 -0.0287393964173 0.144447897374 0.338425313943 0.307560140508 -0.485242490542 0.45708710426 0.604461858628 0.150517971271 0.398172330585 0.433280531818 -0.455985939347 -0.0086708924831 -0.252602901363 0.345158793138 0.865158847519 -0.442140845564 0.520032933715 0.1083192746 -0.451436266991 -0.193593858815 -0.520259154971 -0.0154021752669 -0.695569976933 0.410307329806 -0.182528539823 -0.328062235334 0.215068510607 -0.0832092123613 0.711638207417 -0.737224976412 0.711320787168 -0.136097297313 -0.650100763857 0.439978440105 0.713621865824 -0.260602529902 0.544674564693 0.292302605898 0.397576006285 0.189245234629 0.100586180879 0.200687454289 0.413453233061 -0.548849765635 -0.411207159593 0.766268731531 0.955903660757 0.370057442282 0.317558457886 0.678525183308 -0.0517301593929 0.867167949495 -0.201766564667 -0.0195057972996 0.295911527758 0.269556039415 -0.6803019523 0.367364592867 0.204412062437 -0.65671487892 -0.524182519444 0.103632972823 -0.173789213696 0.0861926658311 -0.251762766334 -0.237511914976 0.183455665412 0.15729399149 0.296627485719 -0.0642121490236 0.0258016084934 -0.177751448859 -0.45705070701 -0.848368543903 -0.238079173341 0.70005660893 0.398977860775 -0.716463658723 0.111251445857 0.255241291821 0.000356323057899 0.139027712331 -0.299408129232 -0.564379394129 0.0261992136694 -0.339516535293 -0.153732396589 -0.674139360535 -0.0822781577223 0.649145393505 -0.169936043659 0.0949617537735 -0.530773221291 -0.13109566353 -0.137415452489 0.0339843408083 0.0655444999724 -0.889274980792 0.263804000876 -0.13829074701 -0.396583164944 0.0769112270659 -0.0354180014998 0.832407422927 0.319281517744 -0.61981419933 0.0882022409599 0.12234290758 -0.463065480161 0.168238701538 1.02561771501 -0.0167153800315 -0.3772373446 -0.611047261795 -0.0601027484375 -0.594157032563 -0.0498707883918 -0.0427905044852 -0.31363124709 -0.410289642657 0.447095992452 0.351598328364 0.289180691239 0.0963270227263 -0.216071732948 0.511124926584 0.358305541841 -0.188464496983 -0.368423708496 0.47254462566 0.722015254563 -0.444144857072 0.456554270168 -0.265737288686 -0.837211272084 -0.257746644956 0.169472266003 0.408388534943 -0.320570803205 -0.320911451926 -1.21720441412 0.387272972993 -0.0221546972112 0.0229552373642 -0.710530393206 -0.687296395555 -0.351920006982 -0.191547144968 -0.372054467911 0.0280841604007 0.243635583921 -0.0326628941249 -0.719202944254 0.526443840089 0.103307885115 0.471174416364 -0.29422130943 -0.101123615833 0.317334440673 -0.206413539954 0.20523612001 -0.202167291667 0.00159539081296 -0.132033410327 -0.281057719602 0.216672853495 0.366362528747 0.676101917426 0.467242261564 0.160953964987 -0.2548402978 -0.116387657685 0.332622887774 0.16874342267 0.101068500886 -0.172263355094 0.32103976258 0.221313910439 -0.498316189838 0.06874523087 0.333816179924 -0.0676714429807 -0.241040426217 0.36964056169 0.264754630028 0.430121078164 0.0799771434759 -0.0405023574367 0.368522566027 -0.787130643094 0.152275994379 0.0468285332169 -0.294736023193 0.418538469987 -0.240956664488 -0.307401972536 -0.133653789056 -0.192513859244 0.345542145097 0.112418501929 -0.246017930988 -0.139733924298 -0.494402154084 -0.800430535575 0.00956864811347 0.336527451701 0.656348021007 0.159239106007 -0.680243757281 0.499362060049 0.106246100356 0.164393303129 -0.288619349381 0.568438649214 -0.420157416583 -0.260998543881 0.174362491168 -0.520470563017 0.364443604836 0.237155180153 -0.352797567917 0.182159434482 0.684319115727 0.576463777244 -0.607550426231 -0.0502538596186 -0.616896575174 -0.174692593686 0.283718507635 -0.490739780473 -0.656159681148 -0.173466747457 -0.192630441321 0.00140998083284 0.308315184429 -0.175462296136 0.484442414007 -0.175263781301 -0.357137286689 -0.0753608654388 -0.0531547517079 0.095744065496 0.337219824701 -0.17596888145 -0.630253747893 0.282733966058 0.128159990229 0.095643795225 0.781146099812 0.173639518475 0.286356172925 -0.0528267303924 0.359441838921 -0.510423914723 0.831812399034 0.00994834159225 -0.0956145166865 0.129238137379 -0.378432648314 -0.0867470022785 0.0938806529366 0.448594304279 -0.107706320104 0.0228244359511 -0.388609528572 0.174766966798 -0.381236612484 0.564785032005 0.0777271581155 -0.101767691916 -0.271552340895 -0.404313739439 -0.195771098418 -0.281261295042 -0.0455593959838 0.0307890598189 -0.409773506356 0.462167370422 -0.220055084943 0.0548269330152 -0.0708475601072 -0.464741552547 0.184987761069 0.176749512527 -0.640821483425 0.12292948218 -0.296810218534 0.249610439173 -0.484772034898 -0.178925793218 0.558125716645 0.259229239228 -1.05596147167 -0.344617808471 0.282371040098 0.222456399325 -0.0965350546545 0.599037146252 -0.944122529157 0.08284117257 -0.3621083624 -0.622040577573 0.0935771332132 -0.404876406963 -0.0198339483431 0.190946324215 0.163358866183 0.541036625487 0.822789076811 1.14656690772 -0.0749281794331 -0.2504833243 1.0378669874 0.424383104999 0.24098914574 0.0204023691622 -0.133110783589 -0.444957842015 -0.21385715717 0.189630343536 -0.738743770488 0.110043259724 -0.943575380425 0.0241143375912 -0.352079079117 0.234599006325 -0.156346071399 0.266776781049 -0.448328912623 0.202487592712 0.297401219879 -0.115972023866 0.0856980541951 0.0317726993504 -0.803477732382 -0.649849698829 -0.211383949773 -0.524112191008 -0.26664966536 -0.156630539471 -0.0727295677806 -0.463689124021 -0.563199866161 0.938745033382 -0.258528087565 -0.435858262256 -0.1334615564 0.903674940518 -0.205182405562 -0.244172815188 -0.279501421159 -0.559898086211 0.608763511101 0.271615225667 0.71192252473 -0.33968452416 -0.516494712242 0.193007189387 0.729598010976 1.0609803927 -0.10568556688 -0.143330394479 0.35539000355 0.580329957354 -0.449388873203 0.0795627035687 -0.0803637427149 0.312031181165 -0.044057459573 -0.308598721938 -0.555050214166 0.519053893564 0.181061965406 0.0316424055642 0.0213357824191 0.358558721548 -0.750036319634 0.00817406507841 0.00541196190879 -0.0811362225536 0.0920316052506 -0.316958661807 0.163375654853 0.310763103836 0.133339110453 0.180926352497 -0.0377498269828 -0.264849585158 0.0282536357967 0.270601196386 0.118412286298 0.095974983657 0.580195133389 -0.241345632342 -0.274728119844 0.26686165419 0.0786338329807 0.173819721319 -0.684342056215 0.0715727818151 -0.418881903308 -0.629504624661 -0.316460571604 -1.06922946473 -0.52061254283 -0.03679736555 0.318335047139 -0.146405311688 0.615015891555 0.166684829023 0.234143628407 0.292491113314 0.0335825208175 -0.135338681456 -0.343394824143 0.200061798524 0.450360884334 -0.114279660277 -0.240551593217 -0.556749397657 -1.11077378983 -0.0276735650972 -0.319032806393 0.0179407633065 -0.811254562857 0.0740526566309 0.0969243551693 0.30782941248 -0.40090078475 0.379769455695 -0.131848014767 -0.488625156333 -0.426330143259 0.247453863653 0.329283142763 -0.233740111565 0.0234381664944 0.385772288225 -0.349031014918 -0.626700932396 -0.440387649544 0.0107027948292 0.0918540412205 0.598774308774 0.16704905314 0.458482436505 -0.694793596049 0.00689694178359 -0.717477256341 -0.357535954028 -0.100952745755 -0.0961559029728 0.205803132834 0.0884410510115 0.116060870162 -0.0293936256801 -0.0401216386522 0.280756085688 -0.213958405353 -0.0186477805485 -0.279729927279 -0.0451429489448 0.772348597376 -0.977554772996 0.0772163979572 -0.0433278812705 0.804164562115 0.132124519618 -0.165018569952 0.332238919826 -0.704023370111 0.467759608619 -0.251122971762 0.734689620012 0.257137140885 0.119877696804 -0.24986586599 -0.242161789761 0.00654366667675 -0.329069148961 0.479718924441 0.638845305488 0.291527226384 -0.135221289293 -0.250166013409 -0.145661405139 -0.306458683546 0.0995321437206 -0.295026369614 -0.132526898015 0.882312222183 0.14715487636 0.388270779314 0.202132494593 0.209269625449 0.24387277552 -0.196580616836 0.219572498195 0.243600489405 0.183131741199 -0.148351814883 -0.815482203698 0.223139074553 0.502747739542 0.160828821749 -0.321927666926 0.175444103091 -0.115593742442 0.189033131123 0.0292531679511 -0.265186832833 -0.349721777223 0.0576917255353 0.103876679927 0.461678757052 -0.48378712243 -0.0179508277453 -0.284100157024 -0.210066800874 -0.0540113090759 -0.302784941255 -0.323288940447 0.140926645137 -0.535762364764 -0.292554967379 0.198582968461 -0.324713637658 -0.33615922836 0.00538637472939 -0.364255579704 -0.113059393197 0.0208504345925 -0.359621358292 -0.10227408863 0.833812039616 0.0939730935956 0.0386844330556 0.271027564406 -0.261966110984 -0.148263608574 -0.0791916123797 0.172029598023 0.0556552711668 -0.379485382738 -0.499850972157 -0.138801279203 0.0359090040655 -0.461184867069 -0.0150814298985 -0.153504331943 -0.0380252977059 -0.0999344934023 0.259300084466 0.225678976412 0.396257069333 -0.021137528758 -0.471867702009 0.47098382578 0.267530524909 -0.548509238548 0.334188870111 0.495322151209 0.210395197853 0.154142449409 0.331489615883 -0.440942021726 0.013421738815 0.225597767168 0.0136131724514 0.114298784358 0.333791319007 -0.252527884139 -0.347367253217 -0.0729919025363 0.544804188195 -0.240120806525 -0.0496959550119 0.0165261826664 0.466609681583 -0.364663395948 0.359755271547 -0.085543951732 0.047256164591 -0.654755528305 -0.0330125752064 -0.137625137504 -0.693851782426 -0.256666218299 0.320335474731 0.176080820763 -0.11808057517 0.7423585205 0.140503671141 0.190687553105 0.0462082956555 0.51038511874 0.778253385572 0.391855179647 -0.581519250523 -0.178010364767 -0.195165025632 0.29420636984 -0.324159985985 0.18442609563 0.0201707098595 0.110371105268 -0.0495745818502 0.339438423987 -0.626629319272 -0.738870605587 0.911786393998 -0.620053127617 0.034080719678 0.358372246329 0.140290058504 -0.165390248097 -0.217385046483 0.217868582988 -0.0952020035206 -0.0032555433549 -0.244851329368 -0.869007263899 -0.281246793322 -0.0853656924955 0.00361366017929 -0.0907496729436 -0.0600039006652 -0.812200531459 0.231792113097 0.97237961961 0.344722793086 -0.662790905959 0.205039002963 -0.0802630884743 0.439955287452 0.174427859168 0.497552110405 0.195998291705 0.541539548767 -0.347463378291 0.0418528163372 -0.433137380417 -0.0469545863913 0.0986205045504 -0.156167253473 0.923376801972 -0.0526875362459 0.298524994183 -0.235454773349 0.104550064344 -0.121673203342 -0.713145449764 0.463842258545 -0.451479006419 0.762706739731 0.17298177054 -0.270955518448 0.275210141123 -0.262200313403 0.258381196611 -0.569972434508 -0.1399362561 -0.266431858222 0.506071543465 0.583254675577 -0.220768003661 -0.126728865573 1.2963557994 -0.352043057896 -0.381077872626 -0.379076108027 -0.0160194244467 0.692718942793 -0.0351385624257 -0.111484979697 0.898577296284 0.544934573827 0.0574068970875 -0.348832643206 0.195671883917 0.327838723986 -0.23703065936 0.020241716863 -0.285997847077 0.166695540543 0.785207359679 -0.184240462654 0.641853351379 0.228680944435 0.0441018803284 0.390911403945 -0.11792715038 0.0190124845441 0.0258689416539 0.0842613424292 0.586815166423 -0.0357509870299 0.638859979267 -0.433225670889 0.164452862266 -0.37982183588 -0.662659702612 -0.268350876439 0.5132759221 0.698939280031 -0.0759640811575 -0.153156565294 0.242809145024 0.0815148303236 0.675358275423 -0.137193898288 0.0833980811098 -0.194393575726 0.481037002019 0.129372655884 -0.235312717378 -0.495613115427 -0.0727701310808 0.223978060958 -0.250144853733 -0.0431404877937 -0.51988933089 0.234541610545 0.39632756148 -0.302396643501 -0.110762417218 0.00555516928907 0.209836512982 0.272484860908 -0.616906903087 0.0867186054853 0.763023043814 0.374041431579 0.127579307876 -0.203944775046 -0.49086570947 0.108458352346 0.31460337728 -0.0245379651277 0.124519304518 0.142651224883 -0.317599772085 0.170459896783 0.0939202091461 -0.729654911748 -0.0365049662544 0.606674480185 0.111531959189 -0.554007612805 0.575497184191 0.0370308002012 -0.565555122022 -0.026402641643 -0.0281104770691 0.603633873275 0.0139665150662 0.143196676681 0.404947134833 -0.075018338816 -0.240112674769 0.207491467762 0.119905271962 0.655174014527 0.00625549267451 0.296527210137 -0.435441795067 0.306600031458 0.117355504388 -0.160611443278 0.0219232876717 0.930760366188 0.557804399875 0.0182648468525 0.403688651846 -0.188374208727 -0.55302498254 -0.332860232617 0.289324274009 -0.655788569087 -0.30548871989 -0.0794623508961 -0.044480015262 0.896057791365 0.101693155283 0.140131964624 0.367005436486 0.310365173886 -0.134342295756 0.182095295253 -0.16060985385 0.188509306541 -0.373343379981 0.442007930767 0.108721535762 -0.0617795613494 0.0182626879171 0.196966665182 -0.374485994931 -0.0258534480713 0.0517938478359 0.267175519884 -0.436600091526 -0.253875006055 0.408475326085 0.334881235251 -0.498277403824 0.207950279014 -0.538338805829 -0.334293624728 0.485403238012 -0.0853770075699 0.075253293279 0.702631168267 0.393730930874 -0.628260641957 0.480315554009 -0.292817473781 -0.0702813665869 -0.216624958579 0.149899047052 -0.948533819961 0.120541678983 0.282219707707 0.345675239198 -0.408170690048 0.460415083117 -0.654111836493 0.272456448982 -0.153042814749 -0.66819045626 0.431886008848 -0.278967761856 -0.261825338183 -0.253624944924 -0.0591441105604 0.335277894045 -0.319725256895 -0.0984390305642 0.221021707189 -0.366947375792 -0.00399883656928 -0.518095112367 0.421826961958 0.0558032728348 0.361676599153 -0.115063930799 -0.73255170262 0.502534682908 -0.564025671668 0.387667585831 0.123716735721 -0.404419584848 0.117513508656 0.501748320273 0.109106522474 0.138599867028 0.136560839506 -0.117386892426 0.112828401084 0.0759498111222 0.232161149864 0.632647683905 0.135410420317 0.280203463007 -0.110118006347 -0.325288335002 -0.661476470095 0.233114213412 -0.344654286285 0.191714858815 0.23828271602 0.0288544703686 -0.414821386811 0.41156287456 -0.227281347937 -0.62756267495 -0.943655868631 -0.0101338841252 -0.351821866796 -0.256432969957 -0.520836399123 -0.0797086624299 0.31776388541 0.0542408194594 -0.151361706663 -0.08783681041 -0.479666756565 -0.251350107014 -0.254248263174 0.106066513162 0.299742221811 0.17782118019 -0.156370419443 1.07792197456 0.560410582635 0.249318057463 0.414477333 0.350430097901 0.144598157256 0.181227035522 0.473101904616 -0.757370737712 -0.0603751067624 -0.16931342793 -0.779282753989 -0.32656531884 0.478515522667 -0.421533822577 -0.628098979509 -0.260779169879 0.0243670513287 -0.167176962941 -0.454304603503 -0.407456029499 -0.132095393165 0.377469847609 -0.741401329346 0.0104362476774 0.0153242499238 -0.246973314472 0.0651141355506 -0.157130476258 -0.406659469623 -0.0141391962296 -0.205790326452 -0.446179467659 -0.656345221219 0.249847090487 -0.610126529923 -0.0602284539243 0.17213909853 -0.495865997805 0.00844570112745 0.469927622442 -0.660008440477 0.0522201271111 -0.248240411327 -0.141879518426 0.170725764708 0.744522519683 0.135814986577 -0.513773813961 0.164869701717 -0.559139939578 0.178875484661 -0.00701382650535 0.826665087251 0.00556786193241 0.0606729932191 -0.175990162559 0.447131187957 -0.338570291123 -0.344204224153 -0.295921126458 0.384690035245 -0.62987919437 -0.343091307993 0.266604669621 0.494183535777 -0.0593438630928 -0.192622841089 -0.646018012601 0.0862081160497 -0.325317375841 -0.513201746374 0.0416374014324 0.605497066824 0.0829755907884 0.246188072422 -0.449871090405 -0.413250921889 -0.298477534568 0.65255829011 0.261579993049 -0.267086757144 0.354040686381 0.064849980247 0.426445889061 -0.0129961886326 -0.51663099256 0.355770510704 0.0425401981874 0.359600845126 -0.261870041575 0.26458105757 0.411083682374 -0.122531975886 -0.0456467160154 0.512665011944 0.75243677521 -0.329479802158 0.221523417281 0.502039678922 -0.263589575572 -0.193030693058 -0.766375573854 0.279310465163 0.0244461328531 -0.0106534418068 0.539668936929 0.523936033421 0.13429749351 -0.169233103879 -0.403618238603 0.486760149937 -0.371648973315 -0.117008143059 -0.509134539813 -0.330512928506 -0.240303202091 0.241881079283 -0.691313966242 -0.467655425413 0.091680559526 0.124102745473 0.0740168790456 -0.485105440733 0.514695475549 0.0592799070144 -0.0990500532072 -0.179009452718 -0.751984010672 -0.185039445274 -0.497672323879 0.183285060347 0.429277910632 1.07901069919 0.50750127484 0.0548864489533 0.452847743972 -0.210029796552 -0.0448458412842 -0.0996980461561 0.167896301498 0.406013525937 0.107256722512 0.00552743736973 -0.475523106101 -0.289182417099 -0.632591032906 -0.255968067302 0.222179657987 -0.666662265438 -0.256044740601 0.33228636303 -0.0933547060376 -0.103396600787 0.0135933922906 -0.0780655717364 -0.109025853473 -0.573600050551 0.0652581234084 -0.197980257017 -0.208519050221 0.113333025444 0.353883306293 0.360580816832 -0.417372601898 0.0776379718042 0.650951199721 0.618860457347 0.328028451688 -0.303024575915 -0.0779612569841 -0.549977456104 0.304748210749 -0.333587628852 0.508847069496 0.121831883055 0.271847180569 0.440670388235 0.276582059349 -0.520292487866 0.100559905138 0.0595205167588 0.256581758352 0.359780411122 -0.173914271865 -0.489105528417 -1.05639474446 0.603994539407 -0.267249940632 -0.240103626928 0.236120058259 0.150262230133 0.180565982729 -0.292090580014 0.120612611629 -0.322195931 -0.555965896666 0.70627983453 0.803072556794 0.00168971840869 -0.450752319885 0.13156587806 -0.562978833445 -0.154380223432 -0.237883857088 -0.0690857651211 0.157476024477 -0.654931276433 -0.661670951069 -0.121072913882 0.446403079102 -0.321415505251 0.396949406708 -0.479000944915 -0.0872906538717 -0.0146968543379 0.237455879482 -0.0876451563859 0.0386618073732 0.0214424046616 0.236839966377 -0.291671126814 0.0631793525049 -0.0613149315921 0.363644670233 0.275480326495 0.362117184434 -0.147883064542 -0.149795338942 0.00179490748143 -0.258402040234 -0.183461886763 -0.235561994568 0.0176619024111 0.360753922276 0.686048737 -0.217443083533 0.339796106194 -0.520274525844 -0.0855226930555 -0.348553789822 0.343876928128 0.445187917822 -0.115530273334 -0.0717056579261 0.0178849398249 -0.344039292495 -0.353523285649 -1.15887435861 0.23138702009 -0.335374863429 -0.65811652841 -0.826989704903 -0.402524768208 0.921904585099 0.747856778181 0.876971577105 0.181290797268 0.809146124233 0.822915328921 0.363726387192 0.684451759178 -0.611624583392 0.490299141176 0.224954273716 0.656236228043 -0.275662032144 0.541187827713 0.350424254415 0.323400047388 -0.705117556356 -0.0853451678296 -0.240017232853 0.0160466886769 0.0517877858943 -0.045948082202 -0.0568449984644 0.457924454207 -0.0471691357772 0.217260019201 0.228577715117 -0.285146836833 -0.203355429763 -0.312887417087 0.0689581272944 0.41713764264 0.025627534238 -0.695823103978 0.410930037473 0.240354235541 0.519511223012 0.439767626159 0.318580029129 0.163698648928 0.165456063898 0.0710961213575 0.0417906458188 0.245179892989 -0.247814883572 0.47563070315 -0.0165867769027 0.224946036025 0.426425062774 -0.610504259485 0.190162751313 -0.258810935475 0.360617185333 0.811123487703 -0.0114876193149 -1.26514793069 1.3063352804 0.706131404818 0.141750868159 0.00643227516424 0.407098167155 -0.336069594091 -0.313433027729 0.467353770492 -0.119738856725 -0.84367878584 0.72533556339 0.0579059774591 -0.437548933263 0.403089205776 0.00811651434697 0.291325136076 -0.132434451732 -0.0165188237781 -0.179630941599 -0.568650264012 -0.414766192609 0.332793033563 -0.277500982492 -0.00060178344865 -0.736497432199 -0.858597268387 0.264724973882 0.402828451184 -0.132775141699 -0.310357947552 -0.0523764174584 0.32319585006 0.500739108779 0.0401110837456 -0.51818781286 -0.33187705942 0.194006131657 -0.267660343634 -0.0532091678922 0.553711385927 -0.577345055075 -0.377992901689 0.224954027195 -0.214053824028 -0.155910040501 0.0571257948952 -0.334033874413 -0.324927985175 0.376231373049 -0.468790123157 -0.0698705306489 0.0729744274389 -0.427476990879 -0.675049176873 -0.00766754625327 -0.325082093085 -0.301798982962 -0.0116425876925 0.480807778043 -0.0702292723327 0.188029253406 -0.507164703105 0.170596134991 -0.0163276011506 -0.612375823071 -0.444223141125 -0.178487758492 -0.265859185736 0.0734951637397 0.656657456166 0.458390516648 -0.108147064712 -0.0797446849992 0.17091221929 0.225463379973 -0.0302873138343 -0.643599561983 -0.295042700061 0.212015147582 -0.384409887677 0.477041427427 -0.116570048473 0.106119406464 0.625195914009 0.0897565391633 -0.658172862283 0.834604712077 -0.218918168864 -0.119209166189 -0.167740357114 0.734056230771 0.367572300581 -0.965652663616 -0.220773442887 -0.370546218182 0.0321518550527 0.469226359119 0.0333296135853 0.0126643343254 0.0739170623493 0.542822811251 0.308018958941 -0.126203434716 -0.24609927062 -0.513070750104 0.0889090283365 -0.0659559081308 -0.18662637637 -0.462048817214 0.101623855601 -0.155335249723 0.292762462352 0.329566463226 -0.754522332879 0.598321715819 0.299683152465 -0.106432902099 -0.447173814834 -0.210845946709 -0.237023527752 0.568669407862 1.31301798042 0.25040716285 0.326460450754 -0.220843335693 -0.253690676951 0.158429873928 0.471934326786 0.0950597443631 0.277555952789 0.773299155684 0.868544714242 -0.0691579620606 0.0655907085149 0.0175678858592 0.746558980528 -0.0660861044839 -0.39876204471 0.297619680676 -0.21692505859 0.0513273886853 -0.227041765113 -0.375858087507 -0.480039313747 -0.468221537671 0.281586455856 -0.163821126673 -0.168871378453 0.0293996843141 -0.447630242692 0.327762933463 0.769273663659 0.368422375083 -0.470176200185 0.0994713147141 0.121301213784 0.591025599786 -0.116955879264 0.551680674897 -0.236298251513 0.135359130408 0.290697636703 -0.180136124862 -0.0882165162452 0.561841182178 0.660722698499 0.427316865103 -0.0978002524089 0.892475580933 -0.751722202965 0.152914190474 -0.0296328078106 -0.173040473727 0.0154201972777 0.290768714136 0.790346691832 -0.458959044932 -0.200231857157 0.596320429726 -0.134461546886 0.0860419305802 0.148355029277 0.479271983758 -0.081819601695 -0.290407415584 0.0591982482624 -0.0653559609344 0.344918487031 0.304152712824 -0.138922260903 0.295656252748 -0.335597441502 -0.967044162133 0.85819111535 -0.0343718232066 0.397141194104 -0.322065483468 0.155842631637 0.255113058609 -0.385207796217 0.367075149415 -0.949547517099 0.238166258212 0.0356452135341 0.173756881442 0.337635057953 0.0854290715204 0.063476347796 0.465005063673 -0.476665419028 -0.588480989027 0.464975476726 0.0957790914413 -0.364844795394 0.472032662385 0.103658155098 -0.602316969281 0.477267428948 0.514496629792 -0.313699050388 0.328629435129 0.274850606046 -0.386643114343 0.276087091539 0.161678754082 -0.314021198803 -0.0483483937426 0.418199601751 0.5683736222 0.163144615697 -0.271592531781 0.0786873253653 0.206807404749 0.356570118902 0.121695557444 -0.193560085528 -0.733942698457 0.034870275058 -0.180258673326 -0.50985906491 -0.615879970402 -0.390130644458 -0.239859890513 -0.106375691171 -0.77769678195 -0.359281966667 0.40128098893 -0.183309424445 0.00254359219019 0.386762476106 -0.0558057309088 0.110109746791 -0.325189264736 -0.840473314531 0.719041424598 0.222017315198 -1.52377938234 0.206241178665 0.138500764794 -0.0629848213515 -0.304731152952 -0.589441621641 -0.44247521487 -0.149118153493 0.329605903795 -0.381058743339 -0.592101540086 -0.289443775913 0.655810819272 0.231340123046 -0.358038757224 -0.271398342989 -0.838529635243 -0.524441058521 -0.034888231535 -0.273271356762 -0.316920708229 0.160320874008 0.134215378765 -0.366928920254 0.609763590708 0.947904573563 0.516401307924 0.339646637944 0.830802231709 -0.415174157723 -0.183698410005 0.22507574496 0.304615669718 -0.105962727088 0.323570918262 -0.0907979552406 -0.676255712279 0.377109339291 0.102160201574 -0.0201767997654 0.175963874287 0.453179443112 0.17313705236 0.227067210226 -0.215251512078 0.878201147081 1.04431227781 -0.135469134336 -0.518399971824 0.37455286331 -0.496004132935 0.0363184535773 0.111295565719 -0.0433403558047 -0.269132684954 0.578317663389 -0.16784929912 -0.349646759253 0.472758398835 0.0232703654306 0.416021550911 0.321066280406 0.611768687961 0.400998132092 -0.216152439225 -0.138541039185 0.450203699952 0.378155008267 0.239762124765 -0.513828176674 0.0168031312438 0.721201958049 -0.308138962929 0.114949816819 -0.0640726083038 -0.434086983994 -0.331664916795 0.173051217662 1.17324831269 -0.917969940023 -0.372767606832 0.428976876516 -0.669071617213 0.436263142248 -0.477981748218 -0.275448392392 -0.0648504535452 -0.146727417773 -0.35533922984 0.46590617214 -0.290478137961 0.92575123248 0.0332010762655 0.197532422651 0.454817994255 0.213718897092 -0.401833306272 -0.509721132559 -0.259953940793 -0.0719574733445 -0.133876043979 -0.552296570898 0.522805152572 0.0559787216367 0.0527446439238 0.306049747823 -0.0944864971879 -0.241123262291 0.321571019218 -0.740890148639 -0.62957437181 0.109567100541 -0.181358435978 -0.355404991096 0.0211650159645 -0.00600849063605 0.682841891257 0.271345074007 -0.2117840655 -0.620324174714 0.873739423819 0.691752846668 -0.0478504194942 0.935346534259 -0.149065811493 0.0384496526599 0.223456736519 0.0477072055124 -0.929532726527 -0.277949035274 -0.184121040453 -0.249954657076 -0.320369113834 0.00974951905077 0.70082252256 0.338171944148 -0.714719963107 -0.663159138624 -0.483077633287 -0.438851484601 -0.149606633137 -0.226744160998 0.169700335384 0.634870500771 -0.515057520761 0.354030756832 -0.631647089827 0.247756216621 0.327633782863 -0.097304517432 0.222392592364 -0.0547025581872 0.537324292885 -0.228055193843 -0.633939486017 -0.396280328018 -0.383481655297 0.038348883302 0.279099453344 0.443694610135 -0.331176912662 0.10758977075 0.113343189516 0.0314678375405 0.41799954216 0.0470645745244 0.294229892344 0.182318517201 -0.334466628607 -0.312052929704 0.39475197598 0.270218703506 0.416651164858 -0.727334582554 0.546370387777 0.325150794729 0.352714051506 0.33118314179 -0.125971814491 0.0307367064525 0.307229636619 0.388354993005 0.314934518861 -0.422045294707 0.139894535851 0.148705525483 -0.453959251303 -0.246880602216 -0.0345604479778 -0.123775050293 0.663020524746 0.0407408212734 0.109846388182 0.735733999188 -0.63273401523 0.518913186736 -0.350100591718 -0.526329410077 0.316282389401 0.317734190425 0.221581101012 0.458676635631 0.466784470892 0.0806033714335 0.299978609963 1.14093118865 -0.694304379101 -0.267807166385 0.384515618937 0.00541171023936 -0.0432743145131 -0.664934444518 -0.360144311236 0.286308118777 -0.0181135609054 0.0666372004863 -0.389796817103 0.38806401579 -0.569290975702 0.061531035448 -0.541228180047 0.0568354087367 0.355465513636 0.0642105270797 -0.393329972642 -0.517769710026 0.213516337544 0.0403364634327 -0.148865788261 -0.105253379033 -0.120147677221 -0.15058813585 0.186036337764 -0.157771134653 0.286754558562 -0.0650591195935 0.195369937375 0.383277645586 -0.0845676333992 0.339049138567 0.113904615555 0.482791049995 0.220129544607 0.30700871558 0.151335055176 0.204031040258 -0.0852563701339 0.28538311823 -0.630219806601 -0.202269813459 -0.145201961967 -0.702764235494 0.190831049772 0.241060606403 -0.619277306926 -0.51275703351 0.493254911435 0.429392105878 0.0436113521884 0.199524030786 0.166522751145 -0.393335836628 -0.243551752696 -0.0206896140375 -0.0348743313216 0.36225711542 0.428507052513 0.396468768505 -0.473373733019 -0.0339459152095 -0.323093524492 0.345401546495 0.0254063630189 0.21520022674 -0.125084097269 -0.816703427632 0.552106198817 -0.7701674325 -0.202274710975 -0.328645965666 -0.480254124797 -0.412742485059 0.0769204597096 1.06417334186 0.0221989473818 0.0692149871044 -0.302717537634 -0.255138292321 0.376482987881 -0.171244363314 0.206638071562 -0.018371758497 -0.0928487223072 0.085295508567 0.321516941114 -0.0498860169786 0.11588652933 -0.0918990341217 -0.749755164689 0.183902207262 0.172524236315 -0.514835735503 0.311936744991 -0.22955334078 0.0162782443973 0.308004910747 0.304977382292 -0.886882052456 -0.141524786643 0.480701806571 -0.256277493142 0.19856987784 -0.625185491117 0.844609510555 0.0777328263132 0.45275901894 -0.192884504219 -0.525459476407 0.163693262929 -0.253714752886 0.0411274796244 0.761540662875 -0.247316473375 -0.828241606292 0.475702422159 0.48186606424 -0.615141735883 -0.534124781311 -0.292826196537 -0.540444749588 0.797232712594 0.00419218594733 -0.143933006235 -0.0458483422225 0.181161989196 -0.529931251248 -0.121660700976 0.125589294211 -0.196592157012 0.188527593227 0.364686599309 -0.143806161932 0.103700411234 -0.315005611565 -0.325695678479 -0.223598024359 0.42515449011 -0.876120766655 0.171524904169 0.270814162236 -0.130834050742 -0.548231137505 1.01151765218 0.118723128057 -0.0124198465434 -0.449414174245 -0.832618391732 -0.0574781529264 0.136390160941 -0.0381249936368 -0.165160870121 -0.393509585075 0.0465926640584 0.127034822636 0.260654244851 -0.146467952069 -0.341986278106 -0.202236102556 -0.103365308723 -0.759544484446 -0.562535064653 -0.829656030056 0.298722521037 0.240773638287 -0.728498544493 0.272525104353 0.100738430691 0.422310427335 -0.848529501656 0.644333168945 -0.108598105013 0.482014776314 -0.426540158464 0.101659867178 -0.311584313986 -0.355294335574 -0.435129024687 0.0261182181534 0.391665629596 0.354463444294 0.0373038391692 -0.572463257817 -0.336537311121 -0.42725463643 0.0356158688375 -0.391446446803 -0.0774468495351 0.146861415144 0.522710576929 0.0928313367845 -0.360211052432 0.048836116769 -0.419833316027 -0.418888175348 -0.703543630948 -0.535152319705 0.233654226119 -0.0109799690304 0.161585563421 -0.30269455416 0.312907139107 0.34274596491 0.301568278041 0.065082693149 0.67638176499 0.134228716357 0.424285533503 -0.183237188802 -0.246470106117 -0.593060959767 -0.0243307963649 -0.204737260379 0.214539272748 0.354683579905 0.206515286827 0.0630796931779 -0.0229201279609 -0.154600012094 0.269402963988 0.0368119271329 0.561806909396 -0.244342011425 0.0999939768677 -0.0874085272407 0.326722782158 -0.267554157152 -0.136266738752 -0.537562609973 -0.0476281177541 -0.474673967952 -0.12205561749 -0.00994956313505 -0.294626801158 0.339202626807 -0.0603165018094 -0.255918061807 0.522435674705 0.0554898673045 0.314330000793 0.0899256207178 -0.560451313028 -0.176137932634 -0.0838056497486 0.445674936179 0.403998067906 0.667729628598 -0.471686322853 -0.705965169397 0.207592095326 0.651055066725 0.189181365681 -0.557536220932 0.221322437586 0.530795714525 0.150583524176 0.295410581056 -0.0411077266329 -0.0663593126169 -0.0632485693689 0.303274073006 0.213580931685 -0.457022582539 0.763282219708 0.346205441551 -0.470484572811 0.0583880963346 -0.0326203951076 0.439507224859 -0.137162356231 0.0911215761098 0.0542449593351 0.268750197272 -0.0685443495717 -0.0965360539826 -0.555773738856 0.00321147779646 -0.208967668356 -0.230981683177 -0.253126192168 0.0346004105439 -0.161306381459 0.771054798139 0.19207507118 -0.457589625202 0.511931046304 -0.677418346779 -0.625794607669 0.167119051483 -0.0397135375628 0.132208724374 0.529374799115 -0.309596992969 0.154526521249 0.0313921861169 -0.300325443288 0.263226091012 0.545835387448 0.19985797316 -0.345613710056 -0.0975082383522 0.34941419177 0.707711167371 0.0567264024003 0.170606199311 0.324941270299 0.0582537275831 0.15554538497 0.207771082524 -0.179382964828 -0.400542830478 0.598185902553 0.527470089516 -0.139760867634 0.132492310191 0.412446866717 -0.420636567817 0.825881272523 -0.47236609733 0.0816220199054 -0.68715363422 -0.496796003052 0.200138197734 -0.048512645234 0.102019988432 0.40368363982 0.122908127698 -0.237559970323 0.0234961832463 -0.271118617856 -0.280426445004 0.0387237044631 0.265566764358 -1.02476545904 0.123893073544 0.0568109161702 0.358875738241 -0.231373452747 -0.087933690165 -0.168781976338 0.110879583989 0.371817031166 0.164116607519 -0.0877108528466 0.420782345814 0.278917932548 -0.260279324751 0.0854810842105 0.205776329799 0.426613528216 -0.220251710079 -0.14380776662 0.121828587433 0.154350585536 0.114307194686 0.09503418254 -0.380411906281 0.483382986692 0.203910988414 -0.265169865659 0.209176756023 0.777325725361 0.753213863005 0.0353650985519 0.0492713474517 -0.170335567005 0.303808774539 -0.864637612829 0.376796204298 0.0470734467475 0.433145216794 -0.314056157292 0.284409353487 0.235624069055 -0.471415161719 0.0315151955594 0.175351157571 0.273010648179 -0.229337048107 0.464711693065 0.524013093291 -0.122597888451 0.238763609909 -0.0667348610451 -0.083824238465 -0.105942409499 -0.59755780021 0.156863305293 -0.240891137471 -0.562678134501 -0.354710424176 -0.17093987189 0.513914999386 -0.464692476461 0.522070498738 -0.302594851908 -0.31966968231 -0.48090437199 -1.05837625243 0.490923364351 -0.319767345201 -0.265986367258 -0.230955542112 0.114886769955 0.254184419553 -0.181645267141 0.272128534883 0.00411414655085 0.382637350801 0.399214916318 0.194748407459 0.0714254206026 0.617552510299 0.350398457065 0.422165149796 0.835414108598 0.699958768889 -0.505656756682 -0.821367793503 0.116986544678 -0.51623485503 -0.0457711991657 0.228837165128 -0.0275918681339 -0.188385690758 -0.592476440044 -0.460375807223 0.252407667878 -1.08268870896 0.796072466809 -0.187650207106 -0.552373700935 -0.426413132988 0.480006533664 0.408799500477 -0.382563322463 -0.613159307649 0.0129715569134 0.239788595518 -0.892467916616 0.602748835314 -0.508070773718 0.312751475379 0.582289114146 0.504998860468 -0.132347718011 0.567844298743 0.386019492573 0.0815685636045 -0.107679332374 0.387770662423 0.40853005073 0.207605198224 -0.424472036899 0.226608909193 -0.631719798853 -0.314711665824 0.054674676442 -0.317092713745 -0.109934055398 -0.163364975702 -0.0798148878216 -0.463477268486 -0.306933459986 0.126291865827 0.232067046457 0.348398850436 0.489779466526 -0.333578492697 -0.0437756737625 -0.419201708658 -0.357231015056 -0.191808067414 -0.41854236683 -0.276139803505 0.782306830665 -0.356664310341 0.0232259800568 0.10182285559 0.450701987433 0.276914227971 -0.292656551092 0.620719634875 0.359283092386 -0.223691355679 0.587549285338 -0.350350660441 0.715916001137 -0.307126969151 0.192508690666 -0.734766663725 1.02716904067 0.0513423722852 -0.959881199126 0.101067783047 -0.553612805481 0.283531562565 -0.199182198585 0.0207821062015 0.157095197867 0.815385360989 -0.446800827781 -0.68447875304 -0.216593945309 -0.104949367629 -0.0788831803766 0.335547939198 0.0434643679114 -0.298922819993 -0.444641018128 -0.0716340348495 0.155783624665 0.410702218422 -0.257263504463 0.0702079172775 -0.720652133817 0.224456956853 -0.00969320255331 0.114814225995 0.201349195924 0.497721692298 -0.237039815507 0.110525586787 0.0292696748813 -0.573067266455 -0.522287471396 0.384697200803 0.0848292705331 -0.11584315773 -0.0728759572168 -0.0585585185156 0.58597812246 0.182081576799 -0.239800742412 0.0914176210055 -0.170247722443 -0.0328220286462 0.256558209235 0.153676197275 0.274516159953 0.406415967491 0.0457052514794 0.144539967781 0.907497361339 0.338977740966 0.170112773408 0.513625057186 -0.601098308751 0.586053305796 0.743368451297 0.914200939117 0.512079470307 -0.0780028636378 -0.778004986006 -0.382413654276 -0.43107610858 -0.00749032256233 0.461285085556 0.109924016118 0.514543298826 0.0161132530673 -0.280942193361 0.924010586497 -0.205370021743 0.344340013416 0.257391093383 -0.0824914177514 0.0615463300876 0.142094809786 -0.67903607708 -0.573641672845 -0.192315825441 -0.688109574275 0.207682168191 -0.125193600766 0.356843885618 -0.110550056833 -0.329204441628 0.201367638382 0.626838424743 -0.395409929179 -0.153776351746 0.611765120313 -0.364031992898 0.476398375324 -0.613868377138 0.326888392127 0.086382661054 0.139486116711 -0.56494345569 0.00427754632027 0.304293150762 -0.276702711091 -0.270521558697 -0.075182032461 0.619561985254 -1.01261340024 0.244009132809 -0.810304148036 -0.235672752553 0.142887316155 -0.948263646375 -0.27650252247 0.379988818991 -0.242960391092 0.350944862899 -0.409949884167 0.234522086338 0.566800870543 0.0873447228528 0.00654406238142 0.2520512372 0.364151888882 0.255167886885 0.160805829911 0.125077956132 -0.942997397801 -0.30368371057 0.969504522171 -0.608753372821 -0.489096434857 0.394045542244 0.127657198774 -0.546168342561 0.190485772581 0.505168816827 -0.128518208142 0.362725753621 0.13098061692 0.0920469141472 0.559403767468 -0.374762951585 0.295808633165 -0.216532529965 0.891157896851 -0.345712062874 -0.19050278171 0.562883797071 -0.388384660659 -0.820326742502 -0.0961765118251 -0.0454424213401 0.108928494938 0.176264387837 -0.552517077216 0.655548140606 0.46644662663 -0.473196640511 0.204468902893 -0.240593936113 0.331368268411 -0.131669138727 0.585690512147 -0.422281764032 0.887252238616 -1.02280715865 -0.199137902356 0.684009486313 -0.202970064682 -0.262313762593 0.415175839586 -0.0791929336267 -0.571734881214 -0.885998216939 1.10301107419 -0.143758425944 -0.221074801905 -0.10813520248 0.750037373384 0.000793500202835 0.475330015607 -0.246885546923 0.171573024845 0.425713887752 0.469189252859 -0.243771558945 -0.449627043551 0.292077433087 -0.0270725330831 -0.4107374272 0.702699551139 0.265510923366 0.136459590528 0.377025720929 -0.42231390767 0.353972167864 0.0507502876902 -0.209729564403 -0.773973758322 0.616945431455 -0.469661096115 -0.7411169944 -0.135632164553 -0.133764128577 -0.251360230728 -0.272262644389 0.331172070788 -0.607313734047 0.529182766801 -0.218968379142 -0.200780261523 0.22124946494 0.639025728002 0.394379784682 1.06330547524 0.230990595708 0.895402113912 -0.0872313178121 1.05220751977 0.348939182883 -0.298253138013 0.273006766211 0.105114091581 0.193857492553 -0.92283923228 -0.310691450946 0.241924653062 0.292248660655 -0.937198677651 -0.188670773673 -0.0780504655093 0.0617701496852 0.121335261269 0.158059293432 -0.0991671738543 0.461385821615 0.316625124445 0.16656012092 0.290274892575 -0.230530938498 0.0635718773379 0.308854871167 -0.0136153353259 0.724390116121 0.160113980992 -0.00827534623759 0.0741092777064 -0.702748518587 -0.133600635201 0.633403943679 0.596455732179 -0.295547250145 -0.507366209914 0.128115244121 -0.352346038518 0.320288387124 0.207636922901 0.434373669231 0.299138738576 -0.0948827184379 -0.466289378126 0.671177166139 -0.118246342643 0.500283078703 -0.460939907689 -0.373634345873 -1.24893352945 0.28162363425 -0.193553620991 -0.0490722388536 -0.0402843465223 -0.203610768324 -0.532744263175 -0.329191424828 -0.456602723536 0.0501782895061 -0.100430937091 0.113597432365 -1.11341988058 0.0386981843529 0.759734604919 0.232327132169 0.524061180266 -0.61671369511 0.579996549115 0.166902792119 0.239201820447 0.301139963196 0.239646242284 -0.135359589871 -0.373877966087 0.10791950969 -0.340224917047 -0.861833680951 -0.0142016782725 0.441197544769 0.394484497037 0.111925340796 -0.422624016164 0.263390245648 0.133111545431 0.311201991953 -0.374772980711 -0.099347847009 -0.641968509093 -0.258026297942 0.551742606747 0.0886448637619 0.35989038453 0.266097424414 0.880851244134 0.0779409463827 0.617894991708 0.299632458121 0.826098480731 0.297517408288 0.623984090917 0.326955343397 -0.250594143908 -0.47839044259 -0.483054330723 0.216484796289 0.134589362597 0.280538546038 0.147323154265 0.262406426889 -0.155706504517 0.277728491911 -0.336660333712 -0.304731389375 0.644133592889 -0.683152066246 0.416268839144 0.0270871828089 -0.357888283742 0.510346118057 -0.20965287401 0.138637723474 0.941392475143 -0.0360910505048 0.546456746483 0.48699460794 0.263133706362 0.084028079119 -0.270532548015 -0.193700229623 -0.52563161218 -0.0649546711105 -0.211837632796 -0.578520038716 0.273733371141 -0.614363921017 -0.747022424891 -0.292793788376 -0.0820673885346 -0.00591277604032 0.282445331732 -0.537361141918 0.290653164374 0.644281381452 0.178180269666 -0.506338452082 0.23537096089 0.151921270498 0.496355353963 -0.22708913647 -0.255596222458 0.331740395132 -0.373209949423 0.021548147223 -0.13201645214 -0.481713307189 0.669910213456 0.397592250059 -0.569428434952 -0.120374903144 0.304742038709 -0.501177920737 0.332413368618 -0.17966368564 -0.174879047121 0.0129407339242 -0.142477368755 0.579874689674 0.500211592937 -0.32491323724 -0.196341868656 -0.172077018509 0.225288848561 -0.191009229861 -0.854710599996 0.0921921891582 -0.33763541594 0.387330784465 0.293004399641 -0.090616131346 0.792125230808 0.485682563214 -0.403118456017 -0.588535369046 -0.162655509575 0.0460383229173 0.42017583649 0.302038002283 -0.571126882511 0.427634066803 0.0714266390697 0.276769625158 -0.632688786519 -0.0596171791558 0.625374844751 0.240997104816 -1.13039197095 0.245338515258 0.0682186546176 0.554394963153 0.386541533575 -0.297155123899 0.176161606579 0.361258299524 0.111263470639 -0.0748708692426 0.653288013876 0.116387575285 -0.0876464195498 -0.240010814592 -0.263251335665 0.184355795463 -0.121170731139 0.184401548576 -0.298678850191 -0.678578915508 -0.253947635371 -0.196424549236 -0.417414842132 -0.0342089249689 -0.415986349048 0.351539496554 -0.396410377792 0.105318940675 0.220621933304 0.113998589672 0.0331485315411 0.16251984998 -0.942078024959 0.853032294661 -0.148122598384 -0.367144741539 -0.857088025756 0.655610713366 0.541387149993 0.237771911582 -0.0800740135054 0.11743725121 0.2313266728 0.125359703449 0.510850695333 -0.255318289062 -0.255709784723 -0.709303797546 0.343112751262 0.168966096619 0.136009370819 -0.129587448703 0.0383968551895 -0.388133693464 -0.0959326313202 0.659896380439 0.588060731771 0.0566107970421 -0.675294363352 0.497438867134 -0.756583760094 0.369838067886 -0.264501361093 0.212835449195 -0.776059861078 0.471695457362 0.537948949823 0.0805009887536 0.182268384326 0.560590818642 0.501906445082 -0.144929724182 -0.00233012403365 0.930397132861 0.0576280071369 0.393368180772 -0.0149101436882 0.0544358532467 0.0889816644801 0.153690512696 0.781891692456 -0.845215625813 -0.0368624210817 0.103868663657 -0.443612788284 -0.0972926622755 -0.265022191128 -0.399913533772 1.03376458078 0.15686237884 -0.402650800309 -0.00880660734389 -0.354819283198 0.360470657365 -0.155569586844 1.06666429078 0.297466258576 -0.127689009886 -0.445089531078 -1.00713641166 -0.703759957467 0.463110366459 0.0793346944002 -0.161073029134 0.272204814927 -0.569053820649 0.605692668903 -0.14258515786 0.531121439888 -0.651368273192 -0.296116479317 -0.101759498464 -1.13724829293 -0.0165436233194 -0.191781189052 0.443101444034 -0.232298046218 -0.48360519179 -0.507030171494 0.362363127036 0.416964021852 0.598155879256 -0.77635387684 -0.245789178761 -0.1498179307 -0.193141497683 -0.119419929354 0.623071934617 0.0959727270605 -0.0660034880899 0.219211563447 -0.612258089309 -0.783806715363 0.125701821235 -0.12027559646 1.0431412125 -0.555711385277 -0.0191873511343 -0.199644053681 -0.60319256748 0.0672912194098 0.390984228824 0.280776577849 -0.165881320894 0.939534611679 1.25838415022 0.436479478679 0.505342974458 0.543310069006 -0.280716426381 0.299329755714 -0.277173612899 -0.209455641094 -0.138885262589 -0.0539007331166 0.141875341347 0.20157182421 -0.349341246823 -0.268818245972 0.237425189323 0.240522266897 -0.207065649283 -0.385554557775 0.650872602842 0.0850065559697 -0.151832285235 0.380759933879 -0.684666233166 0.315983250039 -0.229152760935 -0.244037576367 -0.214841942007 0.112360089048 0.606693330058 -0.0963816672405 -0.142941836021 0.145434028349 0.0624556493154 -0.2888527164 0.0397752109905 -0.259075719316 -0.179422479246 -0.795392515025 -0.681016118602 -0.257458477666 0.682120048723 0.0773281055122 -0.254075110276 0.519951201781 0.468368110117 -0.310070108706 -0.0970960778926 -0.753425121165 0.464269041786 -0.383979509302 0.353966650366 0.0836995418723 -0.168462859872 -0.215077458309 0.298358863018 0.757957004233 -0.344272986487 0.0554378157886 -0.616595239557 -0.0349637622783 -0.0675942307319 -0.567106466229 0.167550045232 -0.68274395208 -0.440520109458 -0.149216087253 0.797498842771 -0.325771575423 0.236886862422 0.62949080768 -0.372390032381 -0.160237106174 -0.634897918903 -0.308997982053 0.488307165442 0.749584690277 0.547597821145 -0.215549533998 0.414330079511 -0.495338359975 0.0999275280449 -0.57893847808 0.173062677417 -0.101932679146 0.374858866733 -0.15862954691 0.349650479034 -0.302227933163 0.304674551449 0.0780384615014 -0.365940647199 -1.04499440596 0.768582653824 -0.710301300808 -0.383996261576 0.00185339118953 -0.144244662326 0.414757122643 0.673801613356 -0.231507854592 0.313754576766 0.277528106639 -0.677614835799 0.197860760227 0.140862186878 -0.305759076074 0.321715910393 0.359214228397 -0.675635180488 0.240308202403 -0.43382724792 0.376643306163 0.029962873339 -0.0214101973103 0.00423112082453 -0.122267862701 -0.133030943045 0.595587702193 -0.13176696564 -0.657383192774 -0.494788725621 -0.279369352357 -0.00290472883247 -0.462630224127 0.113351514587 0.0269481206335 0.217326045532 -0.387439524329 0.427741443687 0.46680466796 -0.416692152669 -0.0352975726765 -0.282904062866 0.46660262935 0.109177470774 -0.162912476739 -0.239199621183 -0.149093565346 -0.561666562015 0.374645402052 0.615983609044 0.740500730919 -0.244197873623 -0.503043557454 -0.31702356162 0.26759436799 -0.117020066754 -0.434912076016 0.737568914554 0.123771232874 0.0690827962702 -0.25551069851 0.525626937219 0.0256505479224 0.816540907199 0.34969686433 -0.426966370004 0.0679463171513 0.531841052409 0.206728204781 0.251492220003 -0.2408528208 -0.35508488862 -0.0520265542822 0.715951976862 -0.253092288258 -0.306076930418 0.307919629706 0.12025430928 -0.541306998728 -0.15022388408 -0.573431521785 -0.10778200444 0.222422609939 0.722604819783 -0.395241507803 -0.109200495746 0.0838868057193 -0.122802850126 0.285835332791 0.352967250413 -0.0680211010838 -0.200735287054 0.177482749233 0.679091930454 -0.68409954751 -0.633273117085 -0.17004467618 0.501981794636 0.44031173125 0.200801346029 -0.089369278233 0.084819289059 0.171270015181 -0.656605829555 0.399236481264 1.07150858603 -0.114118148423 0.468540118096 -0.0779525574359 -0.0506029841837 0.607983955871 0.54455897566 0.0816421177488 0.00591289741263 0.165474773154 -0.670909736133 0.259065469331 -0.497186021686 -0.0409309813211 0.366058751948 0.353625303346 0.63640007414 0.305361107612 -0.00189134080038 0.067330295424 0.0970108050147 -0.668438593218 0.629716209618 -0.458337821949 0.0723220666043 -0.0697288883733 -0.0172969537035 0.224770818591 -0.541409086424 -0.252672425889 -0.132624450513 -0.230097741582 -0.655516274506 -0.166776325967 -0.129776206252 -0.488400020118 -0.498068811557 -0.0272937384427 -0.284049682517 -0.319169131277 0.531369527332 0.392217999481 -0.454748664349 0.0133368950013 0.593983403157 0.547280151608 0.203917775635 0.16391081829 0.341280512532 0.433124671232 0.0990659720105 -0.247450722517 -1.11411585988 0.306351544193 0.590523436531 0.382119041687 0.0473988126074 -0.0148735449244 0.586009709455 -0.0840518627374 -0.245905061912 0.0542807760223 -0.00357652297955 -0.506186565537 0.0241414548885 -0.032022163561 0.161149010465 0.172747597178 0.0553411594826 0.129504122167 -0.112513837209 -0.736150960128 0.630476469781 -0.249168546497 -0.211143963727 0.435867399336 -0.133924511319 0.472517895574 0.205902834164 -0.107399252657 0.774561079516 -0.0786205178237 -0.440099687129 -0.680589971849 0.308071781496 0.0317529631265 -0.376862013857 0.115547189377 0.0167240820696 0.0650948208064 -0.590495343973 -0.267976263798 0.194838668199 0.0712015045862 -0.750696023524 -0.121027074714 0.324228548356 0.00421974170447 0.31925793134 0.235174029037 0.846505532515 -0.0958084451742 0.204198840793 0.674250588829 0.300551817942 -0.0886654769983 -0.0197958352017 0.242392109486 -0.968485407978 0.479444194937 -0.133164650549 0.264280754879 -0.233741978667 0.0692824961419 -0.0196145197934 0.614777325264 -0.205345562956 0.352885437917 -0.146575083367 0.189221811303 0.0634446314155 0.219957244936 0.0757566891096 -0.616068596893 0.0763054461991 0.370957133164 0.366666870801 0.290513965575 -0.236611124628 -0.229679138628 -0.10001431512 -0.695463197129 -0.0146007874797 0.522039995342 0.253919218863 0.204781729524 -0.0960874024046 0.316302751538 -0.244985043933 -0.125307606053 0.396756896622 -0.0931918478314 -0.208683416753 -0.229268464639 -0.239916478116 -0.14552752345 -0.783273587219 0.471858193132 0.084599229068 1.12559156863 0.46842138271 -0.605546021152 0.0731322506246 -0.0866631846284 -0.281003247012 -0.337566136552 0.300917841405 -0.680804829607 -0.374407642221 -0.274534664094 -0.529287019926 -0.0365995636085 -0.0468910191019 -0.302335000686 0.18347196622 0.101795253987 0.0999099220336 
0.397482207411 -0.404817362334 0.868685066995 -0.449375103063 0.510270934091 -0.284616264365 -0.579913309126 -0.446750765814 0.215511773201 -0.528059504024 0.720700510895 0.202228605682 -0.181079762146 -0.0747308843657 -0.390924257305 0.487381258478 0.548703711198 0.0143127012762 0.0456519592361 -0.214060686465 -0.45591280616 -0.342743964445 -0.372720929585 -0.477576546951 -0.102009910465 -0.300221380851 -0.280711041664 -0.475088441713 0.414404887423 0.346628636077 0.625881572703 0.211613970394 -0.0559003499159 -0.438627823256 -0.509564751696 -0.254782324472 0.234853283004 0.595231739211 0.22622704024 0.0278028616929 -0.387319901784 0.0661537952908 0.325136077911 -0.425367267065 0.454384264644 0.18822370846 0.278427849389 -0.371337841781 -0.22149919534 0.0119612461107 0.559363907097 -0.654275539106 0.692878338795 0.350822241651 -0.228563010836 -0.250983479576 0.991975787611 -0.758645346659 0.0109160682217 -0.532896673364 0.0301612494834 -0.404804900156 -0.192566115371 0.11373168091 -0.0342030251091 0.75604942038 0.193333108669 -0.237097920315 -0.220139249741 -0.0617214574256 -0.19534052319 0.251502277981 0.14705771091 0.135873102144 0.329435627324 0.260366992593 0.189730348491 -0.048632063793 0.524903414069 -0.488553851584 -0.362691801745 0.17357216122 0.38285339368 0.85447613202 0.237966593721 0.0452605832377 0.109853824743 -0.568817779032 0.308753458964 0.0543455081657 0.0358554326628 0.632404628822 -0.509034511877 0.0444250453478 -0.17308951811 -0.282513238124 0.36310731995 -0.567703448875 0.255249123001 0.570815552218 0.0871256852417 -0.230387578657 0.580371464079 1.25290891205 0.0651890019051 0.61428718854 0.0673677196171 0.170430150754 -0.363279034364 -0.25764099703 -0.434155022475 -0.275133434957 -0.0896328079215 -0.145049153959 0.336894767345 0.0202422073284 -0.307246571592 0.240811127218 -0.344296651563 0.716886267675 -0.296654861689 0.154993116361 -0.107538072166 0.105121434634 0.7994710188 0.451137844155 0.163517116127 -1.02049791684 0.771617706603 -0.0274137414018 -0.0563429269396 0.133289848277 0.726133251149 -0.931775435296 -0.0278935190092 0.593406108551 -0.195129023308 -0.369290577978 -0.144299912006 -0.345062220124 0.355516525298 -0.047293883192 0.510485055172 0.297870092729 0.283181625668 0.586929862958 -0.232476452217 -0.306703422632 -0.365478761008 0.196887720045 -0.364935013053 0.276515457078 0.385236015337 -0.354262886779 -0.115702485372 -0.149011839498 0.42236533515 1.05647843824 0.307786354233 -0.361798066051 0.0766025551123 0.0132015059118 0.344586646538 0.53518710508 0.043553932541 0.162320613704 0.184384014239 -0.24647043016 0.391003730782 -0.266244763697 -0.331071035136 0.0560724359734 0.132854842849 0.112182402011 -0.174479112071 0.501327954774 -0.0514683909579 0.369049958065 -0.231400723651 -0.146898183048 -0.133419914855 -0.589619864856 0.171521062523 0.232068735642 -0.0909909844067 0.12754509768 0.0395655308361 -0.119954179102 -0.527063383281 -0.395567786911 0.242655327874 0.10904472371 0.64984346881 -0.146319796786 0.330431280614 0.14848506519 0.479264214029 0.365859790654 -0.549396989023 0.217807220588 0.714614043501 0.419576319749 -0.356242818866 0.422179717114 0.625997218443 -0.52726216435 -0.139103397014 -0.00365575984556 0.159541593906 0.22373881682 0.0456370630239 0.836006089344 -0.112811370777 0.557935918678 0.150980558285 0.150631924411 0.608489283799 -0.105318569888 0.286002219917 -0.416590691725 -0.390045308269 0.386962362295 0.0598561036137 -0.180950687279 -0.252470664969 -0.433336761694 -0.28307414462 -0.349210598006 0.425873030758 0.239253076384 -0.154641709419 -0.0892146096958 0.62390266474 -0.386006974695 -0.0358281090692 0.845113986982 0.0372102851323 -0.0265405449666 -0.236127189437 0.10069795313 -0.361925819202 0.236719267605 -0.210279295749 0.0799485276937 -0.218498407734 -0.578743261064 -0.514197793183 0.463143613138 0.418576763337 0.371141360065 0.0499773456684 -0.483975281667 -0.131427394295 0.565792016643 0.41543615648 -0.152599236906 0.182797700473 -0.0992105899964 0.308875620936 0.557048313138 -0.251293282015 -0.54680018579 -0.496017621841 0.747240790873 -0.403869204258 0.203084639444 -0.0172214875954 0.066002965877 0.283641416314 0.433851975629 0.786629107845 0.379287532549 -0.842818493823 0.636985278839 0.486708633989 -0.0438143438051 -0.305060005009 0.35436073599 0.144598530395 0.033488671631 0.156689108851 0.152967008845 -0.308814751172 0.0258556398154 -0.0130853384073 0.219707103132 -0.723248168102 0.0219258762195 0.672285865366 0.630935688164 0.0292465073414 0.785052389425 -0.184036056921 -0.676822350919 -0.319902280405 -0.341444436196 0.0104201061757 -0.569139185427 0.418720799233 -0.0141110888531 0.184141230841 -0.738169871379 0.284748381829 -0.102553576092 0.12896569425 0.265864687154 -0.497004490441 0.824647115575 -0.358689335356 -0.110261150007 -0.614391698083 0.0325370276838 -0.219181555024 0.152453484358 0.0432501354074 -0.574074884375 1.18872688214 -0.0349159077702 -0.0982285913824 0.202172407441 0.0789255919965 -0.382805796883 -0.28895398888 -1.19527035935 0.213373895117 -0.0538315519075 -0.433778110811 -0.37809029107 -0.519789375769 0.213993480324 0.190501656364 -0.373153158216 -1.03620393033 0.733154121446 0.213243653088 0.167119593666 -0.344658841061 0.438390724007 -0.0672230093217 -0.560732651424 -0.262980390626 0.168397415792 0.228025972908 0.372012408702 0.195457082243 -0.694740392861 0.302910479169 1.09569421217 -0.315057004906 0.222724885569 -0.0966392238244 0.0586900718683 -0.428242789224 0.792521710851 0.469695688856 0.374075863655 0.124264909989 -0.136397009281 -0.207321842811 0.448441734963 -0.292034058674 -0.64192525736 0.366939318305 -0.489810488102 -0.302519635873 -0.171007135387 0.16114009708 -0.168580459999 0.184574478994 -0.391740623059 -0.0421716248505 0.708472856741 0.2480828577 -0.050803732509 0.560820835095 -0.715060781696 0.540949689786 -0.16251585187 -0.232639295841 0.722090516861 -0.155324540319 0.55343757328 -0.597834345908 -0.125421821268 -0.324338423321 0.475668342938 -0.229481840515 0.773244377198 0.689983608792 -0.260189057943 -0.488986304334 0.640515602415 -0.300346975064 0.292420866736 0.148428165863 0.0682456298589 -0.208665849235 -0.489026665871 -0.201582382612 -0.500220794995 0.0992796257478 -0.267085471529 -0.332985801488 0.404828447398 -0.289117707778 -0.349011276134 0.685483946695 -0.17588362975 -0.866991018167 -0.289153845525 -0.559445820181 -0.324585218249 -0.0630612765452 0.198509037785 0.616302433374 -0.551529277194 -0.071992732848 0.217510259857 -0.151519794235 0.227768415219 -0.201459156796 0.281833113127 0.507043446082 -0.15264262296 0.447976914662 -0.389232797746 0.106059736381 -0.130237946328 -0.444501806761 0.131035214598 -0.392790184393 -0.534614713785 -0.0669574514495 -0.442066103085 0.717646209645 0.254523696892 0.500973917772 -0.181805762652 -0.0260003360899 -0.338868091405 0.268260847201 -0.266262431157 -0.403908833442 -0.131670612131 0.705659241241 0.413767230231 -0.125114330952 0.0973075896471 -0.626875715078 0.397745651434 -0.628639688156 -0.27600419108 -1.36556955205 -0.216030820358 -0.300176322355 -0.0847016698487 0.305665244043 0.378107242371 -0.413053200636 0.0436553685164 -0.586411697781 0.548723698963 0.120230304208 0.169096769141 -0.229310352519 0.293121749216 -0.774844794851 0.303719251053 -0.136007352796 -0.277429511604 0.568144052393 0.0392409484292 0.331625105499 0.520610861427 0.00801351089712 0.350564553605 -0.175143352464 0.164310646114 -0.343736831826 0.311251152887 0.12877128281 -0.195498527437 -0.062008432079 0.207669683583 0.366014146368 -0.566608665451 0.066659681134 0.18415597094 0.158206384131 0.362508804934 0.484918293054 0.207869845281 -0.27568504246 -0.453679771477 -0.876126844789 0.498252928783 0.0585963974508 0.67812384318 -0.473652566666 -0.124587366328 0.246661834536 0.129366960927 -0.0364986014894 0.446560085553 1.11754910205 -0.491849307011 0.933720491559 0.33321228525 0.121377468337 0.411445213511 -0.659078644985 0.371684048652 -0.587903646978 0.103912715419 1.12648159759 -0.395902509834 0.691845174429 0.523907474196 0.493244880851 0.0342951237418 -0.170697009545 0.152992535464 0.148601300264 0.106035594558 0.00168716402173 0.012579047639 0.2938058511 -0.304916804015 -0.369561504534 0.809705347152 -0.176100823225 -0.946519421577 -0.410538747447 -0.093358307813 0.397692134745 -0.102802598472 -0.272139787456 0.130716259955 -0.595508733126 0.990858264683 -0.0788605864177 0.412451831567 -0.539247315626 -0.748834207333 0.436603836858 -0.90254008895 0.435881094063 -0.156246534251 -0.241615058383 -0.823348195521 0.219955550133 -0.339182078934 -0.264693932336 0.207180354768 -0.727813169003 0.59044158246 0.794479906046 -0.0450152201633 0.0244414242555 -0.206498680651 -0.0781647807368 -0.988287153484 -0.420579690669 0.407920205482 -0.233210528019 0.142310688622 0.344924205191 -0.0645202211329 0.285982230759 -0.379949043514 0.377367316981 0.554290359054 0.0992647611468 0.414135245156 0.513110083124 0.00282648062173 -1.03488378769 -0.66026112239 -0.0697102195976 -0.0853482459404 0.123616724557 -0.193866580293 -0.299732467903 0.309811995663 -0.33948048078 -0.189231618136 0.901699695976 0.114880041654 -0.350195102661 0.355475022373 -0.172059131021 -0.178618323284 0.6967373917 -0.271576562562 -0.267058237828 0.601394790834 -0.442291740648 0.128590183197 0.521534028742 -0.0205741679749 0.0142839448195 0.481645894359 0.186920954425 -0.107283172043 -0.0376281104972 -0.641416255075 -0.478578439176 0.0538012908913 0.107221357982 0.564153760138 -0.106363184501 -0.353498859108 0.445059832009 0.17587184181 0.139593558789 -0.302587761919 0.0309335054229 -0.0784932242101 -0.197308724809 -0.0263502116849 0.0388949248198 -0.334685639835 -0.33641428433 0.13198052829 -0.166260528787 -0.862981025172 0.339079184519 -0.165034127651 -0.147271335024 -0.355820102325 0.211801566549 -0.0676914738943 -0.387373282955 0.793523204812 -0.0296525827442 0.0290770466762 0.384118020921 0.648593390692 -0.679657773761 0.274052506872 -0.298492861631 0.325655489681 -0.236489633159 0.124512733496 0.268914731593 0.0327518510129 -0.47288137527 -0.750952911898 -0.777956205995 0.104456795393 -0.530085310073 0.531508136982 0.169664071212 -0.303449434519 -0.417749988452 0.382627741825 -0.0681689154042 0.094795411833 -0.124231103382 -0.388435367558 -0.270455376019 -0.231804086867 -0.92118051486 -0.238107060857 0.299571964245 0.875797036763 0.0777541885201 -0.208927124162 0.0342521825543 -0.82514974399 -0.133354104385 0.360198248679 0.0218062014862 -0.363980670721 0.59106228312 0.121108609303 1.0174807479 -0.239335437359 0.0722683451726 0.171799950645 -0.423790985662 -0.157128103126 -0.404259167885 -0.738822912493 0.454141239007 -0.0855405320862 0.781093640365 0.444318586408 0.2153277528 0.0877218507351 0.0336213001699 -0.368611994799 -0.513830370965 0.247205704889 0.445123301546 -0.341745498851 0.705636167374 0.0660038654875 0.48427789014 -0.317191203489 0.379214966319 0.692169352601 0.410880949195 0.56824709359 -0.523579258944 0.0583528801104 0.250229367671 -0.398646736726 -0.0144248934933 0.111545259131 0.105810543528 -0.234666086952 -0.0429365766215 -0.159813075189 -0.124516899621 -0.425368358624 0.801880256036 -0.474533335875 0.166567441846 -0.196631929552 0.304075429706 0.635367274736 0.100531941387 -0.366418107219 -0.614779529915 -0.421159088167 -0.00466866993784 0.158654316509 -0.750754857869 0.258811040684 -0.0374375348051 -0.449188014133 -0.321369988282 0.23436096446 0.33778427567 -0.690183406371 -0.144364115721 0.226287789614 0.329695192676 -0.0419309412302 -0.0824975108593 -0.0824785145688 -0.0963223063968 1.09627674924 0.39747652654 -0.274758399267 0.0931941351839 -0.0618612223248 -0.221308553628 0.622035679359 0.224497169212 -0.797360937114 -0.355015626962 0.303178438382 -0.151839380939 0.102805562747 -0.677560831448 0.836124860328 -0.292287784805 0.235086223183 -0.0353147711296 -0.261382251406 1.07418973142 -0.810446613996 -0.131110760806 0.0589778125012 0.0144986352301 0.227291226289 0.235090248941 -0.0542489599591 -0.157566886975 0.329451064945 -0.232875282343 0.522869153852 -0.367297783376 -0.330391600946 0.252300512538 -0.48434669744 -0.196886564616 0.150797719253 -0.00438654579106 -0.393732960457 -0.486920388605 0.35873788755 0.273472051351 0.449940039334 -0.646329864762 -0.507095142087 -0.707164018995 -0.447119409185 0.557571270331 0.596058697305 0.469528186765 0.124109866676 -0.436364488871 -0.126311144819 -0.260105473074 -0.186155423239 0.129472101939 0.123936519222 -0.204208869627 0.0890819010155 -0.561746979062 0.534921086758 0.168370307577 -0.0501883059965 0.00502081181147 0.247312677341 -0.193592520168 0.0487961779402 -0.638258380005 -0.100917570141 0.0902067685822 0.186613474979 0.249941764382 -0.431547322538 -0.0734429355674 0.229226526683 -0.106922892204 -0.353452673683 0.314427037846 -0.0859847997362 0.322478183235 -0.172367297841 0.232716781304 -0.721431040143 0.02092006923 0.606921774286 0.323812043799 0.483755861389 0.27997721355 0.0811977134937 -0.448047849089 -0.289484911796 0.342728097514 -0.217118477699 -0.0228331380684 0.197905296924 0.436719213771 -0.256193849896 -0.0611861628027 0.078151263798 -0.422381896504 0.273480979117 0.572539947308 0.064682221108 0.11839993044 0.2624393719 0.553682532474 0.00718074712713 0.0959262940483 0.576046196848 -0.614531478245 -0.318042698553 -0.50345045882 -0.461853513538 0.014656107778 -0.991318708071 -0.279293432341 -0.0633558943042 -0.641300891422 0.12575222834 -0.0836404164124 -0.255971163317 0.471409355366 0.63049018087 -0.825176736607 -0.241058314522 -0.0964786839115 -0.211920734677 0.0239437602546 0.0133706911805 0.0862991023447 -0.198467245165 0.36798989888 -0.259055173027 -0.590055546288 0.341515635505 -0.0204715709555 -0.226805637515 0.0361985436531 -0.767252510568 -0.392544464089 -0.144497269887 -0.109884199956 0.0288773305558 -0.431587709994 -0.185386264584 -0.0485769426118 0.221704171341 0.27345329569 0.700361006043 -0.306751352417 -0.596629429785 -0.339735934563 0.0440801074594 0.117503307239 0.200327295564 0.642308726768 0.557839093362 -0.0550534906669 -0.127249350684 -0.020257997454 0.426552991872 -0.343454148703 0.399756117485 -0.118667956388 0.277316737983 -0.593351892987 0.584886035707 -0.275956941753 -0.347847970647 0.225820513323 0.156527199312 -0.332701772479 0.120364633522 0.0365634649983 0.0650863043189 0.0831575274837 -1.19597899518 0.666281005702 0.0997384006724 -0.685554142565 0.00930377790587 -0.593401197907 -0.423890720516 0.218287189145 -0.19430299802 0.0990674742372 -0.63743208432 0.563764289835 -0.135094574458 0.227049131572 1.01735397006 0.0182634481344 1.01605892516 -0.10283728254 -0.031347446547 -0.0674168127272 -0.0581159418985 0.257681464082 0.0427443583433 0.32579153798 0.227455387855 -0.486856885293 0.0434670533573 0.517860321482 0.14623392101 0.0102413064184 0.733697353346 0.961978884116 0.369267752374 -0.560307908133 -0.201386394264 -0.208681694187 0.145514577544 0.204258832301 0.347152896298 0.228523471216 0.387679243165 0.199065366604 -0.373573549623 -0.12634387693 -0.352306504746 0.384889835252 -0.0176753089459 -0.361649892796 -0.210315325259 -0.278667711008 -0.389779918487 -0.340428908705 -0.600369965728 0.448397222252 -0.322356628108 0.340136751599 0.673747582965 -0.166835503779 0.296495049027 -0.436555791782 -0.228852904826 0.112070537126 0.289969954697 0.499133663118 -0.23233335703 0.108256809112 -0.335478723096 0.271065608538 0.242764024256 -0.898724193503 0.014082106618 -0.14143011672 -0.381068134409 0.175003183281 0.631905688125 -0.750855579216 0.364698394158 0.170029893231 -0.0607031540312 -0.678795848524 0.328414444185 0.815344678092 -0.426200633275 -0.361451716445 -0.522350323669 0.951319558612 -0.0533551115239 -0.0146493931353 -0.746372721811 -0.364876900248 0.523431989865 0.163208847046 -0.183419547197 0.103286304823 0.362681979232 0.433541067324 -0.468073379957 -0.448759658355 1.12406715872 0.343476469825 -0.0232113268296 -0.588629143494 0.528876027617 -0.190417064138 -0.0126761207321 -1.08836536327 0.590830201125 0.147424205941 0.307424659645 -0.222195209762 -0.29682852419 -0.208345783702 -0.696820594683 0.510122106954 -0.148549865591 -0.225563912867 0.386695644169 -0.00865356678577 0.0847609695687 -0.310855185327 -0.783769745246 0.384934485903 -0.960957778942 0.0870117044062 0.00798516881136 -0.0763530280433 0.175206005806 -0.299119333188 -0.389538369955 -0.763070147325 0.285484742806 -0.0103428198362 0.406469980459 0.165156270354 -0.536825772095 -0.256043585928 -0.719845376863 0.0976292479874 -0.0702174437492 0.438640663241 0.362116915585 -0.123518579541 -0.291251988591 0.407433297696 -0.0766158461768 -0.14579423695 -0.10150225913 0.192761444956 0.358442277309 0.255409871247 -0.155264054724 0.381376794894 -0.366232336614 0.229535052738 0.198962417809 -0.713318724728 -0.0185296540151 -0.882459235914 0.0881538423358 -0.148687050869 -0.321274040193 0.881464436231 0.124482876079 0.224166265677 -0.142930570187 0.241408590673 -0.242898626958 0.392294458895 -0.0960605643143 0.462808665525 -0.200450402822 0.0466091949741 -0.766647647675 -0.217600637148 0.152140080545 -0.512795591176 -0.0387286409551 0.29216812976 -0.479402652864 0.108410781765 -0.0058183838168 -0.402551132923 -0.229619050554 -0.0678280251577 -0.0321573389396 0.183133450635 0.329847274813 -0.0175585233087 -0.536398870275 -0.161457528463 0.291350365822 -0.0518964484809 0.760952270556 0.0900169002534 -0.451947872218 0.337713600525 -0.217562492135 -0.966208294694 0.081295485748 0.158827300267 -0.101226243761 0.0785004582759 0.430299350881 0.173011428109 0.232129744023 -0.305527102079 -0.85859508898 -0.744724573695 0.459359598634 -0.41188157404 0.120657428647 0.4183539408 -0.284054304741 0.77020453627 -0.0880900788661 -0.3343691849 -0.424243256436 0.15889248999 0.456109192828 -0.138758708581 0.205756352077 -0.542377076311 0.198665771612 0.0275625386531 0.152302064648 -0.385438714993 -0.530821964872 0.25993709374 -0.302920045513 -0.581030644347 -0.071341172466 -0.404171784301 0.234360527738 -0.464212950753 -0.24606716026 0.220648719437 -0.384049284182 0.795269726467 0.0885248785009 0.123215973124 -0.234283003969 -0.537052028636 0.10914975554 -0.409214885592 -0.23819187624 -0.46465111333 0.187668036184 0.300546448707 -0.689902231796 -0.851885755711 0.663979969998 -0.040718936792 -0.0717667033488 0.0397422861016 0.0621111016816 0.220187319298 -0.793171993186 -0.205901577251 0.332237244664 -0.698189225446 -0.574943096276 0.433950415566 -0.248891976181 -0.27274695248 -0.581020694754 0.287931278048 -0.815484921755 -0.231722701571 0.0302104196211 0.042384372765 -0.57255688848 0.0314839533196 0.188830017355 -0.724444436305 0.0216247152235 0.360753525095 -0.40627528202 -0.734080694734 0.302379658172 0.688561780446 0.447750460595 0.60123432725 0.0807252367797 -0.200151588757 -0.500072219658 -0.0217166907027 0.179493799685 0.0607505479653 -0.187771519556 -0.118321801022 0.403804832 0.545631647392 0.267042812734 -0.0679669246297 -0.142325794049 -0.0847375136611 0.22514393288 -0.100045222093 -0.206074087086 -0.290262218548 -0.0582271022042 0.705702807761 -0.600482822183 -0.480113208854 -0.130686475325 0.320394035217 0.024881144003 -0.216118642283 -0.239733389452 0.136991337503 0.59529570635 0.559261452621 0.252169120239 -0.660451897227 -0.292634886096 0.331268744508 0.143722460042 0.137194610734 -0.00253908251853 -0.08133601658 0.485532806803 -0.436115180754 0.450220783793 0.00400874408129 0.203669591053 0.215751672095 -0.0100048645731 0.218343064261 -0.523081178683 -0.610373601436 -0.274341005332 -0.0801386001445 0.279186693167 -0.0743950698986 0.345964477126 0.484577041587 -0.500246536983 0.0518974007176 0.39688212138 -0.074636948465 0.443141250322 -0.607852005556 0.504209369214 -0.197771148484 0.0429167662752 -0.42928416832 0.254365863604 0.549019082154 -0.149333146488 0.0356522415355 0.169941324762 0.40201383354 0.824662923755 0.438931381987 -0.0663756289926 0.26998080693 -0.250804983364 -0.519540515197 0.243932814183 0.0946104811822 -0.307168806939 0.549313540653 0.219292297258 -0.372667031268 -0.242236043365 -0.0782701451833 0.123843668917 0.706150059727 0.486471713918 0.660775594857 0.579541142826 -0.688102004851 -0.20702753253 0.479926075339 -0.182367584894 0.0141655737148 -0.993707748511 -0.243134552154 0.735966882775 -0.330347904437 -0.00700753374676 0.172145813805 0.378508544693 0.167559821223 0.49844650941 0.457215623259 0.0529919315481 -0.491634805079 -0.409228875397 -0.0458764861788 -0.178393544137 -0.717968412179 -0.091582284337 0.0435657064535 -0.194404293903 -0.0287611312969 0.566366080534 0.991709823417 0.184964230935 0.0814601928822 -0.124875676312 0.0370695641192 0.426921796113 0.199023604459 0.0218834438243 0.275879333922 -0.488550019268 -0.440228140583 1.01418341515 0.251795915375 -0.432008549924 0.454939767027 0.375743068773 -0.537723848278 -0.364424214445 0.661911540841 -0.481913540759 -0.120069322241 -0.249519729181 0.598667626187 0.158451647136 0.0612784056167 0.359178404146 0.0198968372322 -0.775128599641 -0.170779772232 0.160944024208 0.449530845249 -0.921911719666 0.648906498827 -0.276089189325 0.36300715024 -0.230135147752 -0.261262886183 0.145879772379 -0.225926956499 0.351114718298 0.227385965412 0.503512973313 -0.15652150514 0.0893206901049 -0.0296731649551 -0.139792621234 -0.584431775267 0.328874360731 -0.268639660414 -0.29601681684 -0.326371226475 -0.0751692737052 0.281742867496 0.0756995279681 -0.125105920249 -0.485258758084 0.0613337789204 -0.0219293927944 -0.589842262254 -0.0283263015903 -0.26827405871 0.0226059290583 0.285907199905 -0.251461592682 0.245035422471 -0.581540153679 0.622613139025 -0.279001960737 0.189623368141 0.00515451922404 -0.386144101681 -0.497671756842 -0.0573119187646 0.526567398109 1.25372549163 -0.299420084953 -0.752510893067 0.0244152132883 -0.564226463955 0.181664388819 0.0109161374336 0.439118435048 -0.227170453049 -0.0278111375655 -0.0177940054099 0.121855310727 1.09232574955 -0.541467589731 -0.0326263834176 -0.0546374205076 0.239859458172 0.695325397029 0.566319872081 -0.931538368688 -0.301614315238 0.20316392568 0.400865778961 -0.588323651758 -0.581187970226 -0.578012374334 0.266203193824 0.355259432042 -0.0837274281166 0.397398884909 -0.020495639595 0.236711491468 0.233478244733 -0.163112131013 -0.0450492185909 0.0635496869438 0.485362133736 -0.535870910374 0.1674677094 0.0359055722114 0.152085537857 -0.408082177838 -0.353868508453 -0.0218867510976 0.550579847539 -0.283717510653 -0.533907037159 -0.394971836147 -0.082847179057 -0.599618075465 -0.427873332561 0.247557196187 -0.365458809674 0.0149092131883 0.117334546525 -0.13998885459 -0.57553526396 0.241157356386 0.444057858151 0.0877866750087 -0.268587665904 -0.293388528873 0.454699192769 0.18720136923 0.25748175203 -0.384484797527 0.0519207142439 0.26990894264 0.86556223767 0.708196291166 0.149812348698 -0.0243540514658 -0.410958926306 -0.216386666957 0.14456787462 0.30435095406 0.147539747628 0.197753075777 -0.296373737106 -0.232252794583 0.360174872575 0.255244436793 -0.649943118812 -0.759286915037 -0.790956438848 0.620477733446 -0.19818439461 0.967072957682 -0.022199061033 0.0759870974546 -0.415097969022 0.633138511586 0.401602882057 0.157621479412 -0.16553765969 0.0294892493824 -0.0929607574624 -0.317478624069 -0.0151143654081 -0.738966888509 -0.120534547947 0.253685464186 0.187624434302 0.646843692812 -1.14334058297 0.0238876519827 0.173565868811 -0.415249523914 -0.57941104053 -0.357589011204 -0.52676103676 0.387408340979 -0.456169088939 0.464079129395 -0.676255616581 -0.44120603087 0.561159846747 0.0482135567511 -0.607058080142 -0.115686258611 0.155900288304 0.0411616840392 0.0212587087828 -0.137967412289 -0.37524976015 0.299605585844 0.733855425719 0.640596441616 -0.593598819233 -0.0995158038442 -0.174061094737 -1.04682257601 -0.180147144121 -0.234464813365 -0.148579660149 -0.368851368661 0.13927201562 -0.361365490443 -0.143721363698 0.275277552034 0.194893953787 -0.367087056276 0.39685134522 -0.664185839288 0.249421061835 0.14355456588 -0.167341858258 -0.0793452654605 1.04303303357 0.456701634531 -0.025576279647 0.695191949852 -0.214861661044 0.826360094045 -0.099731184034 0.196144479381 -0.171517839835 0.0718193614716 -0.190271941002 0.0863206231249 0.239326345067 0.331745713388 -0.272405670542 0.288703867217 -0.082581590972 -0.907620222914 -0.125540495894 -0.364771356003 -0.513363726928 0.219470631571 0.236804719909 0.103427499837 0.357171837854 -0.340039231228 0.148659932713 0.880588097709 0.122913923365 -0.153854444002 -0.0969533318632 -0.0193505814189 -0.535191640717 -0.216458729633 -0.477071474713 0.065305675739 -0.493407207198 0.53424751369 -0.534086539923 0.593396931154 -0.132977948459 0.230548369153 0.526383652663 -0.463304377936 -0.353998302254 -0.662496142662 0.275412931676 0.142746373784 -0.178920764539 -0.447319337575 -0.16600920843 -0.233421959224 0.766993416648 0.453527743879 -0.248548363018 -0.41935949355 0.378818432566 -0.306557056437 -0.734029561952 -0.308829973227 -0.104641135964 -0.691302047514 0.878896374782 -0.417819170639 -0.00422568651507 0.0793973670115 0.372865315003 0.010680437052 0.142864378831 -0.00470649978742 -0.181617205575 -0.290290236692 -0.182826724942 -0.457973616286 0.834013266203 0.631670679414 0.0415881432786 -0.140513189852 -0.069344180814 0.412478158032 -0.592335634951 0.921723084601 -0.0325444601134 0.452782613349 -0.248277077709 0.725902962798 0.332132892932 0.280338439631 0.494855205279 0.280288625501 0.301723831787 -0.435224592695 0.461063404031 0.0146098201955 1.01620953224 0.64722341843 -0.260135036976 -0.103682883724 0.217165506927 0.248060160581 0.60522691257 -0.144031772834 -0.0788561228461 0.73424701915 -1.05155522338 -1.04307695576 -0.20996022935 0.100080799086 0.125757384238 0.234445268059 -0.284986747484 0.0556640402001 -0.655925063806 -0.98576612597 0.445091118276 0.326905665915 -0.246930748861 0.869919022723 1.06617301607 0.136538143664 -0.748105433868 -1.11872292958 -0.315055273314 -0.284051149259 -0.116193738469 0.0850100672583 -0.0544480520511 0.335324029989 0.445023733837 0.59890613229 -0.342773559911 -0.486345512103 -0.313180471157 0.330996759425 -0.269348786572 -0.408201644569 0.722181467033 -0.0475546674932 0.0885434869703 0.339688917624 -0.291122275313 0.51976449655 -0.147179225946 0.0820111573031 -0.336719806172 -0.254328267121 -0.21016617587 0.160851234967 0.148458319953 0.245483716914 0.170331229511 -0.390228332375 0.0303616438074 -0.0158565185245 0.0658392134154 -0.111865799636 0.346872859158 -0.457840421519 0.293039747221 -0.638998736245 0.320544050633 -0.633216469004 0.157782390386 0.140105212509 -0.00689996194894 0.176602293439 0.430376016633 -0.0800035085496 -0.129903134669 0.654701118158 0.39923496517 -0.531565152958 -0.766939162756 -0.264907940818 -0.214540163085 -0.059008629027 0.0673551413308 0.986239058108 0.151168529219 -0.885139867718 -0.567409955725 -0.131453045023 0.0430120590197 0.109668226176 -0.532319260491 -0.0154377533938 0.173180285261 -0.165477901443 0.203309710794 -0.232717925228 -0.388198516546 0.273518289338 -0.314424097008 0.237642661988 0.294990750913 0.48202578585 -0.156882331158 -0.101655627296 -0.212775294953 -0.458427751139 -0.328986077508 0.111515528492 -0.120226431713 0.179192638176 -0.297866083445 -0.0851399208085 -0.379932364554 0.297956281176 0.0240508697639 -0.321452445091 -0.680343768205 0.159374768737 -0.63705211306 -0.477616137109 -0.207386526094 -0.406332025571 -0.163047872701 -0.435969172112 -0.304716457477 0.0684315214644 0.518602875324 -0.504201818784 0.00447597302587 -0.343097233175 0.108094589188 -0.150069384995 -0.26585684624 0.537428792442 -0.421096668108 0.000551950772469 0.180642153285 0.105142215115 -0.176709002871 0.257628515873 -0.291438651342 0.341211521792 -0.322408645311 0.657802200178 -0.142744516876 -0.013521759925 -0.153642660194 -0.208969700576 0.0950183551049 0.340592284393 0.401214871241 0.340625069856 0.0520292690378 0.688695691655 0.946241343083 -0.421608627296 -0.234879323282 -0.149021793743 -0.753112927786 -0.0717886003888 -0.171880059158 0.29456558162 0.278028712435 1.12192505559 -0.542280738112 -0.137880996928 -0.0401662598796 0.00614914561256 -0.921964075531 0.482405722734 -0.367093075454 0.0377026078046 0.536296906532 0.516421667972 0.520097986625 -0.299346058383 0.010545683248 0.561822162122 -0.0265804939856 0.0534709016634 0.061255365578 -0.184131828848 -0.860633293118 0.714548700761 -0.180758979245 -0.143679532088 -0.445968725766 0.694133253308 -0.293885408329 0.639811093474 -0.286784083225 0.151379998648 -0.100087836265 0.230917795022 -0.754850214988 -0.269362385036 0.626850258473 -0.770271409411 -0.0539583925504 0.232250892339 -0.406521386598 1.15786350207 -0.342488510324 -0.374328919745 -0.236276479295 0.164388251104 -0.0425477521121 0.586689878703 0.594668196582 0.125227347098 -0.815700270447 0.0542980444433 0.129821438677 -0.0798019195114 -0.273062999701 1.01539856209 0.180590564335 1.04672460255 0.628586693961 -0.151993474468 0.318534003673 0.0169767454462 0.163849633034 -0.0881140117809 -0.433199823379 -0.914692745523 -0.344884128866 0.135134414922 -0.109819411356 -0.478683438175 -0.496076715344 -0.471932343327 0.420667439583 0.0803607948375 0.281687004118 -0.637085195511 -0.00736782589765 -0.329378145405 0.484307309594 0.885468519507 0.206849891507 0.727554327253 0.661599667493 -0.18585902787 0.277294768245 -0.973469257798 -0.162429823486 -0.139596852307 -0.416911391468 0.0167470012669 0.00635270754891 0.0797949808378 -0.0420472744318 0.185389469021 -0.19811661908 -0.570934491066 -0.49606717261 0.101833725463 0.0852192382165 -0.381648197847 0.601287033701 0.0199804136307 0.103920357255 -0.323762277692 -0.374846904852 -0.324110301109 0.243430121534 -0.30759582336 -0.0368669872546 0.249604432694 -0.945936617978 0.65914166035 -0.0535300474038 0.292599895981 0.547020462679 -0.359673989896 -0.393188826908 0.162682226308 0.33340919867 -0.100519130713 0.0623197389882 -0.580213211631 -0.742407298674 -0.417955917687 -0.461278614251 -0.377465976902 0.063760334664 0.534571059572 -0.123909926624 0.161635908129 0.389269131772 0.871872663172 0.367349376642 -0.498612474099 -0.0199571187193 0.729807959845 -0.39075681636 -0.36838174474 0.133113765619 0.0734434229858 0.0080940834568 0.325149210767 0.0606483067555 -0.0532392595877 0.0176672451748 0.695467375472 0.0376535002074 0.0603842989463 0.513861321086 0.378256524075 -0.0255571372668 0.270171084795 0.114496148851 0.121874121744 0.0604332970154 -0.190685867631 0.370837062441 -0.82805892108 -0.314260569594 0.601697405255 -0.658705719777 -0.205814051033 0.599149294782 0.265016298437 0.65839592919 0.318907237568 0.0796822989931 -0.865889418852 -0.153291955827 -0.29572904359 -0.409076844475 0.000554358762538 -0.415928899696 0.00516335707654 -0.371932636077 -0.348336088828 -0.0934683597082 0.547904595057 -0.534574912937 0.146660136656 0.204673541165 -0.463016471775 -0.134382582259 0.403463061341 -0.925352083122 -0.0300814553127 0.133041505032 0.131036913562 0.26064567751 0.586785835081 -0.210588539941 0.325133520264 0.0996056567828 -0.124418795236 0.154881792299 -0.258610406234 -0.016558949569 -0.176216973813 0.00662152783612 0.0236188931257 0.757753219349 -0.0782676982732 0.16340901833 0.118066843303 0.163407331905 -0.076893593649 0.576698324864 -0.515227604152 0.00887919155721 0.662538041287 -0.170336309047 0.129941870305 0.397462872174 -0.127494412953 0.582361627053 0.281507570838 -0.363852785064 -0.640925255361 0.211399907395 -0.598338709846 0.0252183410738 0.71771212666 -0.352842399863 0.105662637393 -0.555471723539 0.541533484131 0.516319812392 0.0990033553027 -0.121232665267 0.121102553507 0.64745430897 0.450790082852 0.367587525566 0.440018690656 -0.146974687048 0.569095183273 -1.11550036157 -0.752327358912 0.274305360821 0.259479606357 0.0884820198462 0.469316571232 0.288196976709 0.23201407032 -0.0659799688373 -0.0106993711745 0.191703973238 -0.078818421073 0.724624593723 0.247521855363 0.876642426659 -0.710606476707 -0.0354648834304 -0.210717207108 -0.829677690776 -0.842380689966 0.0123504444181 -0.505317812017 -0.0841981639874 0.126574915587 -0.460140487472 -1.17644814666 0.163885646237 0.300064459444 0.353465405436 0.0130391829723 0.4109704254 0.766696267335 0.089691212825 0.506868251737 -0.561091196619 -0.325200401385 0.459892333715 -0.0704393805677 0.0395607520377 -1.14341598113 -0.280350479211 0.406994625279 -0.378919098767 0.733048225347 -0.563607846555 -0.429150580265 -0.413275594552 0.023359381489 0.295636792711 -0.325813088256 -0.825004673752 -0.171669259435 -0.200527330263 -1.06189207368 -0.299070883803 0.441507322794 0.557433274369 0.182892341361 -0.344074193066 -0.493600074658 -0.196171202682 -0.177205071414 -0.275399738112 0.642658184568 0.55554249165 0.25825735264 0.600496186404 -0.124226516899 0.218376475031 -0.109148587478 0.897912325146 0.175273853861 -0.24703485435 -0.600196567969 -0.243206588959 -0.212930822122 0.44274816529 0.294884490565 0.0836376845139 0.0297906233322 0.381983234889 -0.150781801656 -0.870101923977 -0.242352097912 -0.0450863984285 0.555201569591 -0.0961566837962 -0.0755406947123 -0.392943000996 0.672439021915 0.357916637153 0.122894714522 0.100084209824 0.225405157869 -0.0251877500786 -0.0736985907533 -0.25586755123 0.110042682159 0.011101623668 -0.534195842246 -0.349344599439 0.341722603708 -0.229007820811 -0.38804715314 0.420805369087 0.261089422361 0.0316342117294 -0.408322222717 0.00296393270658 0.269428377057 0.421793178136 0.243396446429 0.508403092782 0.393396860701 0.697230984926 -0.0752071124142 0.0820652547815 -0.255475893723 -1.10466755474 -0.502645999176 -0.178637394807 -0.0366687889964 0.122172643609 -0.218659149597 -0.00675155495078 -0.578127223658 0.123596887222 -0.03017300332 -0.366221151137 0.417024050664 -0.730972058342 0.321575152484 0.00374890920639 -0.117737201582 0.111137008532 -0.406700665383 0.148039328271 -0.172966119539 0.0126196010722 -0.0381348554599 -0.220141005742 0.252931470271 -0.298229577901 0.0526196199702 -1.02590616309 0.174634821946 0.183364404634 -0.0480218734494 0.85756576139 -0.208250363248 -0.914816665072 0.721866771068 0.0505034857741 0.0627444425593 -0.585046676458 0.257179805545 0.62505200474 0.252206832637 0.0928518564449 0.44837860816 -0.327684261216 -0.539604522101 0.238965032997 0.184399482237 0.00939585625277 -0.917516721842 -0.588920020082 -0.103923063342 -0.563460076434 -0.548995814312 -0.451625865999 0.0375837691469 0.220411643543 -0.267805929022 -0.21657819696 0.526156252711 0.224393679938 -0.845263833304 -0.427725839634 -0.654964174428 -0.571200762117 -1.0950212234 -0.400162920264 -0.22416163739 -0.043046588008 0.510899530125 -0.248213074655 0.0335269447784 0.589684501909 0.201093148914 -0.163119369183 -0.559612480697 0.219250614411 0.000661167007565 0.0535988566954 0.652222391542 0.108161189197 0.122702891339 -0.497277124882 -0.00756623128618 -0.691284466592 -0.0227529601488 0.195941379399 0.190058907427 0.188944202176 0.219999263932 0.0919186407427 -0.312832703091 0.0544547125593 0.0144322307423 0.175211707973 -0.212136573565 -0.515591781909 -0.784949947269 -0.186377345755 0.406908148775 0.107273413064 0.479870231274 -0.418649311347 -0.443918937038 -0.166677433835 0.62589251028 -0.221101962538 -0.398789376248 -0.165797478477 0.812274756939 -0.406930112007 0.732224938605 0.14358398361 0.160143500064 -0.174009760042 0.190727063347 0.210003175419 0.587050855195 -0.776078460806 0.562208777851 0.220788038439 0.421140075202 -0.0896541483151 0.0204533132209 0.689386564747 0.221755253618 0.318238806421 -0.0518088174708 0.490370114122 0.332349338441 0.222710059077 0.214387880226 -0.0963480988973 0.972445224037 -0.140780683591 -0.283441677555 -0.275918553223 0.369390829313 0.425474885479 0.756295178377 0.639159030406 0.389416342443 0.345713054276 -0.578389400468 -0.397266499776 -0.163894352654 0.0595944488099 -0.362415240786 0.0480149573111 0.0762929471909 -0.154072802945 -0.152169218903 0.0317791831286 0.450021606311 0.263307662152 -0.019376393243 -0.579624207773 -0.36435252727 0.454459744147 -0.310547793681 0.268502651521 0.428798671327 -0.815359680856 0.356254732682 -0.549536954815 -0.633572488009 -0.344621259509 -0.534003931432 0.0740227373733 0.254580282864 0.217370657705 0.258931536096 -0.944642742355 0.374654311926 0.00687525320031 -0.143977017751 0.0881845381043 -0.420245530559 -0.564685045219 -0.412908780211 -0.419668449719 -0.405966645757 0.238159355594 0.166515119968 -0.0356261906204 -0.0512618334126 0.518254812423 0.290291736022 0.158609259903 -0.635967002222 0.0558990943072 0.0368608597395 0.145660801977 -0.193990534076 -0.152173899455 -0.546450244744 0.595748495431 0.675009170754 -0.514003463812 -0.359118599274 -0.888957680095 -0.369144549327 0.260098919977 -0.0717499426544 0.248610770652 -0.171591251509 0.269225111386 0.0660614297255 0.103595917647 -0.235353677256 0.156758651121 0.377722412394 0.0388036820669 0.0642031903427 -0.00756280426515 0.119225068495 -0.236749848321 -0.457705974566 -0.730772479909 -0.199593009521 -0.746698308981 -0.111134039389 -0.0795399598034 0.351509922955 -0.456893548057 -0.133436822231 0.134435586749 0.448431222721 -0.0492396258422 -0.113845576531 0.0805832307865 0.833523860534 -0.172460006595 0.664317372161 0.487953300306 -0.281888842208 0.722785840092 -0.15943153144 -0.481684898492 -0.234145485174 0.293776334302 0.566720746995 -0.0102128405998 0.551185558229 0.38707460111 -0.431047891549 1.17534214182 0.334329247161 0.149176014869 0.0424199013489 0.151285872971 0.0153554339098 -0.234543553476 0.379059975562 -0.279150591847 -0.477881370994 -0.219373052441 0.832356771441 -0.913980660606 -0.611629894975 -0.719907564442 -1.14096591641 -0.0676076774555 0.0438830185258 0.165388273992 -0.614189126545 -0.428982818316 -0.90237244031 -0.308773975372 -0.00751072112496 -0.0182090716084 0.397294175368 0.360640004285 0.627923989416 -0.59873090507 -0.223886303541 -0.591416240193 0.0984941560399 -0.33133350821 0.107864184073 -0.318253222189 0.409251235182 -0.123617163948 0.0422381963216 -0.116592770269 0.211391485274 -0.239079152882 -0.244233364608 -0.156031796359 0.680382923975 -0.619310476304 -0.79841525373 -0.127724249558 -0.211031686984 0.276832056897 -0.391825028167 -0.175071810408 -0.293714937192 0.0691341592303 -0.19399817671 0.251270964728 0.350253521765 0.0933672360964 0.502846104425 1.03305167191 0.214412705896 -0.158814704017 0.231879543663 0.324495292584 0.18157859654 0.123807940318 -1.10432586524 0.296291716651 0.216757426995 0.35013923811 -0.0970528729051 -0.816033440942 -0.287655245344 0.151098362379 0.422827695602 0.012576336343 -0.317790837055 0.11867222689 0.400239881513 -0.485529866666 0.489704911396 0.56143424462 -0.442679932711 0.440951697515 -0.611396341964 -1.23491437633 -0.134714053935 0.364647287854 0.473120526538 0.131293147132 -0.370822858193 0.32727808138 -0.500056998531 0.286416659622 0.286431942572 -0.131875797653 0.401261439724 0.200238941786 0.443557434287 -0.354721404257 -0.0522766118272 0.393817432533 -0.133482726078 -0.0121364750364 0.367281169847 -1.02297399396 -0.506382324401 0.368901549438 -0.885493543759 0.64755148895 0.25174759184 0.174293598874 -0.547267379614 -0.0497725874114 0.379602755046 -0.433515607088 -0.060608744443 -0.050402546162 0.392171631533 0.355425050924 0.476209717193 -0.199188446403 0.140348225941 0.270331275998 -0.362948299134 0.723164127243 0.55438780193 -0.447349703887 0.914903860229 -0.320966617059 0.715152483398 -0.0859668683966 0.179244248499 -0.130345974566 -0.126482211061 -0.702793442808 0.185067032859 0.181092441715 0.458402804554 0.0054251439046 0.396092132293 -0.0488174119728 0.208743106026 0.249134077656 -0.107072849031 0.166695824085 -0.113761779733 0.350051982502 0.134119964272 0.33626565857 0.060383636817 -0.365796936264 -0.33423796336 0.619563320607 -0.681031757903 -0.572940476407 0.087687218309 0.0547013487882 -0.503113177178 -0.219582160468 0.0840274769977 -0.133767368676 0.681950931792 -0.594145769745 -0.188781973933 -0.628808616845 0.259020768983 -0.437149665154 -0.179091793398 -0.100948519129 0.756478910229 0.678986012369 0.833616804678 0.361014100219 -0.874029053592 0.791903301107 0.562308207394 -0.29701887903 -0.740892082688 0.12628214341 0.642503939403 0.041692810269 -0.102871533001 0.273038272746 0.161006860422 -0.43089678451 0.260334427782 -0.144059038019 0.490015385912 -0.22612296298 0.521888493046 -0.0111263840559 -0.390195654738 -0.349376993389 -0.185455371134 -0.0468346645486 -0.713871464346 -0.113428617068 -0.040161894709 -0.283756969002 -0.443039581452 -0.649791982155 -0.614938751329 -0.114619916054 -0.172146622919 -0.585699475708 0.412142972513 -0.691882953473 -0.141990281741 0.0353176511535 -0.312454236669 -0.322303510997 -0.717714677893 -0.767776687226 -0.158220082535 0.311672395201 0.00564651737125 -0.405796793893 -0.599689554199 -0.283997676209 -0.179427584718 -0.00434398185596 -0.0533793940635 0.226254530738 0.276609011931 0.370526581417 -0.407166022535 0.23922936304 0.48226091996 -0.122540219487 0.120342129404 0.793878143113 -0.00154537927131 -0.215218712402 -0.246163832365 -0.00611676390469 -0.478141797536 -0.527303721276 -0.231657571872 0.628561107769 0.6507858569 -0.75980192505 -0.116182321962 -0.114754222097 0.330531572495 -0.141279051866 0.685463221971 0.250139597566 -0.0383657447997 0.200497034483 -0.397767528107 -0.0291234613528 -0.152110569502 -0.684239520158 0.21246554919 -0.418162612102 -0.124907236598 0.561659928494 -0.0960376447119 -0.258347586069 0.214854641697 -0.340156303419 -0.0574079771944 -0.687933104251 -0.336649463845 0.490227489957 0.533985546059 0.467694608694 -0.0246271698219 0.609274888001 -0.152934289454 -0.353349467855 -0.296411914509 0.85919517983 -0.383030741556 -0.101279190408 -0.145065102767 -0.541216592351 0.0304674952934 -0.158091583633 -0.249208189014 -0.320921658307 -0.0187475395385 0.0776287361508 -0.320175806094 -0.129329980034 -0.200850500424 -0.0059443591707 0.29515968623 0.0819314811647 -0.604675813216 -0.627661247772 0.276383277379 -0.153715482549 0.888733903451 -0.349458118778 -0.0138873320087 0.349911276573 0.148093316508 -0.35891330862 -0.0473701806797 -0.112419001795 -0.36972196009 0.9080942027 0.0666459735768 -0.479336191029 0.449467508704 -0.17134347684 -0.680001206678 -0.58466047147 0.0428808280904 -0.01138349474 -0.246525037985 0.831031631212 -0.335575267314 -0.101726814646 -0.020733183201 -0.84965515465 0.54859134751 0.593558059153 -0.163684890449 -0.138378126387 0.422006997314 0.591588685756 -0.41499041816 -0.0230749625194 -0.261375479781 -0.318276287855 -0.417708109518 -0.00893525551232 -0.0273418569985 0.490532921299 -0.40411564199 -0.297651199294 -0.307142084018 -0.575366135647 0.511000029877 -0.173072788641 -0.0240078393002 -0.0411630142017 -0.512904741627 -0.107040110712 0.0859186763683 -0.0161993327108 -0.133471081715 -0.0359435904207 0.341155898392 -0.0947732198303 -0.209563429794 -0.0149030748656 0.605458455253 -0.464086437698 -0.051496432809 -0.325342268894 -0.18754836295 -0.387366348605 -0.306163900334 -0.195403501883 0.105353379586 0.31525455772 0.252714603474 -0.0852402483581 -0.226292564548 0.288461317335 -0.0431792470678 -0.262295215036 -0.326521308961 0.276729214924 0.208313322404 -0.528761474059 -0.00365326426297 0.0665314475683 0.25766282827 -0.313792114506 0.171495560833 -0.10414156035 -0.040060451309 -0.414026290552 0.0172337536747 0.141212447396 0.42276748388 0.792314990178 -0.366189503341 0.0188581868518 0.818134329048 0.0486401897361 -0.128110680744 0.505263304281 -0.298570144056 0.242783609111 -0.192677544833 -0.852786900367 0.977531101875 0.31669071915 -0.246598934765 -0.222820437812 -0.119626782299 0.047995070939 -0.00311143577832 0.26953065026 -0.0206560257748 0.385539431022 -0.372238771657 0.254894052583 -0.00317670024021 0.12691947986 -0.0650546098523 -0.850163700977 -0.222891355343 0.657594378365 -0.953382076862 -0.433386125641 -0.59813958094 0.00604268847371 0.170394146541 -0.0600167871541 0.317353945778 0.430580017578 0.662268989446 -0.36208614728 -0.326839752119 -0.188485865637 -0.611249783923 -0.405785443956 -0.640836407069 -0.66049928259 -0.41657354088 -0.394432094423 0.0447667651546 0.0129850397417 0.564268979138 -0.138418258983 0.0451602903623 0.0949725638338 -0.0460869807403 0.219123963854 -0.65293795086 -0.376868232122 0.0676812313716 0.260459829716 -0.262457503567 0.139271604618 0.965965406774 0.217800281303 -0.0182595679285 0.223335111091 -0.133909931579 -0.159016911961 0.410497270803 0.0910288419116 0.69830240892 0.247239610735 -0.0386374584975 0.256175687806 0.422729226788 0.00668319633826 -0.831252094104 0.152859726504 0.650142875231 0.0944899194167 0.0291492710876 -0.507199973175 -0.25070214305 -0.252818686962 0.328566030991 -0.368470896179 0.270500936481 -0.317693845297 0.169198909601 0.102915692517 -0.290995426397 0.143425866834 -0.0711448850886 -0.0655087259623 0.551643068973 0.153707624823 1.28580263143 0.608169268926 -0.579132302831 -0.115950346428 -0.483603865184 -0.0583506433352 -0.660826204213 -0.403699614603 -0.287258450621 0.353328843755 -0.677833964497 0.0956311477431 0.172110844477 -0.145217620877 0.428839877411 -0.103837874027 0.193023027082 -0.132597663792 0.584496326428 0.55347877335 -0.175072557837 0.0912952076239 0.487895258417 0.787896564449 0.0253708470566 -0.560622743354 0.0193152114355 0.20123545021 -0.537120021667 -0.0254770958407 0.418863480803 0.237986658001 0.336076401948 -0.0919474347576 0.576297524282 -0.378216317748 -0.601164768971 0.438240340669 -0.0998458121746 0.0774327347558 -0.125099449177 -0.177285882763 -0.145821706461 -0.0944452740108 0.0876816148917 0.318987288381 -0.0229393634158 0.226279828081 0.173952751963 -0.100066814009 0.00811298000442 0.79475564186 -0.570183447147 0.535588784419 0.0955954421591 -0.575445060993 -0.528236496519 -0.537986536486 0.164884885641 0.250002930197 -0.418910217229 -0.273657082413 0.370109064431 -0.451510325263 0.406609762366 -0.494392524227 0.172438695419 -0.489876488512 0.197511118351 -0.565261493827 0.327467348427 -0.857143986791 -0.424329492794 -0.0133857702146 0.0698852124985 0.161142780359 -0.0407729328543 -0.0461316494614 0.4270638802 0.0597259672677 0.489456664004 0.156696894774 -0.857173159476 0.889050198084 -0.430579090915 0.622135836545 -0.244172230325 0.0295168758417 -0.713448041862 -0.176835933006 -0.0565576783553 0.0878021906189 -0.670282629344 0.078113442068 -0.237134354245 0.154975146406 -0.46600476027 0.146444368232 0.00261752391114 0.257011805096 0.444887194873 0.375554105566 -0.473385741021 -0.180443881435 0.429325031951 -0.309730948741 -0.199135622571 0.388573198326 -0.389675869012 0.0494445457283 -0.181566408802 0.736344247008 0.289064486058 0.119901520254 0.0403008437762 0.0169926318245 -0.632891119131 0.0754533881442 -0.824393334819 0.166692575667 0.271389740736 0.374771986376 0.170138694247 -0.264355295124 -0.794333847469 -0.11580265734 -0.0953496773841 -0.0983464721764 -0.442988985301 -0.580515383165 -0.0978087096233 0.660163443018 0.191158935766 0.60313953687 -0.307533107523 -0.0218424814623 -0.0530797547952 -0.342606397063 0.240153303708 0.611476364828 0.125910493972 -0.284992782606 -0.502462514656 -0.145258247896 0.534378426847 0.0267190159288 -0.294111630223 -0.181704081794 -0.0642518424149 0.221989533167 -0.0355353297442 0.0151309667125 0.344971570851 0.120395910553 0.136509781003 0.083711221382 -0.369147253783 0.110306625468 -0.282962532072 -0.0306786053908 0.718341995058 -0.357492943269 0.683222489288 -6.78780677496e-05 0.0380762179123 -0.682708556701 -0.00160841903933 -0.229104460055 -0.225806517951 -0.646722224757 -0.0700443150568 -0.311944677856 -0.180242551749 0.750189046427 0.038130978022 0.421560884619 -0.841094315567 -0.340377302136 -0.291781679104 -0.4053605312 -0.0368210531351 -0.273616708498 -0.429904791514 0.837718173504 0.0766909961066 0.351818844839 -0.130639214611 0.598972285927 0.378168615457 -0.230995543655 0.191362020761 0.174510912593 -0.141824959228 -0.309151807771 0.110914126463 0.21349725356 0.219583847182 0.133051539678 -0.233312077664 -0.413218167037 0.315499767851 0.834362501243 0.282117023332 0.21474712276 0.00570657045676 0.821264593183 -0.557137277443 -0.464608518947 -1.13952472371 -0.0297116816748 0.246463946518 -0.46655602536 0.0549532806057 0.112540371271 -0.320779820701 0.275844523754 1.00192404339 0.41483605792 0.372401332432 0.602288878111 -0.124304954947 -0.0164561823061 -0.493728684961 0.171475753179 -0.704675590168 -0.968752878621 -0.543980695385 0.602170083525 -0.199820869592 -0.0372883688482 0.102020326302 0.266617924001 0.850153020116 0.186400833048 -0.26088410916 0.403806384899 -0.119880922079 0.680287887039 0.313342528078 0.572065457485 0.299360037135 0.498827820088 -0.361310661017 0.750102307475 -0.0807411793524 0.683034563216 -0.232759703241 0.421819579367 -0.212631487046 0.494297011791 0.0945836420661 0.248094036563 -0.124637295901 0.664479019139 0.624142255985 -0.710206858581 -0.164881608381 -0.228853200498 -0.338165995972 0.161810687584 -0.549199188153 -0.631125439328 -0.625382676912 -0.623340354048 0.476066236645 0.0314252183351 -0.564549770418 0.0611125765128 -0.0574003947711 -0.320367082459 0.349923270276 -0.343096319102 0.446112662887 -0.081045833338 0.170846326351 -0.31489005909 0.683078088167 -0.739887655702 -0.142163277042 -0.376330620902 0.176194247696 -0.0562747390527 0.547293124918 -0.345968621786 -0.23250180166 0.637736714632 0.158764914562 -0.0993910374635 0.493679640419 0.0418174125602 -0.0608804241203 0.343004874406 -0.689252725607 -0.0302107430379 -0.286412520477 -0.0836266136342 0.237966263546 -0.273191744587 0.248613461393 -0.923779078052 -0.0472899645063 0.0614701179356 -0.280074129679 0.465686560339 0.236553140672 -0.582383738906 -0.643106438557 -0.153252251458 -0.00254593216546 -0.175171886715 -0.012274763119 -0.541615557257 -0.197524081553 0.62538311935 0.0547622644523 -0.049215826587 0.237586033483 0.432180907414 0.258369146949 -0.120833083638 -0.480402745114 -0.226531232507 0.452250343466 -0.47540655764 -0.412716105923 0.703541149778 -0.248691307447 -0.519007982501 -0.0850083532145 0.722150443315 -0.137180425122 0.553567934637 -0.164513861934 -0.194194830441 -0.10096582319 
